{"type":"LSTM","options":{"inputSize":65,"inputRange":65,"hiddenSizes":[20,20],"outputSize":65,"learningRate":0.01,"decayRate":0.999,"smoothEps":1e-8,"regc":0.000001,"clipval":5,"json":null,"dataFormatter":{"indexTable":{"0":37,"1":53,"2":36,"8":58," ":0,"w":1,"h":2,"a":3,"t":4,"b":5,"o":6,"u":7,"C":8,"n":9,"s":10,"m":11,"e":12,"r":13,"i":14,"l":15,"g":16,"?":17,"I":18,"c":19,":":20,"'":21,"B":22,"y":23,"&":24,";":25,"f":26,"d":27,"k":28,"-":29,"p":30,".":31,"v":32,"U":33,"S":34,",":35,"!":38,"A":39,"M":40,"E":41,"J":42,"x":43,"T":44,"H":45,"Y":46,")":47,"K":48,"P":49,"R":50,"O":51,"L":52,"G":54,"q":55,"j":56,"z":57,"_":59,"N":60,"W":61,"stop-input":62,"start-output":63,"unrecognized":64},"characterTable":{"0":" ","1":"w","2":"h","3":"a","4":"t","5":"b","6":"o","7":"u","8":"C","9":"n","10":"s","11":"m","12":"e","13":"r","14":"i","15":"l","16":"g","17":"?","18":"I","19":"c","20":":","21":"'","22":"B","23":"y","24":"&","25":";","26":"f","27":"d","28":"k","29":"-","30":"p","31":".","32":"v","33":"U","34":"S","35":",","36":"2","37":"0","38":"!","39":"A","40":"M","41":"E","42":"J","43":"x","44":"T","45":"H","46":"Y","47":")","48":"K","49":"P","50":"R","51":"O","52":"L","53":"1","54":"G","55":"q","56":"j","57":"z","58":"8","59":"_","60":"N","61":"W","62":"stop-input","63":"start-output","64":"unrecognized"},"values":[" what about Consumerism as the new religion? I can see it now: 'Buying is the new tithe' ","&gt; not sure why I care if a story about some idiotic Italian magistrates It's strange that this kind of head-in-the-sand dismissal of the international picture has become associated with the right. It seems to really weaken their hand. I have read that there is a belief in the US gov decision making process along the lines that because the US is so powerful, they now create history and don't really have to worry about international concerns and historical precedents.","...from 2002!","An article on Micro Economics by Joel Spolsky","Can someone explain to me why this is important? That is, other than to impresss someone with how much you can drink, which means you are childish or have serious self image problems. ","Hard to believe, I know, but the linked article actually explains that! You should give it a read.","I agree with you. BUT things which don't feel like revelations can also be extremely important. After all, you can't be a great hacker if you keep wasting your time on errands :-) Keep writing, Paul.","I don't think work has to be bone-crushingly insightful to be valuable. It helps to have it written out so you can keep reading what you already know.","I've been doing this sort of filtering with PROCMAIL for over 10 years now. I guess the cool thing is that gmail allows you to create sorting rules based on this criteria, that is impossible with other 'free' email providors.","It wasn't posted here because we are all familiar with Paul Graham's site and have probably found it ourselves already. Always ready to answer a rhetorical question, at your service.","So now with reddit we even have a place to start a discussion with the author :)","Some people have been able to comment for longer than others ;-)","There is an interesting phenomenon occurring at reddit whereby the majority left-leaning denizens of the sight are slowly alienating the minority right-leaning ones like myself. The only question I have is why do I care? I'm not sure why I care if a story about some idiotic Italian magistrates gets voted up to the top of the 'hot' list, but I do. I'm starting to feel like I don't fit in here. Maybe you should change the name to 'blueit'.","Yepp, plus the idea ain't new at all. I know many people who have been using this approach for some 8 years now. Also, you don't need Gmail to sort your emails by address. Every decent email client on the planet will do that just as good. Lastly, this approach is only useful if you are actually fully determined to sueing those companies' arses. Otherwise, it's a complete waste of time. Bottom line: this article is rather useless.","actually, as a lifelong atheist, i think it might be a good idea to have an official state church in the USA. a single officially recognized, state funded, church denomination that was considered the 'default religion' for anybody who didn't choose to opt out of it and pick another - would have to cater to everyone, could not afford to discriminate or act too fundamentalist crazy. it would have to be a church for the whole people, and therefore couldn't make enemies of anybody, really. and because it'd be the largest religion by far, it -- with its necessary tolerance -- would become the standard for other denominations to be judged by. an association with the state would tame religion, i think. or, since this _is_ the USA we're talking about, maybe it would destroy the state. politics here have a way of being bass-ackwards a lot of the time.","entirely fair, if the site is solely intended to be a feed of the web. I thought, though, that reddit is also about rating well-known bits of the web, eg. Norvig's programming-in-10-years essay, and all of the other stuff of graham's, etc..","reddit is 'what's new online' not 'rate the web' So i for my part will demote anything old like this article.","you know, I like Paul Grahams stuff. I'm not one of these people who dislike him because he's successful or because he's popular. Interestingly he wrote an essay on Being Popular, but it was talking about quite the opposite. Now he's popular, does that cause problems? Anyway, I've decided to register with Reddit and post something, but only because I'm avoiding doing this particular piece of work ;) As I've said, I like Pauls work, BUT I just get the feeling that its waning - his earlier stuff was was a real 'wow' factor for me as it was exactly what I'd been thinking and mirrored what we were doing. What I read now is 'ok' but I don't send it to all my friends and print it to make my wife read it. Am I the only one who feels like this?"],"characters":[" ","w","h","a","t","b","o","u","C","n","s","m","e","r","i","l","g","?","I","c",":","'","B","y","&",";","f","d","k","-","p",".","v","U","S",",","2","0","!","A","M","E","J","x","T","H","Y",")","K","P","R","O","L","1","G","q","j","z","8","_","N","W","stop-input","start-output","unrecognized"]}},"input":{"rows":66,"columns":65,"weights":{"0":-0.27274590730667114,"1":-2.61673903465271,"2":-1.358463168144226,"3":-1.8447555303573608,"4":0.555617094039917,"5":0.306469589471817,"6":3.174975872039795,"7":1.5613131523132324,"8":0.5177278518676758,"9":0.6130321621894836,"10":-0.2289244830608368,"11":-1.4595216512680054,"12":2.9368510246276855,"13":0.43970146775245667,"14":-0.029783086851239204,"15":0.3586578965187073,"16":3.0232770442962646,"17":1.385456919670105,"18":-2.794431447982788,"19":-1.1632814407348633,"20":4.60565185546875,"21":1.9994922876358032,"22":-1.547975778579712,"23":0.8323309421539307,"24":0.17142416536808014,"25":0.9721924662590027,"26":1.872438907623291,"27":-3.6562917232513428,"28":-0.46674323081970215,"29":-7.8825860023498535,"30":2.586484909057617,"31":2.34321928024292,"32":1.1831905841827393,"33":-1.6715041399002075,"34":1.191926121711731,"35":-0.6234927773475647,"36":1.490558385848999,"37":0.11397001147270203,"38":-2.4580576419830322,"39":-0.14264056086540222,"40":2.508769989013672,"41":0.767519474029541,"42":-1.8443822860717773,"43":-2.2045774459838867,"44":3.0608270168304443,"45":-2.611722707748413,"46":3.8867857456207275,"47":0.9122105836868286,"48":1.1546447277069092,"49":-0.5132076144218445,"50":1.2427901029586792,"51":0.17922113835811615,"52":0.2594090402126312,"53":-1.9280341863632202,"54":-1.7062464952468872,"55":-2.4905943870544434,"56":3.4994797706604004,"57":-1.1583136320114136,"58":-1.413236379623413,"59":-3.8960788249969482,"60":3.514005422592163,"61":-2.068675994873047,"62":1.7704946994781494,"63":-2.1947948932647705,"64":-3.615403890609741,"65":2.0074005126953125,"66":2.761056900024414,"67":-5.848106384277344,"68":-0.14129672944545746,"69":1.660260558128357,"70":4.770534515380859,"71":-0.03411924093961716,"72":1.104717493057251,"73":2.0923290252685547,"74":1.6316332817077637,"75":-3.1247611045837402,"76":-4.217621326446533,"77":0.39876845479011536,"78":2.5559678077697754,"79":0.407202810049057,"80":0.4579108655452728,"81":1.6633646488189697,"82":0.9300775527954102,"83":3.918849229812622,"84":-0.9649410247802734,"85":1.2634199857711792,"86":0.6899452805519104,"87":-0.9420529007911682,"88":-1.0406532287597656,"89":-1.8776507377624512,"90":-5.418331146240234,"91":4.297232627868652,"92":-2.767423152923584,"93":1.0083593130111694,"94":2.4376273155212402,"95":4.437905788421631,"96":1.320246934890747,"97":-2.4211249351501465,"98":-0.7428972721099854,"99":-1.181027889251709,"100":-2.3465354442596436,"101":0.783790111541748,"102":1.8534460067749023,"103":2.5017590522766113,"104":1.8500466346740723,"105":-2.0948822498321533,"106":3.558892250061035,"107":4.524461269378662,"108":3.7498562335968018,"109":1.3424476385116577,"110":0.9963299632072449,"111":3.8336238861083984,"112":-3.7852258682250977,"113":1.8378527164459229,"114":2.312412738800049,"115":-6.076355934143066,"116":-1.463020920753479,"117":0.8717989325523376,"118":-0.5669766664505005,"119":-1.1931183338165283,"120":-0.2449064701795578,"121":2.735149383544922,"122":1.9493697881698608,"123":1.5466877222061157,"124":1.4461331367492676,"125":-0.07770383358001709,"126":0.3869664967060089,"127":1.909369707107544,"128":-0.8949574828147888,"129":-1.6442675590515137,"130":1.399553656578064,"131":-2.260737657546997,"132":-0.025291532278060913,"133":-2.549468994140625,"134":1.8935128450393677,"135":4.608457565307617,"136":1.9365123510360718,"137":-1.104068636894226,"138":-1.8968144655227661,"139":-0.5500289797782898,"140":-0.11803087592124939,"141":-3.6974263191223145,"142":2.011032819747925,"143":-0.6670437455177307,"144":-1.334088921546936,"145":3.003129482269287,"146":-1.3919651508331299,"147":4.371521472930908,"148":-2.4989874362945557,"149":-0.1418876200914383,"150":-2.447511911392212,"151":-4.822047233581543,"152":2.137519121170044,"153":-4.046813488006592,"154":3.6359469890594482,"155":1.4589006900787354,"156":4.154414653778076,"157":-1.296700119972229,"158":0.42178061604499817,"159":-0.776444673538208,"160":-0.016887430101633072,"161":2.440727949142456,"162":3.680294990539551,"163":-5.942655086517334,"164":1.5582062005996704,"165":0.5609101057052612,"166":4.017263889312744,"167":-1.1454668045043945,"168":-2.4487662315368652,"169":-0.025841686874628067,"170":-1.6436889171600342,"171":-1.3288042545318604,"172":-2.3992979526519775,"173":0.10430904477834702,"174":-2.6601412296295166,"175":-1.7490390539169312,"176":0.3096761107444763,"177":0.15449795126914978,"178":-0.6018803715705872,"179":3.7292027473449707,"180":-1.087196946144104,"181":-0.7392813563346863,"182":5.113559246063232,"183":-1.5328973531723022,"184":2.531710147857666,"185":-3.1202752590179443,"186":1.7572872638702393,"187":5.346611499786377,"188":-2.0180723667144775,"189":-1.7844630479812622,"190":-3.391965389251709,"191":3.8930516242980957,"192":0.33903366327285767,"193":-2.7625811100006104,"194":-1.5249489545822144,"195":1.1869838237762451,"196":-2.322969675064087,"197":-5.765868186950684,"198":-5.041643142700195,"199":0.7060191035270691,"200":2.5899314880371094,"201":2.228935956954956,"202":2.324995994567871,"203":-0.747636616230011,"204":0.1554599404335022,"205":-1.1425976753234863,"206":-1.6758813858032227,"207":-4.614337921142578,"208":-3.65248441696167,"209":0.17941126227378845,"210":2.4578871726989746,"211":-0.7777215838432312,"212":0.6088268756866455,"213":-1.1262067556381226,"214":-4.573763370513916,"215":3.23793888092041,"216":-1.942488670349121,"217":2.800711154937744,"218":1.2015888690948486,"219":2.642003059387207,"220":-0.31535762548446655,"221":3.7879233360290527,"222":-2.5828049182891846,"223":-0.38350710272789,"224":-0.9432317614555359,"225":2.656498908996582,"226":5.223653793334961,"227":2.893463134765625,"228":-6.130327224731445,"229":0.5177371501922607,"230":1.067944049835205,"231":0.057021934539079666,"232":-0.5804538726806641,"233":3.642406463623047,"234":0.2503424882888794,"235":-0.14583119750022888,"236":1.6951932907104492,"237":-2.9055445194244385,"238":1.3585166931152344,"239":-2.6048338413238525,"240":-0.9364625811576843,"241":3.006272077560425,"242":1.379671573638916,"243":-0.9546826481819153,"244":-2.7704999446868896,"245":-1.1184723377227783,"246":4.591036796569824,"247":-0.3161555826663971,"248":-1.9197036027908325,"249":1.6655173301696777,"250":-5.984365463256836,"251":-2.449223518371582,"252":-0.6841153502464294,"253":3.419940233230591,"254":0.15889722108840942,"255":1.7924034595489502,"256":-1.0213720798492432,"257":4.503506660461426,"258":4.016900062561035,"259":-0.6367599368095398,"260":2.1047255992889404,"261":2.087407112121582,"262":-7.340557098388672,"263":-16.677204132080078,"264":-6.737125873565674,"265":-3.073988437652588,"266":1.3624871969223022,"267":-1.1048580408096313,"268":-0.8915928602218628,"269":-1.3866184949874878,"270":-8.76611328125,"271":2.9659578800201416,"272":0.33875659108161926,"273":-6.175154209136963,"274":1.0388234853744507,"275":-3.791874408721924,"276":-10.835906028747559,"277":3.0217204093933105,"278":-2.2263731956481934,"279":4.591503620147705,"280":-5.4508161544799805,"281":0.27119895815849304,"282":0.9324981570243835,"283":-0.2409505993127823,"284":0.1648864895105362,"285":-0.6365326642990112,"286":0.3514713943004608,"287":5.083908557891846,"288":-6.00998067855835,"289":1.5400439500808716,"290":-1.068031907081604,"291":2.7787625789642334,"292":1.0222015380859375,"293":1.456811785697937,"294":2.802842855453491,"295":0.9608969688415527,"296":-2.0334277153015137,"297":9.138916015625,"298":-6.407626152038574,"299":0.5923656225204468,"300":-3.7548844814300537,"301":-4.5663628578186035,"302":2.3601174354553223,"303":-4.14174747467041,"304":-7.626671314239502,"305":-0.8671922087669373,"306":-1.4320505857467651,"307":-9.983673095703125,"308":7.205192565917969,"309":-2.44805908203125,"310":1.3575925827026367,"311":2.3878300189971924,"312":-4.916670322418213,"313":-5.393476486206055,"314":-2.13979172706604,"315":0.33715546131134033,"316":-0.6511305570602417,"317":-3.1368494033813477,"318":-2.67924165725708,"319":0.03616343438625336,"320":2.653339385986328,"321":-3.1305201053619385,"322":0.31809747219085693,"323":2.1861586570739746,"324":2.351689100265503,"325":-0.8180828094482422,"326":-4.60909366607666,"327":0.8006779551506042,"328":4.875547885894775,"329":0.26878809928894043,"330":2.2831287384033203,"331":-2.2603981494903564,"332":2.4370272159576416,"333":-1.7551805973052979,"334":-2.330866575241089,"335":-1.5360372066497803,"336":-2.3595786094665527,"337":-2.020453691482544,"338":-1.8615162372589111,"339":1.0799005031585693,"340":5.157981872558594,"341":0.6686131954193115,"342":6.448296070098877,"343":0.9661590456962585,"344":-0.6542279720306396,"345":-2.0922129154205322,"346":-0.12694323062896729,"347":-0.9012106657028198,"348":-3.5613791942596436,"349":-1.0020445585250854,"350":-0.7227529883384705,"351":-6.899136066436768,"352":-2.0546183586120605,"353":0.3871453106403351,"354":1.7156949043273926,"355":2.305788993835449,"356":-1.5604292154312134,"357":1.4054155349731445,"358":-12.69910717010498,"359":-1.997458815574646,"360":2.4703562259674072,"361":-0.7228274941444397,"362":1.7443022727966309,"363":2.174133062362671,"364":2.0934202671051025,"365":-1.257639765739441,"366":-0.08700244873762131,"367":-9.998498916625977,"368":-3.60833477973938,"369":-0.2094961404800415,"370":-2.4273180961608887,"371":3.3710484504699707,"372":-2.3584086894989014,"373":-0.37166789174079895,"374":1.3052890300750732,"375":-0.2873266935348511,"376":-2.273353338241577,"377":1.4912879467010498,"378":1.7170366048812866,"379":-0.4710520803928375,"380":-2.725898504257202,"381":-0.8663823008537292,"382":-3.3178346157073975,"383":-1.338597297668457,"384":0.5541695356369019,"385":2.4175596237182617,"386":1.3099939823150635,"387":-0.8708171844482422,"388":-2.3900177478790283,"389":1.2013136148452759,"390":-4.726803779602051,"391":5.751958847045898,"392":4.224775314331055,"393":-0.09783362597227097,"394":-0.5990573167800903,"395":-3.906278133392334,"396":-0.21791382133960724,"397":-1.052797555923462,"398":1.0227125883102417,"399":-0.20410160720348358,"400":-0.9654710292816162,"401":4.2341413497924805,"402":-3.004373550415039,"403":-7.114780426025391,"404":3.433173656463623,"405":-4.761443614959717,"406":-6.058012962341309,"407":-0.005387166049331427,"408":-2.8430213928222656,"409":0.3855994641780853,"410":-1.4356859922409058,"411":-1.168276071548462,"412":-2.7308571338653564,"413":0.6332001090049744,"414":0.7612650394439697,"415":-3.6032590866088867,"416":-3.112109422683716,"417":0.8546327948570251,"418":-4.062246799468994,"419":5.440954685211182,"420":-0.811220645904541,"421":-2.3866217136383057,"422":0.1394605040550232,"423":-4.525382041931152,"424":0.9827920794487,"425":-4.071531772613525,"426":1.9654754400253296,"427":3.0256147384643555,"428":-4.3207197189331055,"429":-3.987119197845459,"430":2.135388135910034,"431":-5.306923866271973,"432":-0.3582346737384796,"433":1.7550129890441895,"434":-1.9047354459762573,"435":-0.21160604059696198,"436":1.3539680242538452,"437":-1.6086333990097046,"438":2.666715145111084,"439":-1.452158808708191,"440":-0.24742643535137177,"441":-2.967153787612915,"442":-5.266417503356934,"443":0.6557453274726868,"444":-0.3437329828739166,"445":2.4106125831604004,"446":0.005955351982265711,"447":-7.708765029907227,"448":1.0081206560134888,"449":3.008535623550415,"450":2.77626633644104,"451":4.069582462310791,"452":-3.246192216873169,"453":1.0968059301376343,"454":-0.17103974521160126,"455":1.82417631149292,"456":0.9509957432746887,"457":-0.06873739510774612,"458":-0.4019114077091217,"459":2.185796022415161,"460":-1.488611102104187,"461":-1.0335965156555176,"462":-1.1674457788467407,"463":1.02715003490448,"464":0.40847596526145935,"465":0.09173040837049484,"466":0.14500896632671356,"467":2.069591522216797,"468":1.325270175933838,"469":-1.667208194732666,"470":0.12865859270095825,"471":0.40082961320877075,"472":4.685558795928955,"473":1.9654799699783325,"474":-0.17007660865783691,"475":1.414154291152954,"476":1.8816086053848267,"477":-1.542614221572876,"478":-2.60945200920105,"479":1.5089683532714844,"480":-0.9217610955238342,"481":-2.6629347801208496,"482":2.3809494972229004,"483":-0.680692732334137,"484":3.1158525943756104,"485":-2.8101632595062256,"486":-1.4093329906463623,"487":-1.3570301532745361,"488":-1.7030181884765625,"489":-4.627394676208496,"490":-0.7958640456199646,"491":-1.621955394744873,"492":3.9420523643493652,"493":-6.8679728507995605,"494":0.869372546672821,"495":-6.08992862701416,"496":-2.8922832012176514,"497":-0.4893333613872528,"498":0.8506176471710205,"499":6.505974769592285,"500":4.0406718254089355,"501":0.6327084302902222,"502":-5.536396503448486,"503":0.6149528622627258,"504":0.08846674859523773,"505":-0.17200776934623718,"506":-1.0413281917572021,"507":-9.173746109008789,"508":3.578105926513672,"509":-0.36711791157722473,"510":1.3307769298553467,"511":-0.8035407066345215,"512":-11.763851165771484,"513":-0.1934303641319275,"514":-2.9419870376586914,"515":-2.018920660018921,"516":-3.25974178314209,"517":-1.4107537269592285,"518":-0.28728222846984863,"519":3.250964641571045,"520":-0.13987435400485992,"521":0.14344149827957153,"522":1.6409071683883667,"523":-3.0286502838134766,"524":-3.8267929553985596,"525":2.0715651512145996,"526":1.9151861667633057,"527":2.0011942386627197,"528":-3.9123992919921875,"529":-0.11955973505973816,"530":-1.682676911354065,"531":-2.267768144607544,"532":0.8059003353118896,"533":0.8771440982818604,"534":-2.46701717376709,"535":1.1640535593032837,"536":1.3609604835510254,"537":-1.8929795026779175,"538":-1.3469327688217163,"539":-1.33402681350708,"540":0.7257663607597351,"541":4.919419288635254,"542":-1.6722891330718994,"543":-1.6478396654129028,"544":1.592786431312561,"545":-0.5596580505371094,"546":2.9136898517608643,"547":-1.4619197845458984,"548":-1.0235100984573364,"549":-0.09849835932254791,"550":0.965272068977356,"551":-3.043915271759033,"552":0.04254851117730141,"553":-2.590033769607544,"554":-1.2835670709609985,"555":1.444869875907898,"556":-3.741469383239746,"557":2.34266996383667,"558":0.5977171659469604,"559":-0.6353130340576172,"560":2.666012763977051,"561":4.510656833648682,"562":2.1932876110076904,"563":1.456961989402771,"564":-4.091735363006592,"565":1.4705283641815186,"566":0.5373629927635193,"567":0.6241655945777893,"568":-1.2364497184753418,"569":2.256410837173462,"570":-0.1522870659828186,"571":-1.923749327659607,"572":2.462371349334717,"573":2.4272778034210205,"574":-2.3582403659820557,"575":-4.373658180236816,"576":-0.3448507785797119,"577":-0.6768151521682739,"578":1.5226962566375732,"579":0.2183975875377655,"580":2.150102376937866,"581":-1.3442599773406982,"582":0.23186209797859192,"583":1.9054232835769653,"584":3.6592419147491455,"585":-7.103662490844727,"586":5.79899263381958,"587":11.804858207702637,"588":1.5465948581695557,"589":2.8851287364959717,"590":7.34542989730835,"591":1.0760828256607056,"592":8.41698169708252,"593":13.747063636779785,"594":6.738657474517822,"595":13.113178253173828,"596":1.3512909412384033,"597":-4.478123664855957,"598":11.37914752960205,"599":-11.23166561126709,"600":-3.1903321743011475,"601":-1.674442172050476,"602":5.387969493865967,"603":-5.150331497192383,"604":-4.613517761230469,"605":0.6500167846679688,"606":-4.753000736236572,"607":-2.449097156524658,"608":-2.7975053787231445,"609":0.9284140467643738,"610":2.79950213432312,"611":-7.54000186920166,"612":7.390969753265381,"613":-1.7318103313446045,"614":-12.393146514892578,"615":-2.9961326122283936,"616":-0.9551151990890503,"617":12.021941184997559,"618":-8.70310115814209,"619":-7.709609508514404,"620":-11.197627067565918,"621":6.96729850769043,"622":5.2892866134643555,"623":-11.118550300598145,"624":-1.4742909669876099,"625":0.20156823098659515,"626":2.386686325073242,"627":4.848686695098877,"628":2.950061082839966,"629":0.05306892469525337,"630":10.376368522644043,"631":-0.5466998815536499,"632":-13.145305633544922,"633":-6.94906759262085,"634":3.4444239139556885,"635":-0.8897808194160461,"636":4.748425006866455,"637":9.970703125,"638":2.7597243785858154,"639":-3.045790195465088,"640":8.682168960571289,"641":1.1764836311340332,"642":7.383584976196289,"643":-2.4554858207702637,"644":-5.388124942779541,"645":3.436001777648926,"646":-4.2046098709106445,"647":-8.139151573181152,"648":-0.15275269746780396,"649":-2.7020649909973145,"650":-0.036759473383426666,"651":-0.8985697627067566,"652":-2.7164082527160645,"653":-0.2245945930480957,"654":5.172257900238037,"655":-8.63753890991211,"656":-0.9872497916221619,"657":1.5282208919525146,"658":-0.904545783996582,"659":-2.016252040863037,"660":-0.026461416855454445,"661":4.007917881011963,"662":-1.2122546434402466,"663":1.446262240409851,"664":-0.30932751297950745,"665":-2.2189624309539795,"666":1.4020479917526245,"667":-3.872077703475952,"668":0.32550230622291565,"669":-1.5354443788528442,"670":0.6908970475196838,"671":2.226719379425049,"672":-2.1485674381256104,"673":3.5214908123016357,"674":7.7295122146606445,"675":-9.45433235168457,"676":-3.032571315765381,"677":-0.621739387512207,"678":-9.670331954956055,"679":-0.8764957785606384,"680":-0.44255244731903076,"681":1.2081551551818848,"682":-2.74784779548645,"683":8.96789836883545,"684":-3.740159511566162,"685":2.466121196746826,"686":0.21467068791389465,"687":2.053187608718872,"688":-1.4754996299743652,"689":0.9436120986938477,"690":-6.605005741119385,"691":-3.085864305496216,"692":-1.718092679977417,"693":1.9883923530578613,"694":-4.787113666534424,"695":0.132554292678833,"696":0.6672646999359131,"697":0.44328513741493225,"698":1.3164006471633911,"699":-0.452976256608963,"700":-0.9424660801887512,"701":2.7260220050811768,"702":-4.0861968994140625,"703":-0.4760778248310089,"704":-4.241602420806885,"705":-0.22297051548957825,"706":3.284586191177368,"707":-1.082123875617981,"708":2.02130389213562,"709":-0.9665560126304626,"710":-0.21676817536354065,"711":0.5419800877571106,"712":1.215930700302124,"713":0.3316211700439453,"714":-4.848283290863037,"715":-3.6904773712158203,"716":-0.9385114312171936,"717":3.817711114883423,"718":0.5818722248077393,"719":1.5387449264526367,"720":2.6812474727630615,"721":-0.7503347992897034,"722":-1.3362129926681519,"723":2.1149284839630127,"724":1.967429518699646,"725":-11.970327377319336,"726":-2.935624122619629,"727":2.5913660526275635,"728":2.659420967102051,"729":0.4699709713459015,"730":-0.3770022690296173,"731":0.4288485050201416,"732":-0.4817442297935486,"733":-1.9756443500518799,"734":-1.2027336359024048,"735":1.947200894355774,"736":2.0784530639648438,"737":-0.5344541072845459,"738":5.376128673553467,"739":-3.3169643878936768,"740":2.1474251747131348,"741":-2.378678560256958,"742":-0.14610829949378967,"743":-0.08790397644042969,"744":-0.5564342737197876,"745":3.1482410430908203,"746":2.5578317642211914,"747":1.63839590549469,"748":3.571323871612549,"749":-0.7374849915504456,"750":-1.5447046756744385,"751":-1.7442383766174316,"752":-1.9912906885147095,"753":-0.3967393934726715,"754":1.7613755464553833,"755":-0.1837698072195053,"756":-1.8465301990509033,"757":0.6502264738082886,"758":1.6353496313095093,"759":-0.5247979164123535,"760":-1.21617591381073,"761":-0.8371843695640564,"762":-1.7383270263671875,"763":1.8061929941177368,"764":1.2979052066802979,"765":-0.04293011501431465,"766":-3.7262215614318848,"767":-3.985247850418091,"768":-3.7605140209198,"769":0.004336820915341377,"770":2.634596347808838,"771":1.544020175933838,"772":13.942358016967773,"773":0.3201795816421509,"774":-1.2658966779708862,"775":1.8349220752716064,"776":-3.7209725379943848,"777":2.603050708770752,"778":-4.157076358795166,"779":-4.602488040924072,"780":2.185056209564209,"781":1.6645140647888184,"782":-1.2498948574066162,"783":-0.5986900925636292,"784":4.999814987182617,"785":4.694618225097656,"786":-5.718893527984619,"787":-0.9461380243301392,"788":-1.7448886632919312,"789":-1.6460113525390625,"790":-1.3515421152114868,"791":-0.1453520804643631,"792":-2.6529111862182617,"793":-0.8493683934211731,"794":-0.024312905967235565,"795":-1.2816232442855835,"796":-0.1284683495759964,"797":3.4350409507751465,"798":0.23777669668197632,"799":-0.8097782731056213,"800":-1.724592685699463,"801":-1.7395001649856567,"802":1.2479429244995117,"803":4.412128925323486,"804":2.4258508682250977,"805":2.1613590717315674,"806":1.966115117073059,"807":2.1167924404144287,"808":-2.9987728595733643,"809":3.6841607093811035,"810":-0.3855716586112976,"811":0.5935073494911194,"812":2.6576995849609375,"813":1.9398505687713623,"814":-0.8302600979804993,"815":0.14395536482334137,"816":0.6602280139923096,"817":3.7881851196289062,"818":-1.0887614488601685,"819":-1.4658775329589844,"820":1.50589919090271,"821":0.07228033989667892,"822":1.9909981489181519,"823":3.447341203689575,"824":-9.286027908325195,"825":-1.4112286567687988,"826":0.14872877299785614,"827":2.4626002311706543,"828":-2.7234818935394287,"829":-1.2489851713180542,"830":-1.0579071044921875,"831":2.4055793285369873,"832":3.678435802459717,"833":-5.561070919036865,"834":5.822900772094727,"835":-7.861574172973633,"836":-2.032766342163086,"837":-0.3247668445110321,"838":-0.21976906061172485,"839":-1.3630012273788452,"840":-3.014493227005005,"841":-0.32032257318496704,"842":1.2831312417984009,"843":1.3729702234268188,"844":0.21870970726013184,"845":-1.262164831161499,"846":-0.06046629324555397,"847":5.492167949676514,"848":2.1865780353546143,"849":2.6204051971435547,"850":5.448113918304443,"851":-3.703892946243286,"852":-2.2316200733184814,"853":0.22436049580574036,"854":0.7030014991760254,"855":-2.7850069999694824,"856":-0.7587404847145081,"857":-0.3368484079837799,"858":-1.5210672616958618,"859":-0.8165764212608337,"860":2.3382411003112793,"861":1.4467434883117676,"862":6.360044002532959,"863":-4.923507213592529,"864":-0.7101387977600098,"865":0.08294490724802017,"866":0.4341835677623749,"867":1.4410371780395508,"868":0.9245752096176147,"869":0.02781650982797146,"870":0.014291527681052685,"871":0.3174660801887512,"872":-1.1033575534820557,"873":0.5361289978027344,"874":-1.1868938207626343,"875":2.1190478801727295,"876":-1.660524845123291,"877":4.071284294128418,"878":-1.989823818206787,"879":-1.6369132995605469,"880":2.932368516921997,"881":-3.347820997238159,"882":-1.4990745782852173,"883":2.2637827396392822,"884":-0.9694456458091736,"885":0.8376594185829163,"886":-0.5321070551872253,"887":0.40153956413269043,"888":1.6580947637557983,"889":3.1184635162353516,"890":1.1211371421813965,"891":1.4078158140182495,"892":-0.4139745533466339,"893":1.4907152652740479,"894":0.06071627512574196,"895":0.46559709310531616,"896":-3.7086949348449707,"897":0.02680879645049572,"898":-1.8751325607299805,"899":-2.458681106567383,"900":-0.8767862319946289,"901":-2.9326283931732178,"902":3.378464698791504,"903":-0.7241533398628235,"904":0.3329433500766754,"905":-4.927950859069824,"906":4.154520511627197,"907":-1.140446662902832,"908":-4.224255561828613,"909":-3.7238521575927734,"910":-2.389690637588501,"911":-0.573131263256073,"912":0.663301944732666,"913":4.526647567749023,"914":6.0862274169921875,"915":0.2847774624824524,"916":-6.333854675292969,"917":0.018559448421001434,"918":-0.6321722269058228,"919":0.74948650598526,"920":0.44576171040534973,"921":-1.8420673608779907,"922":-2.723653554916382,"923":-2.1598007678985596,"924":-0.6226866841316223,"925":-3.500079393386841,"926":6.7306413650512695,"927":2.1466217041015625,"928":5.343960762023926,"929":1.1801825761795044,"930":2.2976930141448975,"931":1.1365423202514648,"932":1.7827136516571045,"933":2.187753677368164,"934":-1.779781460762024,"935":2.6359939575195312,"936":-2.625715970993042,"937":-4.778469085693359,"938":0.4296155571937561,"939":-0.757364809513092,"940":2.37040638923645,"941":0.5969936847686768,"942":0.5095894932746887,"943":-3.85693097114563,"944":-3.1475815773010254,"945":6.601202011108398,"946":-1.3042333126068115,"947":-1.235465407371521,"948":-2.404900312423706,"949":-1.305014729499817,"950":0.11733920872211456,"951":1.5490347146987915,"952":0.3144496977329254,"953":0.22794227302074432,"954":4.936742305755615,"955":1.3591680526733398,"956":4.364935398101807,"957":5.004931926727295,"958":2.8834235668182373,"959":-0.50423663854599,"960":-1.4429036378860474,"961":-0.05116847902536392,"962":-0.5188319087028503,"963":-4.326842784881592,"964":-5.287597179412842,"965":0.04543048515915871,"966":-2.307772397994995,"967":-2.2411041259765625,"968":-1.5045634508132935,"969":-0.8435450792312622,"970":-2.6612071990966797,"971":-0.6878259181976318,"972":-1.2626768350601196,"973":-0.04218218848109245,"974":5.279356002807617,"975":-0.3087719678878784,"976":0.3322802186012268,"977":-4.929859161376953,"978":7.639267921447754,"979":-0.6597731113433838,"980":-5.101861953735352,"981":2.774108648300171,"982":1.297052264213562,"983":0.484525203704834,"984":-1.9306855201721191,"985":-2.8188180923461914,"986":2.214193820953369,"987":2.0019466876983643,"988":-1.2932302951812744,"989":-0.027172885835170746,"990":-1.3277281522750854,"991":-0.8604757785797119,"992":-1.9047815799713135,"993":-3.806652069091797,"994":4.194800853729248,"995":0.6078303456306458,"996":3.4341249465942383,"997":-4.2362189292907715,"998":4.392147541046143,"999":-2.927553653717041,"1000":0.8001263737678528,"1001":-2.1240038871765137,"1002":-0.2966482937335968,"1003":6.574495315551758,"1004":1.8806910514831543,"1005":2.3119940757751465,"1006":-0.5639610886573792,"1007":1.572589635848999,"1008":-4.385279655456543,"1009":4.173707485198975,"1010":1.3324588537216187,"1011":1.5380477905273438,"1012":1.6614677906036377,"1013":-1.2416478395462036,"1014":1.7300567626953125,"1015":-3.619859218597412,"1016":0.3971833288669586,"1017":-5.699210166931152,"1018":-2.7399308681488037,"1019":-1.9173119068145752,"1020":-2.4030933380126953,"1021":-1.2129119634628296,"1022":-1.2787611484527588,"1023":-4.04769229888916,"1024":2.4686198234558105,"1025":-0.4314110279083252,"1026":-2.0052947998046875,"1027":-0.42695745825767517,"1028":0.2062375247478485,"1029":-6.546022415161133,"1030":-0.04619402065873146,"1031":3.2523386478424072,"1032":2.8850643634796143,"1033":-1.8788658380508423,"1034":1.3278924226760864,"1035":2.8242077827453613,"1036":-0.03503014147281647,"1037":0.010760067030787468,"1038":-0.9380908012390137,"1039":-3.5627453327178955,"1040":-1.9640746116638184,"1041":3.149423599243164,"1042":-0.12562187016010284,"1043":4.8858466148376465,"1044":-1.6598647832870483,"1045":-0.8770754337310791,"1046":1.1526402235031128,"1047":4.290552616119385,"1048":-0.8006921410560608,"1049":2.9304802417755127,"1050":-2.5184271335601807,"1051":-4.075578689575195,"1052":-2.285623788833618,"1053":-6.297563552856445,"1054":-2.0109665393829346,"1055":0.25793299078941345,"1056":0.156164288520813,"1057":-0.9337302446365356,"1058":-1.2720504999160767,"1059":2.39451003074646,"1060":-0.17169053852558136,"1061":0.5200252532958984,"1062":-3.8287808895111084,"1063":3.5227344036102295,"1064":-0.10580087453126907,"1065":0.47109293937683105,"1066":0.7411882877349854,"1067":2.024211883544922,"1068":5.395326137542725,"1069":-2.0881528854370117,"1070":-1.7981218099594116,"1071":-2.75348162651062,"1072":-5.014303684234619,"1073":0.9026331305503845,"1074":4.509317398071289,"1075":-0.8012629747390747,"1076":3.3795318603515625,"1077":1.6508949995040894,"1078":-1.0611220598220825,"1079":1.272080421447754,"1080":0.5608843564987183,"1081":2.3659160137176514,"1082":-5.411451816558838,"1083":-5.953004360198975,"1084":-2.4401981830596924,"1085":0.7087745666503906,"1086":-0.4771501123905182,"1087":1.9926873445510864,"1088":-0.6963456273078918,"1089":-2.8307249546051025,"1090":0.03319425508379936,"1091":4.1184983253479,"1092":1.0112192630767822,"1093":-6.543377876281738,"1094":-1.8841447830200195,"1095":-1.1487129926681519,"1096":-1.2740716934204102,"1097":1.332589864730835,"1098":-1.406207799911499,"1099":-0.773917555809021,"1100":-0.48666656017303467,"1101":-1.6480216979980469,"1102":-0.21756963431835175,"1103":0.22212329506874084,"1104":1.467349886894226,"1105":-3.107463836669922,"1106":-3.4060540199279785,"1107":-6.793411731719971,"1108":1.2550852298736572,"1109":-3.2383172512054443,"1110":-1.6831473112106323,"1111":4.118680953979492,"1112":0.02071927860379219,"1113":0.2837889492511749,"1114":-0.7409278154373169,"1115":-1.6298375129699707,"1116":-0.2718569338321686,"1117":-0.6546961069107056,"1118":-4.410760402679443,"1119":1.6503928899765015,"1120":-0.9114195108413696,"1121":-3.714158296585083,"1122":1.1284312009811401,"1123":-2.113323926925659,"1124":-2.037036180496216,"1125":-2.1901438236236572,"1126":0.938741147518158,"1127":-0.4957523047924042,"1128":-5.470374584197998,"1129":0.6643000841140747,"1130":0.28280436992645264,"1131":1.0691962242126465,"1132":-5.771324157714844,"1133":6.356227874755859,"1134":-1.687364101409912,"1135":-0.6547415852546692,"1136":0.18856601417064667,"1137":-0.9051553606987,"1138":-9.142330169677734,"1139":1.8742257356643677,"1140":0.2983434796333313,"1141":0.29172900319099426,"1142":-0.618898868560791,"1143":-2.0090291500091553,"1144":-0.8320087790489197,"1145":1.7768136262893677,"1146":0.12998312711715698,"1147":-9.928875923156738,"1148":-3.244511842727661,"1149":-1.623055100440979,"1150":0.5076972842216492,"1151":1.9105006456375122,"1152":-0.8001612424850464,"1153":0.3925953805446625,"1154":-0.040441352874040604,"1155":0.8589411377906799,"1156":1.679210901260376,"1157":-1.0022770166397095,"1158":1.185774803161621,"1159":-3.3986096382141113,"1160":-1.4254354238510132,"1161":-2.080852508544922,"1162":-4.586356163024902,"1163":1.1752299070358276,"1164":3.1765849590301514,"1165":1.8016475439071655,"1166":-2.6381826400756836,"1167":0.33331382274627686,"1168":-0.011455762200057507,"1169":0.339730829000473,"1170":-1.753198504447937,"1171":3.4968526363372803,"1172":-1.8072935342788696,"1173":4.509274959564209,"1174":10.503966331481934,"1175":-11.348729133605957,"1176":-1.3212144374847412,"1177":-1.2051631212234497,"1178":0.3238237500190735,"1179":-1.4020384550094604,"1180":-2.3427977561950684,"1181":0.8640259504318237,"1182":4.3552422523498535,"1183":5.69634485244751,"1184":6.434294700622559,"1185":-6.782827377319336,"1186":-3.063810348510742,"1187":4.184545040130615,"1188":-2.941206216812134,"1189":-6.01503849029541,"1190":5.562544345855713,"1191":0.5434037446975708,"1192":-2.879136085510254,"1193":-0.9587459564208984,"1194":3.172206163406372,"1195":-9.447690963745117,"1196":-2.559574604034424,"1197":-3.2234201431274414,"1198":0.13616880774497986,"1199":4.420989036560059,"1200":1.536429762840271,"1201":6.3608903884887695,"1202":-1.116085410118103,"1203":5.0794525146484375,"1204":-3.789421319961548,"1205":-10.473464965820312,"1206":-4.2933030128479,"1207":0.8207778930664062,"1208":-1.5173001289367676,"1209":5.4132232666015625,"1210":4.683698654174805,"1211":-1.6533222198486328,"1212":0.9653236269950867,"1213":-9.551677703857422,"1214":-3.562093496322632,"1215":-4.731966018676758,"1216":-2.1109237670898438,"1217":6.519628047943115,"1218":0.8021208643913269,"1219":-3.6378979682922363,"1220":0.5578409433364868,"1221":1.9885711669921875,"1222":-11.23124885559082,"1223":-1.5078980922698975,"1224":-11.382059097290039,"1225":5.81879186630249,"1226":-2.1271398067474365,"1227":4.941675662994385,"1228":2.107926845550537,"1229":-4.328899383544922,"1230":0.3447684645652771,"1231":4.601437568664551,"1232":5.0507636070251465,"1233":1.1468693017959595,"1234":-2.1141984462738037,"1235":-3.786743402481079,"1236":3.151062488555908,"1237":5.647507190704346,"1238":-2.1068530082702637,"1239":0.14123374223709106,"1240":-3.2883410453796387,"1241":1.4897902011871338,"1242":-1.1043072938919067,"1243":0.7519011497497559,"1244":1.9188405275344849,"1245":5.651150226593018,"1246":-1.3954533338546753,"1247":3.625936269760132,"1248":-0.6191150546073914,"1249":-0.3782110810279846,"1250":-4.978869915008545,"1251":3.2593302726745605,"1252":0.4300663471221924,"1253":2.5161564350128174,"1254":5.610795497894287,"1255":0.3009319007396698,"1256":6.612341403961182,"1257":-2.1654372215270996,"1258":-4.923399925231934,"1259":-1.1720085144042969,"1260":1.5308318138122559,"1261":-3.7884044647216797,"1262":2.5814218521118164,"1263":0.42796581983566284,"1264":-1.7430641651153564,"1265":3.5271003246307373,"1266":0.41463539004325867,"1267":3.655073642730713,"1268":0.16755947470664978,"1269":2.786026954650879,"1270":-3.9486002922058105,"1271":-3.7106947898864746,"1272":-4.086785316467285,"1273":-3.6377532482147217,"1274":7.058796405792236,"1275":-2.4499478340148926,"1276":1.3312573432922363,"1277":-3.52070689201355,"1278":0.8137356638908386,"1279":-1.7681589126586914,"1280":0.21111254394054413,"1281":0.8917182683944702,"1282":-0.7273458242416382,"1283":3.439096212387085,"1284":-4.4884934425354,"1285":-0.11121955513954163,"1286":7.507533550262451,"1287":-5.415781497955322,"1288":4.792867660522461,"1289":-4.798251152038574,"1290":5.9398674964904785,"1291":4.08367395401001,"1292":0.06502395123243332,"1293":3.56477952003479,"1294":-1.6880223751068115,"1295":2.3207201957702637,"1296":-0.16118018329143524,"1297":-5.033806324005127,"1298":-5.535836696624756,"1299":6.606316566467285,"1300":-4.997296333312988,"1301":-0.7507930994033813,"1302":3.7707364559173584,"1303":4.37688684463501,"1304":-5.192883491516113,"1305":-2.4804623126983643,"1306":1.8086860179901123,"1307":-4.391719818115234,"1308":1.3928649425506592,"1309":-0.3616316616535187,"1310":-6.400336742401123,"1311":-0.6528063416481018,"1312":-2.092989683151245,"1313":-0.8524811267852783,"1314":2.115363121032715,"1315":-0.44570356607437134,"1316":-4.891812324523926,"1317":0.8304428458213806,"1318":-1.1435117721557617,"1319":-3.495839834213257,"1320":2.8229637145996094,"1321":0.483522891998291,"1322":-0.9632635712623596,"1323":-1.8392099142074585,"1324":-2.3456737995147705,"1325":-0.1729842871427536,"1326":-4.022636413574219,"1327":0.6205670833587646,"1328":-2.7125682830810547,"1329":1.4054529666900635,"1330":-0.9989991784095764,"1331":0.8735349774360657,"1332":-0.6528486609458923,"1333":-1.0634353160858154,"1334":1.51753568649292,"1335":-1.305197834968567,"1336":-2.166269540786743,"1337":4.065983772277832,"1338":-1.6718511581420898,"1339":0.3219546973705292,"1340":2.3170273303985596,"1341":-6.700671672821045,"1342":1.346435308456421,"1343":0.19961079955101013,"1344":-0.7093505859375,"1345":-4.0498552322387695,"1346":0.9050269722938538,"1347":-8.084481239318848,"1348":2.1010208129882812,"1349":-1.3221546411514282,"1350":-1.4344371557235718,"1351":-1.8871228694915771,"1352":-0.7456614971160889,"1353":-1.2619727849960327,"1354":-0.3593706786632538,"1355":6.155467987060547,"1356":1.4103906154632568,"1357":-5.56582498550415,"1358":-1.8322854042053223,"1359":1.772733211517334,"1360":0.4607223868370056,"1361":-3.0381391048431396,"1362":2.5322513580322266,"1363":-3.9056220054626465,"1364":1.3233410120010376,"1365":4.775836944580078,"1366":0.17584256827831268,"1367":6.237090587615967,"1368":-7.263558387756348,"1369":3.929379463195801,"1370":-4.563977241516113,"1371":-7.573639392852783,"1372":-4.149102210998535,"1373":-9.103522300720215,"1374":9.15616512298584,"1375":4.6132965087890625,"1376":-2.760284185409546,"1377":2.457825183868408,"1378":11.604837417602539,"1379":2.2527506351470947,"1380":-0.5388274192810059,"1381":-0.07107552140951157,"1382":4.349183082580566,"1383":4.52638053894043,"1384":-4.597127437591553,"1385":0.9572857022285461,"1386":-1.7426254749298096,"1387":-7.152069091796875,"1388":1.4773976802825928,"1389":4.024704456329346,"1390":2.7854127883911133,"1391":-1.3409658670425415,"1392":6.271067142486572,"1393":6.74428129196167,"1394":4.7076921463012695,"1395":2.5226316452026367,"1396":-2.00026273727417,"1397":-4.755682468414307,"1398":5.173322677612305,"1399":9.836956024169922,"1400":-9.47201156616211,"1401":4.998016834259033,"1402":-2.615541458129883,"1403":9.034154891967773,"1404":-4.302143573760986,"1405":-4.709719657897949,"1406":7.537671089172363,"1407":3.6843857765197754,"1408":-2.02030086517334,"1409":-7.881081581115723,"1410":12.902241706848145,"1411":2.7816362380981445,"1412":1.221420168876648,"1413":-7.754187107086182,"1414":-0.849760115146637,"1415":3.6726584434509277,"1416":3.519413709640503,"1417":5.10554838180542,"1418":-2.952789068222046,"1419":-9.342350959777832,"1420":6.200681686401367,"1421":-1.8606261014938354,"1422":10.984770774841309,"1423":11.086241722106934,"1424":9.215758323669434,"1425":-11.435415267944336,"1426":0.8740990161895752,"1427":6.194154262542725,"1428":-1.6174801588058472,"1429":-4.635572910308838,"1430":1.5380955934524536,"1431":-0.5490452647209167,"1432":-2.300250768661499,"1433":1.0119786262512207,"1434":-1.8699346780776978,"1435":1.8885966539382935,"1436":0.20427951216697693,"1437":1.147182822227478,"1438":0.44465765357017517,"1439":-5.121274471282959,"1440":-0.48624905943870544,"1441":-1.5705978870391846,"1442":0.8749149441719055,"1443":-2.3419623374938965,"1444":0.6991807818412781,"1445":-0.8484609723091125,"1446":-1.1178052425384521,"1447":-0.6558476090431213,"1448":1.3567026853561401,"1449":1.6028050184249878,"1450":2.3876848220825195,"1451":-0.38871607184410095,"1452":-7.051290512084961,"1453":-0.19825397431850433,"1454":0.7681064605712891,"1455":-2.014400005340576,"1456":-1.9899258613586426,"1457":-1.9312937259674072,"1458":3.089428186416626,"1459":-2.0781190395355225,"1460":1.8563936948776245,"1461":4.064909934997559,"1462":2.010727643966675,"1463":3.56080961227417,"1464":2.020415782928467,"1465":-3.1713294982910156,"1466":-0.06411775201559067,"1467":0.13122422993183136,"1468":-0.41643401980400085,"1469":1.8948767185211182,"1470":1.4541457891464233,"1471":0.7570495009422302,"1472":-0.9782664179801941,"1473":3.630854368209839,"1474":-2.0697824954986572,"1475":-2.4884424209594727,"1476":-1.6794971227645874,"1477":1.626144528388977,"1478":0.04997231811285019,"1479":-0.6407962441444397,"1480":-0.6811059713363647,"1481":-1.2470588684082031,"1482":-0.9830024242401123,"1483":-1.3331555128097534,"1484":0.41032662987709045,"1485":-0.7116832137107849,"1486":0.44883251190185547,"1487":-0.856005072593689,"1488":0.19016925990581512,"1489":-0.3505348563194275,"1490":8.143540382385254,"1491":1.418483853340149,"1492":2.8673856258392334,"1493":2.0368850231170654,"1494":4.574761867523193,"1495":7.867539405822754,"1496":0.48442742228507996,"1497":4.163318157196045,"1498":-3.5357396602630615,"1499":-0.9476887583732605,"1500":-8.130582809448242,"1501":-7.273087501525879,"1502":5.121435642242432,"1503":-1.8294298648834229,"1504":7.687733173370361,"1505":-5.743824005126953,"1506":-4.554904937744141,"1507":-1.3322687149047852,"1508":-2.436734676361084,"1509":0.6621536016464233,"1510":-2.2581794261932373,"1511":-5.8581929206848145,"1512":-7.992363929748535,"1513":3.1109395027160645,"1514":-2.2691640853881836,"1515":-5.052375316619873,"1516":-3.1360819339752197,"1517":-1.1135917901992798,"1518":5.232068061828613,"1519":6.24862003326416,"1520":-6.453228950500488,"1521":1.769222378730774,"1522":-1.4917852878570557,"1523":0.3106769621372223,"1524":-8.551403045654297,"1525":-2.596695899963379,"1526":-5.149920463562012,"1527":-5.621682167053223,"1528":8.090505599975586,"1529":6.563889503479004,"1530":-0.6310824155807495,"1531":-4.119694709777832,"1532":4.108016014099121,"1533":-7.983362197875977,"1534":-1.0616620779037476,"1535":2.239579916000366,"1536":2.611832618713379,"1537":0.3425784111022949,"1538":4.713386535644531,"1539":-3.456874132156372,"1540":-1.4595648050308228,"1541":-3.861604928970337,"1542":-2.0291154384613037,"1543":3.806478977203369,"1544":5.457406044006348,"1545":-2.841665029525757,"1546":4.221151351928711,"1547":-9.938394546508789,"1548":-1.88772714138031,"1549":1.484185814857483,"1550":5.996460437774658,"1551":-5.4024224281311035,"1552":11.742852210998535,"1553":4.813899517059326,"1554":5.7186760902404785,"1555":2.280972719192505,"1556":-0.6403236985206604,"1557":-0.9353968501091003,"1558":11.227249145507812,"1559":0.20685222744941711,"1560":-1.1829726696014404,"1561":-1.0576465129852295,"1562":2.289536952972412,"1563":0.6341813206672668,"1564":-0.7127329111099243,"1565":0.32069626450538635,"1566":1.5894997119903564,"1567":1.8800488710403442,"1568":-4.8455939292907715,"1569":-5.44582462310791,"1570":-4.506242752075195,"1571":0.13200445473194122,"1572":-0.18129326403141022,"1573":1.7563339471817017,"1574":0.3633599877357483,"1575":4.3937883377075195,"1576":-0.7205172777175903,"1577":4.831371307373047,"1578":-2.647244453430176,"1579":-3.5818915367126465,"1580":1.8499234914779663,"1581":1.1007059812545776,"1582":1.7435619831085205,"1583":1.9113050699234009,"1584":0.550370991230011,"1585":0.1305874139070511,"1586":-1.123538613319397,"1587":0.49836233258247375,"1588":-1.984752893447876,"1589":1.1666945219039917,"1590":0.44313305616378784,"1591":2.4629197120666504,"1592":1.28110671043396,"1593":-2.0159358978271484,"1594":4.623301982879639,"1595":4.7709479331970215,"1596":-0.9084054231643677,"1597":2.0171749591827393,"1598":0.18041375279426575,"1599":-0.072385273873806,"1600":1.6704686880111694,"1601":0.4298981726169586,"1602":6.297133922576904,"1603":1.1899150609970093,"1604":-1.3977253437042236,"1605":-0.8479200005531311,"1606":2.167036533355713,"1607":5.559406280517578,"1608":1.8343322277069092,"1609":-1.730996012687683,"1610":-3.569448947906494,"1611":-0.7411788105964661,"1612":-1.370736837387085,"1613":-2.5221307277679443,"1614":-0.24086761474609375,"1615":0.6090141534805298,"1616":3.533597707748413,"1617":3.1165781021118164,"1618":-1.8642550706863403,"1619":-2.1820032596588135,"1620":0.8054026961326599,"1621":0.2863244116306305,"1622":3.9213221073150635,"1623":-2.434152841567993,"1624":-2.0843286514282227,"1625":3.720762014389038,"1626":14.178483009338379,"1627":1.146153211593628,"1628":-2.10079026222229,"1629":1.2124550342559814,"1630":6.570467472076416,"1631":-4.025144577026367,"1632":-13.508865356445312,"1633":-3.517483949661255,"1634":-7.8041839599609375,"1635":-16.871252059936523,"1636":28.32987403869629,"1637":-0.30235928297042847,"1638":-13.453804016113281,"1639":-13.126274108886719,"1640":4.340353488922119,"1641":-16.13951301574707,"1642":10.798609733581543,"1643":-0.31061527132987976,"1644":-19.15374183654785,"1645":-6.696308135986328,"1646":-1.1389893293380737,"1647":-11.18950366973877,"1648":5.290184497833252,"1649":5.405323505401611,"1650":9.549695014953613,"1651":17.23786735534668,"1652":-4.755847930908203,"1653":1.5512133836746216,"1654":2.5567615032196045,"1655":-5.783908367156982,"1656":-3.433349370956421,"1657":6.3060503005981445,"1658":-1.113977074623108,"1659":-8.801763534545898,"1660":5.038750648498535,"1661":6.2559123039245605,"1662":4.583480358123779,"1663":8.944482803344727,"1664":-11.401731491088867,"1665":6.664701461791992,"1666":7.208542823791504,"1667":7.955438137054443,"1668":2.825608730316162,"1669":9.122756958007812,"1670":-0.0597437284886837,"1671":11.57262897491455,"1672":-7.29162073135376,"1673":-5.203380584716797,"1674":-12.931366920471191,"1675":-7.274416446685791,"1676":-3.185028553009033,"1677":0.015294797718524933,"1678":6.189913749694824,"1679":8.107600212097168,"1680":-4.272576808929443,"1681":-1.4384815692901611,"1682":-14.154081344604492,"1683":0.7725331783294678,"1684":1.9431043863296509,"1685":-12.166887283325195,"1686":-12.35620403289795,"1687":8.257493019104004,"1688":-1.5328255891799927,"1689":-8.355669975280762,"1690":-10.791142463684082,"1691":-1.4511579275131226,"1692":-1.5617260932922363,"1693":-0.6501176357269287,"1694":2.3267550468444824,"1695":-0.1580466330051422,"1696":-1.9220322370529175,"1697":11.611135482788086,"1698":-8.119708061218262,"1699":-8.90744686126709,"1700":-5.534586429595947,"1701":3.0267252922058105,"1702":0.4705877900123596,"1703":-0.6166033148765564,"1704":-1.0245939493179321,"1705":-1.5915696620941162,"1706":2.035957098007202,"1707":8.835894584655762,"1708":4.382992267608643,"1709":0.5262514352798462,"1710":-2.7753219604492188,"1711":-0.8441200852394104,"1712":3.5221362113952637,"1713":2.7630691528320312,"1714":3.0847322940826416,"1715":-4.166049480438232,"1716":4.6492533683776855,"1717":2.4439308643341064,"1718":-3.414492607116699,"1719":-2.3520145416259766,"1720":9.3153657913208,"1721":1.2390891313552856,"1722":-0.2736659348011017,"1723":0.18266282975673676,"1724":9.242546081542969,"1725":4.347636699676514,"1726":-3.4154012203216553,"1727":7.723891258239746,"1728":-12.649303436279297,"1729":-1.3185958862304688,"1730":-10.287304878234863,"1731":-5.862956523895264,"1732":1.9581444263458252,"1733":10.33408260345459,"1734":-7.097952365875244,"1735":2.480877161026001,"1736":7.0167646408081055,"1737":-0.03216897323727608,"1738":-2.3276784420013428,"1739":0.8327732086181641,"1740":-4.164009094238281,"1741":-0.37534502148628235,"1742":-8.28542709350586,"1743":3.016944646835327,"1744":-7.212253570556641,"1745":-4.065469264984131,"1746":-5.446669101715088,"1747":0.2234203964471817,"1748":-0.4757726490497589,"1749":9.561532974243164,"1750":5.733839988708496,"1751":-5.237999439239502,"1752":11.365367889404297,"1753":-0.31086134910583496,"1754":13.768296241760254,"1755":-0.21569281816482544,"1756":-1.1329659223556519,"1757":-0.3176141381263733,"1758":1.2421447038650513,"1759":-0.8513445854187012,"1760":5.882699489593506,"1761":0.19948184490203857,"1762":-0.1827169805765152,"1763":-0.36172521114349365,"1764":-0.5682733058929443,"1765":0.8411614298820496,"1766":0.8904411792755127,"1767":-0.7369158267974854,"1768":-1.9936974048614502,"1769":2.169128179550171,"1770":-2.235252857208252,"1771":-0.2519015371799469,"1772":7.2092437744140625,"1773":2.272916316986084,"1774":-0.7183245420455933,"1775":0.05261664837598801,"1776":-0.5879188776016235,"1777":-2.004929542541504,"1778":-3.5332775115966797,"1779":-3.795285701751709,"1780":-0.17756709456443787,"1781":0.5037528276443481,"1782":1.420676827430725,"1783":0.671546220779419,"1784":1.909594178199768,"1785":1.9829224348068237,"1786":-1.1159517765045166,"1787":0.4140351414680481,"1788":2.6185414791107178,"1789":2.164313554763794,"1790":-0.09348147362470627,"1791":1.247988224029541,"1792":-0.9167666435241699,"1793":-6.357250690460205,"1794":-2.4813334941864014,"1795":4.956023693084717,"1796":0.7361451387405396,"1797":3.1723084449768066,"1798":-1.0049251317977905,"1799":-0.5914508104324341,"1800":0.1643827259540558,"1801":0.5241197347640991,"1802":-1.5621018409729004,"1803":-8.727394104003906,"1804":0.4486008286476135,"1805":-0.6004355549812317,"1806":-0.22239629924297333,"1807":1.545729637145996,"1808":0.8344137668609619,"1809":3.692887544631958,"1810":0.1154250055551529,"1811":-6.434595108032227,"1812":-0.3044402301311493,"1813":-0.7191057801246643,"1814":-1.8316603899002075,"1815":0.16678988933563232,"1816":-0.06057891622185707,"1817":-5.3509087562561035,"1818":-0.6910256147384644,"1819":-1.228929877281189,"1820":1.9833847284317017,"1821":-2.428945302963257,"1822":-1.6173548698425293,"1823":-1.7339595556259155,"1824":1.4792948961257935,"1825":-0.5888747572898865,"1826":-3.273280143737793,"1827":0.35795357823371887,"1828":-2.658668279647827,"1829":-2.4895284175872803,"1830":-3.023216962814331,"1831":-2.7190775871276855,"1832":-1.5435874462127686,"1833":3.455059051513672,"1834":-0.8251227140426636,"1835":4.131648063659668,"1836":-2.1224663257598877,"1837":3.289064884185791,"1838":-5.974944114685059,"1839":0.5036108493804932,"1840":1.670912742614746,"1841":1.4436731338500977,"1842":-0.011303503066301346,"1843":2.790850877761841,"1844":0.40517812967300415,"1845":1.5858590602874756,"1846":-1.1337940692901611,"1847":-3.598839044570923,"1848":-0.6104397177696228,"1849":-0.3709740936756134,"1850":-0.7050666809082031,"1851":-0.1690453737974167,"1852":0.7088786363601685,"1853":-1.9026859998703003,"1854":0.009645991027355194,"1855":-0.33714771270751953,"1856":0.3384249210357666,"1857":0.7388150691986084,"1858":-0.4114665985107422,"1859":1.3335176706314087,"1860":0.28867611289024353,"1861":-0.3317723274230957,"1862":-0.960135817527771,"1863":0.39518964290618896,"1864":1.367170810699463,"1865":-2.3887054920196533,"1866":1.6438570022583008,"1867":-0.6844568848609924,"1868":-3.2433080673217773,"1869":-1.2126961946487427,"1870":-0.5353230237960815,"1871":-2.777156352996826,"1872":1.0148496627807617,"1873":-0.011520757339894772,"1874":1.8213434219360352,"1875":1.2729350328445435,"1876":0.6335036158561707,"1877":-5.348437309265137,"1878":-0.872087299823761,"1879":3.2529475688934326,"1880":0.4843849837779999,"1881":-0.8144938945770264,"1882":0.5129956603050232,"1883":-0.26399755477905273,"1884":-1.9436168670654297,"1885":-0.28205612301826477,"1886":1.8356568813323975,"1887":-2.6792964935302734,"1888":-1.1489341259002686,"1889":2.561826705932617,"1890":0.7536747455596924,"1891":1.5493189096450806,"1892":-1.0132169723510742,"1893":-0.8921831250190735,"1894":1.5360755920410156,"1895":-1.0974705219268799,"1896":0.47909870743751526,"1897":3.8409183025360107,"1898":1.8501062393188477,"1899":-0.9228474497795105,"1900":1.0948954820632935,"1901":0.6896969079971313,"1902":-1.4273991584777832,"1903":0.9602389335632324,"1904":1.7503074407577515,"1905":7.521102428436279,"1906":-0.31857872009277344,"1907":-1.092208981513977,"1908":-3.28802227973938,"1909":-1.028572678565979,"1910":-3.372692823410034,"1911":1.6303741931915283,"1912":3.3916356563568115,"1913":-0.07000382989645004,"1914":-1.686155915260315,"1915":0.6447710394859314,"1916":2.0435028076171875,"1917":1.4873114824295044,"1918":-0.9312810301780701,"1919":2.421562671661377,"1920":-3.0537819862365723,"1921":1.0841820240020752,"1922":-3.2053093910217285,"1923":-2.311603307723999,"1924":0.5331082940101624,"1925":-0.9001137018203735,"1926":-0.05717241019010544,"1927":0.8792648911476135,"1928":2.5566344261169434,"1929":-3.974388837814331,"1930":-0.5273575186729431,"1931":-2.5074844360351562,"1932":1.7116180658340454,"1933":2.252776622772217,"1934":-4.459310531616211,"1935":0.2949604094028473,"1936":-1.5899914503097534,"1937":-0.28533196449279785,"1938":0.03649568930268288,"1939":0.07863832265138626,"1940":-1.310289978981018,"1941":4.041941165924072,"1942":2.0723531246185303,"1943":4.736830234527588,"1944":-5.522268295288086,"1945":4.5461320877075195,"1946":-0.283562570810318,"1947":0.6675390005111694,"1948":1.2768473625183105,"1949":-1.1135139465332031,"1950":-2.681579828262329,"1951":-0.08978038281202316,"1952":7.086894989013672,"1953":1.017778754234314,"1954":-4.973515510559082,"1955":-0.2988724112510681,"1956":2.614635705947876,"1957":-1.635627031326294,"1958":-3.8382768630981445,"1959":-0.8584542870521545,"1960":-2.199558973312378,"1961":2.2318108081817627,"1962":3.0890121459960938,"1963":-2.0348734855651855,"1964":-6.984299182891846,"1965":-2.977597951889038,"1966":-2.027097702026367,"1967":-1.0958811044692993,"1968":-4.341243743896484,"1969":4.813789367675781,"1970":-9.745738983154297,"1971":-4.059605598449707,"1972":-1.3117859363555908,"1973":1.784328579902649,"1974":4.077346324920654,"1975":-4.502272605895996,"1976":0.3900017738342285,"1977":1.6603827476501465,"1978":-6.822225093841553,"1979":-7.310084819793701,"1980":2.435058116912842,"1981":-8.034259796142578,"1982":1.5679441690444946,"1983":-11.391058921813965,"1984":9.272544860839844,"1985":2.6724393367767334,"1986":5.020966529846191,"1987":8.268962860107422,"1988":-12.310272216796875,"1989":-7.904384613037109,"1990":7.940297603607178,"1991":-3.4226760864257812,"1992":5.278275966644287,"1993":1.97556734085083,"1994":-3.0924072265625,"1995":-4.058973789215088,"1996":-3.8786184787750244,"1997":17.445388793945312,"1998":5.833772659301758,"1999":-0.30718982219696045,"2000":-1.5644177198410034,"2001":0.6547324061393738,"2002":-0.6315299272537231,"2003":0.24645178020000458,"2004":5.576737403869629,"2005":-2.726823568344116,"2006":-7.664010047912598,"2007":1.3766463994979858,"2008":4.613945960998535,"2009":1.615960717201233,"2010":1.9769642353057861,"2011":-6.213560581207275,"2012":-1.3289430141448975,"2013":4.162517070770264,"2014":-2.2877445220947266,"2015":-0.5336746573448181,"2016":-1.044490098953247,"2017":3.6097941398620605,"2018":-1.6165297031402588,"2019":1.6772058010101318,"2020":-0.6968849897384644,"2021":-2.427090883255005,"2022":-2.461350679397583,"2023":0.49371635913848877,"2024":-0.42270493507385254,"2025":-0.7668711543083191,"2026":0.9297646284103394,"2027":-0.04644745588302612,"2028":4.733644485473633,"2029":-1.7978508472442627,"2030":3.8354852199554443,"2031":-6.874228477478027,"2032":4.153875350952148,"2033":2.7956669330596924,"2034":-0.9465435147285461,"2035":2.834169864654541,"2036":1.1072978973388672,"2037":0.4036339223384857,"2038":-1.7313365936279297,"2039":-1.2251944541931152,"2040":1.7764886617660522,"2041":0.17735058069229126,"2042":-2.1998744010925293,"2043":0.407935231924057,"2044":1.062522530555725,"2045":-1.7979590892791748,"2046":1.1999156475067139,"2047":-2.771881580352783,"2048":-0.2678331136703491,"2049":-4.423123359680176,"2050":-0.6470906138420105,"2051":-5.335750579833984,"2052":-0.9454407691955566,"2053":1.7581658363342285,"2054":-0.19228246808052063,"2055":1.9331753253936768,"2056":0.45870521664619446,"2057":-2.3632938861846924,"2058":7.631267070770264,"2059":-3.218475580215454,"2060":0.316922664642334,"2061":4.383007526397705,"2062":1.4532701969146729,"2063":0.662760853767395,"2064":-1.7029458284378052,"2065":-4.262689590454102,"2066":-4.056161880493164,"2067":-0.2933686375617981,"2068":3.500383138656616,"2069":-0.4421819746494293,"2070":6.792637825012207,"2071":-0.35015085339546204,"2072":-3.0691604614257812,"2073":0.20381046831607819,"2074":-0.749401867389679,"2075":-2.2457644939422607,"2076":-1.857202172279358,"2077":-1.0056978464126587,"2078":2.345644235610962,"2079":-1.8001348972320557,"2080":-2.6313929557800293,"2081":3.046398162841797,"2082":4.055046081542969,"2083":1.5838829278945923,"2084":1.0865082740783691,"2085":-8.99236011505127,"2086":-6.038546085357666,"2087":-1.361158013343811,"2088":-8.044759750366211,"2089":-4.653212070465088,"2090":0.6449562311172485,"2091":-2.9897525310516357,"2092":-0.7281787991523743,"2093":3.444542646408081,"2094":2.028470754623413,"2095":-4.065845966339111,"2096":-3.254106044769287,"2097":-4.000840663909912,"2098":4.624711990356445,"2099":-3.1033403873443604,"2100":-0.47675925493240356,"2101":-2.744993209838867,"2102":-8.305749893188477,"2103":-5.865294933319092,"2104":-2.2715883255004883,"2105":-4.736140251159668,"2106":-5.586495399475098,"2107":-0.4499541223049164,"2108":0.16195259988307953,"2109":0.5498747825622559,"2110":-1.4308080673217773,"2111":-1.2983437776565552,"2112":-1.968916654586792,"2113":6.048369884490967,"2114":4.0432820320129395,"2115":-3.616192102432251,"2116":-0.1268901526927948,"2117":-0.3981258273124695,"2118":-1.79673433303833,"2119":4.359618186950684,"2120":2.2629928588867188,"2121":-3.9454078674316406,"2122":-1.1907751560211182,"2123":-0.15255233645439148,"2124":1.3608455657958984,"2125":-0.4081736207008362,"2126":2.021998882293701,"2127":6.546232223510742,"2128":-3.616159677505493,"2129":-1.2438392639160156,"2130":1.777564525604248,"2131":-2.5080416202545166,"2132":-3.3995630741119385,"2133":-0.567763090133667,"2134":-4.478044509887695,"2135":4.189517974853516,"2136":1.5142709016799927,"2137":0.12109441310167313,"2138":0.9283390641212463,"2139":1.1666388511657715,"2140":-0.2777913510799408,"2141":-2.1382946968078613,"2142":0.24716737866401672,"2143":-0.6578595042228699,"2144":2.2468042373657227,"2145":0.4860479533672333,"2146":-2.4406583309173584,"2147":-1.555741786956787,"2148":-0.39776983857154846,"2149":0.4551807641983032,"2150":-0.8628132343292236,"2151":6.058407783508301,"2152":-0.1661234050989151,"2153":-0.3092691898345947,"2154":-1.309065818786621,"2155":-2.3515586853027344,"2156":1.014390230178833,"2157":4.424820899963379,"2158":9.23804759979248,"2159":-2.65287709236145,"2160":3.060426950454712,"2161":0.3279956579208374,"2162":-0.8180869221687317,"2163":0.11693181842565536,"2164":-0.4640948176383972,"2165":0.7364982962608337,"2166":-2.1191022396087646,"2167":-1.7407985925674438,"2168":1.7012815475463867,"2169":-0.8456955552101135,"2170":-0.4559764266014099,"2171":-2.4457356929779053,"2172":-3.455277681350708,"2173":-4.974063873291016,"2174":-2.04840350151062,"2175":-2.833495616912842,"2176":2.704857349395752,"2177":-0.3125794231891632,"2178":0.5051143765449524,"2179":-6.004125118255615,"2180":4.035487174987793,"2181":1.4665645360946655,"2182":-6.477041721343994,"2183":0.8277088403701782,"2184":1.755325436592102,"2185":0.5602392554283142,"2186":0.09938585013151169,"2187":-3.3334157466888428,"2188":1.5082191228866577,"2189":3.115757703781128,"2190":-0.5032135248184204,"2191":3.701606273651123,"2192":0.7321453094482422,"2193":7.936242580413818,"2194":-0.7555187344551086,"2195":-1.9989150762557983,"2196":-1.9963752031326294,"2197":-3.4094629287719727,"2198":0.6175402998924255,"2199":-1.0161558389663696,"2200":-3.957045078277588,"2201":-2.219876766204834,"2202":-6.573520183563232,"2203":0.9726291298866272,"2204":-2.825829029083252,"2205":-0.3487184941768646,"2206":-0.872559666633606,"2207":2.818643093109131,"2208":0.08793540298938751,"2209":0.23993849754333496,"2210":0.8383453488349915,"2211":1.6554266214370728,"2212":1.2515829801559448,"2213":7.4311323165893555,"2214":-1.0850448608398438,"2215":-14.98797607421875,"2216":-5.600522041320801,"2217":2.5358150005340576,"2218":3.005570411682129,"2219":9.831750869750977,"2220":7.7695488929748535,"2221":-7.565548896789551,"2222":9.513826370239258,"2223":-19.585981369018555,"2224":0.6104695796966553,"2225":-0.3396788239479065,"2226":-13.902365684509277,"2227":2.288172960281372,"2228":2.8900644779205322,"2229":0.11353009939193726,"2230":4.595930099487305,"2231":-5.927783489227295,"2232":2.5156984329223633,"2233":4.564274311065674,"2234":10.702127456665039,"2235":-9.26512622833252,"2236":-5.215762138366699,"2237":-2.3422324657440186,"2238":-9.543397903442383,"2239":-6.371490955352783,"2240":-6.480443000793457,"2241":1.640202283859253,"2242":-4.568270683288574,"2243":2.321484088897705,"2244":-8.909542083740234,"2245":-13.606681823730469,"2246":-3.6153807640075684,"2247":4.143099784851074,"2248":-10.125402450561523,"2249":-3.2991092205047607,"2250":0.2807304561138153,"2251":-4.851533889770508,"2252":-10.647455215454102,"2253":-6.251901149749756,"2254":-2.546933889389038,"2255":1.5567553043365479,"2256":-8.062589645385742,"2257":-11.988031387329102,"2258":-3.4028711318969727,"2259":-9.304143905639648,"2260":12.954436302185059,"2261":-0.9904998540878296,"2262":-11.622170448303223,"2263":8.529634475708008,"2264":-7.2848358154296875,"2265":6.658915996551514,"2266":6.566400051116943,"2267":-4.786175727844238,"2268":-6.050292491912842,"2269":16.218475341796875,"2270":3.3991243839263916,"2271":0.21008501946926117,"2272":-4.709453105926514,"2273":0.020333679392933846,"2274":2.6304101943969727,"2275":-1.4016246795654297,"2276":8.06417465209961,"2277":3.6910252571105957,"2278":8.458569526672363,"2279":1.244107723236084,"2280":4.472601413726807,"2281":0.8991705179214478,"2282":3.767688035964966,"2283":8.324110984802246,"2284":3.875264883041382,"2285":3.3421144485473633,"2286":-3.11540150642395,"2287":-3.1493048667907715,"2288":13.29380989074707,"2289":-3.464048385620117,"2290":8.971593856811523,"2291":-3.6597914695739746,"2292":-5.56517219543457,"2293":6.864053726196289,"2294":-5.65980339050293,"2295":-6.681028366088867,"2296":4.393826007843018,"2297":4.335918426513672,"2298":-0.09958714991807938,"2299":-5.793934345245361,"2300":8.384200096130371,"2301":-0.23103229701519012,"2302":6.660602569580078,"2303":2.078256845474243,"2304":-0.15164417028427124,"2305":-4.8023505210876465,"2306":2.5511958599090576,"2307":-4.954005241394043,"2308":-4.9745869636535645,"2309":-0.26075688004493713,"2310":-11.365793228149414,"2311":-3.2552714347839355,"2312":-3.9317166805267334,"2313":-8.095464706420898,"2314":-6.823729515075684,"2315":2.889289617538452,"2316":4.271265029907227,"2317":4.231843948364258,"2318":-1.0881915092468262,"2319":-1.201213002204895,"2320":1.4029415845870972,"2321":-5.000699043273926,"2322":-3.3144450187683105,"2323":-0.9920950531959534,"2324":1.2753468751907349,"2325":-7.7199835777282715,"2326":-3.2908103466033936,"2327":-6.183822154998779,"2328":7.80279541015625,"2329":7.788939476013184,"2330":8.84749984741211,"2331":1.165103793144226,"2332":2.2917585372924805,"2333":3.436047315597534,"2334":1.5402997732162476,"2335":2.0702409744262695,"2336":5.021255016326904,"2337":-2.876009225845337,"2338":1.0371699333190918,"2339":4.569400787353516,"2340":1.2708009481430054,"2341":4.290179252624512,"2342":2.3925468921661377,"2343":-2.9050538539886475,"2344":3.2496185302734375,"2345":-2.331022024154663,"2346":0.675691545009613,"2347":0.8575463891029358,"2348":-3.9883902072906494,"2349":-7.082673072814941,"2350":0.7560468912124634,"2351":2.50425386428833,"2352":-6.077032566070557,"2353":-1.5592645406723022,"2354":6.89202356338501,"2355":-2.4161994457244873,"2356":-2.2902705669403076,"2357":-3.619997978210449,"2358":0.09457267075777054,"2359":1.36153244972229,"2360":0.08114983141422272,"2361":2.886137008666992,"2362":5.7108354568481445,"2363":-0.49169015884399414,"2364":1.8834306001663208,"2365":-2.8539793491363525,"2366":-4.3846435546875,"2367":3.1816210746765137,"2368":-7.8276753425598145,"2369":4.462721347808838,"2370":4.834534168243408,"2371":0.7023429274559021,"2372":3.541576623916626,"2373":1.8964641094207764,"2374":3.7245700359344482,"2375":-3.7721521854400635,"2376":2.5542776584625244,"2377":1.7565922737121582,"2378":0.10217701643705368,"2379":0.705249547958374,"2380":-8.209515571594238,"2381":-0.9729572534561157,"2382":2.239842653274536,"2383":1.1294981241226196,"2384":-3.7966103553771973,"2385":-1.2119807004928589,"2386":-1.7210179567337036,"2387":-5.936933517456055,"2388":1.0554026365280151,"2389":-1.4106487035751343,"2390":-0.478091835975647,"2391":-4.043856620788574,"2392":-0.6832334399223328,"2393":1.0128895044326782,"2394":-2.019286870956421,"2395":3.5432658195495605,"2396":-0.22674565017223358,"2397":1.6018807888031006,"2398":4.256165027618408,"2399":9.246264457702637,"2400":0.9978578686714172,"2401":-1.5669492483139038,"2402":1.71378493309021,"2403":-0.17314626276493073,"2404":5.852853298187256,"2405":-3.9835615158081055,"2406":12.543811798095703,"2407":-4.490930080413818,"2408":-3.407407283782959,"2409":3.3747506141662598,"2410":10.659346580505371,"2411":-0.09127595275640488,"2412":6.311779975891113,"2413":-6.030388832092285,"2414":2.1003317832946777,"2415":-7.217426300048828,"2416":-22.301036834716797,"2417":-5.227382183074951,"2418":6.073733329772949,"2419":-1.033785343170166,"2420":-1.8653504848480225,"2421":-4.414968013763428,"2422":25.377660751342773,"2423":7.057199478149414,"2424":-8.576534271240234,"2425":-7.882584571838379,"2426":7.827750205993652,"2427":-1.7668969631195068,"2428":6.671780586242676,"2429":-3.305886745452881,"2430":0.0897843986749649,"2431":-2.4258506298065186,"2432":6.105222702026367,"2433":16.560590744018555,"2434":20.045442581176758,"2435":1.2773171663284302,"2436":-14.91552734375,"2437":-4.314558506011963,"2438":10.000566482543945,"2439":-3.2309136390686035,"2440":-15.961385726928711,"2441":-0.45182833075523376,"2442":10.566692352294922,"2443":10.633759498596191,"2444":-2.6838290691375732,"2445":-0.44245266914367676,"2446":-5.9231414794921875,"2447":2.187530517578125,"2448":9.758628845214844,"2449":1.0577250719070435,"2450":4.970929145812988,"2451":3.8057005405426025,"2452":-0.20784194767475128,"2453":2.81140398979187,"2454":11.105878829956055,"2455":-4.999121189117432,"2456":-7.6969828605651855,"2457":-4.700411319732666,"2458":1.4001132249832153,"2459":2.0654923915863037,"2460":-7.043358325958252,"2461":-10.054235458374023,"2462":2.2507028579711914,"2463":-6.214561462402344,"2464":4.042335033416748,"2465":3.2243688106536865,"2466":9.61078929901123,"2467":-11.5606107711792,"2468":1.1085684299468994,"2469":-0.22478057444095612,"2470":-1.4435086250305176,"2471":6.308820724487305,"2472":11.932415962219238,"2473":-1.522890329360962,"2474":-0.056160952895879745,"2475":-3.665144443511963,"2476":3.618288993835449,"2477":14.16186809539795,"2478":13.349610328674316,"2479":5.118964672088623,"2480":11.954419136047363,"2481":-8.488021850585938,"2482":10.75414752960205,"2483":2.553391218185425,"2484":-2.450899124145508,"2485":0.2573574483394623,"2486":1.5439330339431763,"2487":-1.325684666633606,"2488":4.119405746459961,"2489":1.5470364093780518,"2490":-9.141525268554688,"2491":1.1608140468597412,"2492":-9.164284706115723,"2493":-0.7835050821304321,"2494":-3.8692684173583984,"2495":-3.1494815349578857,"2496":-8.079155921936035,"2497":8.279000282287598,"2498":7.027072906494141,"2499":-7.940972328186035,"2500":2.3624496459960938,"2501":-5.81989049911499,"2502":2.7260689735412598,"2503":11.285466194152832,"2504":13.477548599243164,"2505":-2.898355484008789,"2506":-6.002861022949219,"2507":-1.971089482307434,"2508":-3.994424343109131,"2509":5.514621257781982,"2510":5.620779514312744,"2511":-0.0642259493470192,"2512":-6.086512088775635,"2513":-0.6794911623001099,"2514":-3.6313021183013916,"2515":-5.565088272094727,"2516":7.361822605133057,"2517":12.078575134277344,"2518":-8.631420135498047,"2519":-0.19946788251399994,"2520":5.934376239776611,"2521":6.737407684326172,"2522":-1.5852254629135132,"2523":-4.485152244567871,"2524":7.660321235656738,"2525":-4.384252548217773,"2526":0.10964704304933548,"2527":7.993553161621094,"2528":-0.036022838205099106,"2529":10.114825248718262,"2530":4.567214488983154,"2531":1.8644499778747559,"2532":-0.3486897945404053,"2533":-10.764422416687012,"2534":11.502726554870605,"2535":1.0337157249450684,"2536":0.8597595691680908,"2537":-3.813042402267456,"2538":-6.639276027679443,"2539":7.778184413909912,"2540":-12.929341316223145,"2541":-1.9856576919555664,"2542":0.22447869181632996,"2543":1.9174981117248535,"2544":3.2780330181121826,"2545":4.270719528198242,"2546":-5.040931224822998,"2547":3.462982177734375,"2548":11.0674467086792,"2549":-16.545759201049805,"2550":2.8090879917144775,"2551":-11.466900825500488,"2552":0.15238334238529205,"2553":4.605320453643799,"2554":4.79906702041626,"2555":-1.2304450273513794,"2556":-3.5155298709869385,"2557":-5.085674285888672,"2558":8.68389892578125,"2559":0.4146885573863983,"2560":-2.8588545322418213,"2561":-1.6374424695968628,"2562":-10.079170227050781,"2563":-0.8128291368484497,"2564":14.885944366455078,"2565":-3.3018198013305664,"2566":-13.065573692321777,"2567":-13.35810375213623,"2568":-3.2385356426239014,"2569":-1.6412153244018555,"2570":-11.208643913269043,"2571":1.6448974609375,"2572":-15.793850898742676,"2573":2.3353166580200195,"2574":14.092028617858887,"2575":4.760397911071777,"2576":4.3166608810424805,"2577":-5.349717140197754,"2578":-4.376810550689697,"2579":-20.185791015625,"2580":-3.2856647968292236,"2581":-6.288940906524658,"2582":8.922313690185547,"2583":-5.297772407531738,"2584":0.6319949626922607,"2585":16.490970611572266,"2586":-10.843448638916016,"2587":-7.712836265563965,"2588":-3.9295742511749268,"2589":-12.559521675109863,"2590":5.644289493560791,"2591":7.270471096038818,"2592":9.897974014282227,"2593":5.7987165451049805,"2594":-1.7245676517486572,"2595":4.785240173339844,"2596":0.31627023220062256,"2597":11.876399040222168,"2598":-11.804648399353027,"2599":1.5406850576400757,"2600":-3.978017568588257,"2601":0.6772039532661438,"2602":-4.795266151428223,"2603":-6.3000335693359375,"2604":4.08318567276001,"2605":6.3935651779174805,"2606":0.13645505905151367,"2607":2.5552732944488525,"2608":-0.17726947367191315,"2609":-1.6149194240570068,"2610":0.9831841588020325,"2611":2.2972683906555176,"2612":-2.7532730102539062,"2613":-5.871192455291748,"2614":6.266474723815918,"2615":5.138180732727051,"2616":3.3627748489379883,"2617":3.359438419342041,"2618":-4.962915897369385,"2619":7.283796787261963,"2620":-0.14863158762454987,"2621":-2.20377254486084,"2622":13.969904899597168,"2623":-7.236351490020752,"2624":-0.04593314230442047,"2625":-5.556434154510498,"2626":1.7754610776901245,"2627":1.4331670999526978,"2628":2.7444558143615723,"2629":2.5921339988708496,"2630":0.5560963153839111,"2631":-5.50006103515625,"2632":-1.1232802867889404,"2633":-5.057041168212891,"2634":0.7039746046066284,"2635":9.891639709472656,"2636":-0.8001405596733093,"2637":4.225466251373291,"2638":4.703208923339844,"2639":-1.4244025945663452,"2640":-5.271109104156494,"2641":-5.015476703643799,"2642":-11.209569931030273,"2643":1.4852302074432373,"2644":5.0137481689453125,"2645":-4.974765300750732,"2646":0.3773292005062103,"2647":11.71284294128418,"2648":-4.347465515136719,"2649":0.5078496336936951,"2650":3.1375348567962646,"2651":-7.56008243560791,"2652":4.548768043518066,"2653":0.7116215825080872,"2654":-2.557680130004883,"2655":-8.375238418579102,"2656":3.4924979209899902,"2657":0.5920727252960205,"2658":-3.4936180114746094,"2659":-0.09003574401140213,"2660":-4.3878560066223145,"2661":3.759995937347412,"2662":1.97474205493927,"2663":4.11989164352417,"2664":4.340366363525391,"2665":9.680887222290039,"2666":11.991291046142578,"2667":-8.787843704223633,"2668":-3.2858872413635254,"2669":2.822169780731201,"2670":2.6449406147003174,"2671":-2.9166367053985596,"2672":1.5441021919250488,"2673":7.763106346130371,"2674":0.005703445989638567,"2675":4.570669651031494,"2676":-3.3552777767181396,"2677":-6.6646575927734375,"2678":-1.4269441366195679,"2679":-0.027432646602392197,"2680":-2.132115364074707,"2681":1.2379827499389648,"2682":-6.258899688720703,"2683":3.9283900260925293,"2684":-7.160366535186768,"2685":-6.37432861328125,"2686":-6.678468704223633,"2687":4.194180011749268,"2688":3.0442569255828857,"2689":6.625180244445801,"2690":1.843214511871338,"2691":-0.6076046824455261,"2692":0.07996606081724167,"2693":-1.3981823921203613,"2694":-2.2824718952178955,"2695":-1.9276748895645142,"2696":-2.1395504474639893,"2697":1.8944555521011353,"2698":-5.1546759605407715,"2699":10.858821868896484,"2700":-2.2935500144958496,"2701":2.5972208976745605,"2702":-0.8628706932067871,"2703":3.4299845695495605,"2704":4.52447509765625,"2705":-3.5086779594421387,"2706":0.18935096263885498,"2707":-8.706689834594727,"2708":2.9331698417663574,"2709":-3.186354398727417,"2710":-0.03691910207271576,"2711":-2.1256117820739746,"2712":-4.800909996032715,"2713":0.28229519724845886,"2714":9.400038719177246,"2715":5.409317970275879,"2716":1.0578991174697876,"2717":3.4139208793640137,"2718":-9.0419921875,"2719":-1.0051782131195068,"2720":-3.1253550052642822,"2721":18.02149200439453,"2722":7.60106086730957,"2723":4.8960418701171875,"2724":-1.2676496505737305,"2725":-6.488980293273926,"2726":1.4260711669921875,"2727":-2.093074321746826,"2728":-5.575655460357666,"2729":-2.207505226135254,"2730":-1.2742671966552734,"2731":-0.8448911905288696,"2732":-0.0655958354473114,"2733":13.766054153442383,"2734":-2.4013917446136475,"2735":-6.543424129486084,"2736":4.7078633308410645,"2737":4.992140769958496,"2738":-0.7622935771942139,"2739":7.326458930969238,"2740":-15.146164894104004,"2741":-2.5806455612182617,"2742":-5.90731954574585,"2743":5.689577102661133,"2744":-4.285257816314697,"2745":-1.7309094667434692,"2746":-4.504412651062012,"2747":-0.8933379054069519,"2748":-12.17061996459961,"2749":4.824782371520996,"2750":3.1860134601593018,"2751":6.573457717895508,"2752":12.19843864440918,"2753":8.261744499206543,"2754":-3.5457119941711426,"2755":-10.058492660522461,"2756":-8.71039867401123,"2757":3.8565523624420166,"2758":0.8749546408653259,"2759":2.149914264678955,"2760":-1.8257908821105957,"2761":-6.71048641204834,"2762":5.7100396156311035,"2763":-2.4166531562805176,"2764":7.049985885620117,"2765":-6.851467609405518,"2766":-11.064760208129883,"2767":2.749041795730591,"2768":5.62356424331665,"2769":-1.0217247009277344,"2770":2.5183379650115967,"2771":0.5769246220588684,"2772":-4.348836898803711,"2773":2.4396555423736572,"2774":-6.809816837310791,"2775":-9.417957305908203,"2776":0.17537276446819305,"2777":-2.623170852661133,"2778":-13.065552711486816,"2779":-11.649070739746094,"2780":4.603568077087402,"2781":3.536451578140259,"2782":-5.514078140258789,"2783":-12.796607971191406,"2784":-7.824843883514404,"2785":-0.0710858628153801,"2786":0.8570243716239929,"2787":-2.6816670894622803,"2788":-2.815030574798584,"2789":9.978065490722656,"2790":5.538910388946533,"2791":-10.65237045288086,"2792":7.781612396240234,"2793":10.530716896057129,"2794":5.360823631286621,"2795":19.772411346435547,"2796":9.10886287689209,"2797":-13.876116752624512,"2798":-6.96620512008667,"2799":2.6489717960357666,"2800":6.964152812957764,"2801":5.148069381713867,"2802":9.90534782409668,"2803":2.518523693084717,"2804":9.602612495422363,"2805":9.834321975708008,"2806":-1.8087159395217896,"2807":1.5550432205200195,"2808":15.534072875976562,"2809":9.63398551940918,"2810":-18.718029022216797,"2811":-10.182106971740723,"2812":-0.45562320947647095,"2813":-0.8114219307899475,"2814":10.720585823059082,"2815":2.0783379077911377,"2816":-2.079306125640869,"2817":4.8329758644104,"2818":11.597696304321289,"2819":-4.353846073150635,"2820":3.9107587337493896,"2821":12.632168769836426,"2822":10.788686752319336,"2823":-3.425152063369751,"2824":1.7592607736587524,"2825":9.126131057739258,"2826":9.166023254394531,"2827":3.5664119720458984,"2828":10.133735656738281,"2829":-3.5618295669555664,"2830":-1.8725786209106445,"2831":-8.86662769317627,"2832":-10.00688648223877,"2833":-2.927464723587036,"2834":12.870757102966309,"2835":-7.309419631958008,"2836":8.456144332885742,"2837":13.783502578735352,"2838":-8.08127498626709,"2839":-5.565345287322998,"2840":5.881809234619141,"2841":-9.836987495422363,"2842":-26.695775985717773,"2843":-11.619172096252441,"2844":10.546717643737793,"2845":2.9650349617004395,"2846":5.435677528381348,"2847":0.42130088806152344,"2848":13.588435173034668,"2849":0.18748381733894348,"2850":8.13278579711914,"2851":9.721894264221191,"2852":-17.879379272460938,"2853":4.908717632293701,"2854":15.129288673400879,"2855":10.083775520324707,"2856":-5.840760707855225,"2857":-0.5592231750488281,"2858":-1.3514103889465332,"2859":-12.55094051361084,"2860":2.364821672439575,"2861":5.190091609954834,"2862":6.325550079345703,"2863":-9.301204681396484,"2864":4.516557216644287,"2865":1.2441883087158203,"2866":9.785131454467773,"2867":-0.8374029397964478,"2868":10.623985290527344,"2869":-1.8914324045181274,"2870":9.992645263671875,"2871":-6.308202266693115,"2872":7.360133171081543,"2873":3.8010244369506836,"2874":-3.1204423904418945,"2875":-6.056714057922363,"2876":-9.758749961853027,"2877":4.916656494140625,"2878":4.725428581237793,"2879":-5.7287187576293945,"2880":-7.235489368438721,"2881":-9.451498031616211,"2882":5.24304723739624,"2883":-0.04238850623369217,"2884":4.56693696975708,"2885":1.1064023971557617,"2886":3.7686331272125244,"2887":-2.197322368621826,"2888":0.3606222867965698,"2889":2.6181814670562744,"2890":2.1355316638946533,"2891":5.009907245635986,"2892":7.88843297958374,"2893":1.2519944906234741,"2894":5.523025989532471,"2895":-6.132587909698486,"2896":9.247088432312012,"2897":-6.726024627685547,"2898":3.7636821269989014,"2899":-6.14841890335083,"2900":4.72770881652832,"2901":-4.6043572425842285,"2902":9.421525001525879,"2903":-1.7883193492889404,"2904":-7.058295726776123,"2905":5.852919578552246,"2906":2.9023780822753906,"2907":-0.9529814124107361,"2908":-7.146370887756348,"2909":-5.8163743019104,"2910":-1.9089659452438354,"2911":-0.2570967376232147,"2912":4.238678455352783,"2913":-5.193577289581299,"2914":3.017530918121338,"2915":-2.7338004112243652,"2916":-0.34717419743537903,"2917":-6.5731635093688965,"2918":3.467918872833252,"2919":2.5688974857330322,"2920":4.252005100250244,"2921":0.6481630802154541,"2922":-3.773923635482788,"2923":-0.3536793291568756,"2924":6.49021577835083,"2925":5.233927249908447,"2926":9.94106388092041,"2927":4.797229290008545,"2928":9.652793884277344,"2929":4.599451065063477,"2930":3.282641887664795,"2931":-6.17379093170166,"2932":-5.397817134857178,"2933":4.1936445236206055,"2934":9.118574142456055,"2935":-1.364896297454834,"2936":-3.720043420791626,"2937":2.2494752407073975,"2938":0.7026970982551575,"2939":0.9813416004180908,"2940":5.347936153411865,"2941":6.381762504577637,"2942":0.757263720035553,"2943":3.8378891944885254,"2944":2.448842763900757,"2945":-7.70353889465332,"2946":9.341297149658203,"2947":6.576267719268799,"2948":0.7889525890350342,"2949":-2.8975586891174316,"2950":-1.659425973892212,"2951":-0.9326026439666748,"2952":-4.08400821685791,"2953":5.178506374359131,"2954":8.88158893585205,"2955":1.2276363372802734,"2956":-6.436521530151367,"2957":-3.0733706951141357,"2958":2.9046387672424316,"2959":-12.273125648498535,"2960":2.108139991760254,"2961":-0.2941635847091675,"2962":3.9275565147399902,"2963":8.513371467590332,"2964":1.0790122747421265,"2965":-2.1651294231414795,"2966":5.370305061340332,"2967":-2.3916478157043457,"2968":1.582257628440857,"2969":-3.072049617767334,"2970":1.4330919981002808,"2971":1.7836846113204956,"2972":2.87668514251709,"2973":2.206435203552246,"2974":-1.2003302574157715,"2975":1.0177242755889893,"2976":-4.528432369232178,"2977":5.5390944480896,"2978":-2.9006435871124268,"2979":0.5868850946426392,"2980":5.770843982696533,"2981":1.676722526550293,"2982":8.65853214263916,"2983":1.0492067337036133,"2984":-4.3183417320251465,"2985":-3.0877113342285156,"2986":-6.643829822540283,"2987":4.990693092346191,"2988":7.546245574951172,"2989":0.5557557344436646,"2990":11.48022174835205,"2991":11.63430118560791,"2992":4.855152130126953,"2993":4.77524471282959,"2994":-1.9174878597259521,"2995":11.33244514465332,"2996":-2.9565541744232178,"2997":4.077174663543701,"2998":2.086601495742798,"2999":12.417037963867188,"3000":4.007290363311768,"3001":0.9797399640083313,"3002":-0.10999981313943863,"3003":7.7072672843933105,"3004":10.517496109008789,"3005":13.824570655822754,"3006":6.091856956481934,"3007":-6.6230950355529785,"3008":-2.1033358573913574,"3009":-8.504839897155762,"3010":-12.365743637084961,"3011":-2.8426907062530518,"3012":0.009339448995888233,"3013":-0.7686375975608826,"3014":-3.8413500785827637,"3015":-7.468256950378418,"3016":1.4642807245254517,"3017":-7.351861000061035,"3018":7.949402809143066,"3019":-3.8705122470855713,"3020":-1.3482118844985962,"3021":3.006610870361328,"3022":1.9841636419296265,"3023":-0.9713130593299866,"3024":-13.70138168334961,"3025":-3.1654231548309326,"3026":5.979595184326172,"3027":-1.1923378705978394,"3028":6.790122032165527,"3029":-0.47769248485565186,"3030":-5.084745407104492,"3031":-4.464565753936768,"3032":-1.8117507696151733,"3033":-0.34242498874664307,"3034":-1.5887322425842285,"3035":1.8482415676116943,"3036":-5.803180694580078,"3037":-9.682201385498047,"3038":-0.5933513641357422,"3039":7.286148548126221,"3040":1.7076917886734009,"3041":-5.40676212310791,"3042":-0.501882016658783,"3043":14.233414649963379,"3044":-0.3787990212440491,"3045":-5.6532063484191895,"3046":-3.1213059425354004,"3047":-2.6771018505096436,"3048":-4.130310535430908,"3049":5.703703880310059,"3050":-1.9114264249801636,"3051":0.3974148631095886,"3052":-2.0295939445495605,"3053":2.190218210220337,"3054":-5.407500267028809,"3055":4.757891654968262,"3056":21.740314483642578,"3057":-1.0175951719284058,"3058":-5.784854412078857,"3059":-3.7482573986053467,"3060":4.143502712249756,"3061":-5.508763313293457,"3062":2.097311496734619,"3063":-7.670099258422852,"3064":-2.8846662044525146,"3065":-4.723682403564453,"3066":-7.991961479187012,"3067":2.5371017456054688,"3068":1.1216486692428589,"3069":4.976803779602051,"3070":1.9202163219451904,"3071":10.58998966217041,"3072":0.6355541944503784,"3073":3.3968985080718994,"3074":2.4605977535247803,"3075":-3.4031360149383545,"3076":12.360444068908691,"3077":-3.7271809577941895,"3078":8.36599349975586,"3079":0.3272783160209656,"3080":1.5223071575164795,"3081":2.1087429523468018,"3082":1.9145857095718384,"3083":3.920347213745117,"3084":-0.808183491230011,"3085":4.744511127471924,"3086":-7.333098411560059,"3087":-1.5166577100753784,"3088":0.3810313045978546,"3089":0.41400954127311707,"3090":1.637202501296997,"3091":1.2372444868087769,"3092":-0.7062824368476868,"3093":3.64298415184021,"3094":1.588683009147644,"3095":-2.1468560695648193,"3096":12.175586700439453,"3097":5.424311637878418,"3098":7.048015594482422,"3099":5.511627197265625,"3100":-0.9399399161338806,"3101":5.826111316680908,"3102":11.480156898498535,"3103":3.046671152114868,"3104":-3.721052646636963,"3105":-4.419627666473389,"3106":-6.928675174713135,"3107":-3.810689926147461,"3108":-5.4381022453308105,"3109":0.5102113485336304,"3110":-6.923550128936768,"3111":4.514280319213867,"3112":5.319514274597168,"3113":1.0915039777755737,"3114":5.4107866287231445,"3115":-3.6093051433563232,"3116":-7.002310752868652,"3117":1.838875412940979,"3118":-3.4888007640838623,"3119":2.197204351425171,"3120":-5.886588096618652,"3121":-2.152477264404297,"3122":8.918679237365723,"3123":-8.2869291305542,"3124":5.167147159576416,"3125":-17.56087875366211,"3126":4.550040245056152,"3127":3.2223386764526367,"3128":-0.4750562012195587,"3129":-5.511959552764893,"3130":2.99476957321167,"3131":3.993846893310547,"3132":2.6012368202209473,"3133":3.5203068256378174,"3134":-3.1699745655059814,"3135":-3.002124071121216,"3136":0.20132051408290863,"3137":-5.117007732391357,"3138":7.446356773376465,"3139":6.829839706420898,"3140":-8.145234107971191,"3141":0.46068665385246277,"3142":1.9055888652801514,"3143":-2.332152843475342,"3144":4.013002395629883,"3145":-6.843665599822998,"3146":4.593958377838135,"3147":-4.913638114929199,"3148":-2.2579517364501953,"3149":0.6857777237892151,"3150":-7.868866443634033,"3151":-8.55591869354248,"3152":-8.11481761932373,"3153":-2.1767053604125977,"3154":9.06265640258789,"3155":-2.7723453044891357,"3156":-5.645627021789551,"3157":-1.4517242908477783,"3158":-11.147594451904297,"3159":6.999326229095459,"3160":1.829799771308899,"3161":4.288906097412109,"3162":7.595536708831787,"3163":3.795375108718872,"3164":-8.191590309143066,"3165":-0.4191091060638428,"3166":-3.0508534908294678,"3167":10.620441436767578,"3168":-4.302164554595947,"3169":2.905021905899048,"3170":6.1968793869018555,"3171":12.663848876953125,"3172":-4.720948696136475,"3173":1.8794523477554321,"3174":-2.988865613937378,"3175":3.8610973358154297,"3176":3.3127517700195312,"3177":5.936389446258545,"3178":2.157396078109741,"3179":13.350704193115234,"3180":2.328770160675049,"3181":-1.148759126663208,"3182":1.5611778497695923,"3183":-2.149980306625366,"3184":-3.5222127437591553,"3185":18.240524291992188,"3186":-17.276641845703125,"3187":-0.2884533107280731,"3188":-4.326923847198486,"3189":28.721574783325195,"3190":30.334972381591797,"3191":-4.164643287658691,"3192":2.529761552810669,"3193":13.562755584716797,"3194":26.06753921508789,"3195":-18.794105529785156,"3196":-29.462749481201172,"3197":13.097304344177246,"3198":30.75102996826172,"3199":-14.725154876708984,"3200":-9.318719863891602,"3201":-5.351182460784912,"3202":-2.1407861709594727,"3203":-5.599869251251221,"3204":7.154730796813965,"3205":-15.91775894165039,"3206":18.185396194458008,"3207":-15.84255313873291,"3208":1.242244005203247,"3209":23.891414642333984,"3210":16.262765884399414,"3211":-2.9270966053009033,"3212":9.633750915527344,"3213":0.3378284275531769,"3214":18.04914093017578,"3215":-0.12928181886672974,"3216":0.12304463982582092,"3217":-8.425393104553223,"3218":-8.442205429077148,"3219":-14.37692642211914,"3220":-7.653668403625488,"3221":-11.733377456665039,"3222":-19.37807846069336,"3223":-6.760195732116699,"3224":7.789482593536377,"3225":9.551640510559082,"3226":-5.421219825744629,"3227":-12.698902130126953,"3228":26.198007583618164,"3229":-7.870010852813721,"3230":-0.09816998243331909,"3231":-21.213764190673828,"3232":-22.54399299621582,"3233":-11.630133628845215,"3234":5.826109886169434,"3235":-20.51760482788086,"3236":4.026492118835449,"3237":-28.325841903686523,"3238":-0.899978518486023,"3239":2.1185269355773926,"3240":-18.84024429321289,"3241":-8.873481750488281,"3242":-25.759241104125977,"3243":26.528282165527344,"3244":-37.922264099121094,"3245":30.6187801361084,"3246":16.74983787536621,"3247":10.527572631835938,"3248":12.546409606933594,"3249":-7.970206260681152,"3250":-10.64738655090332,"3251":-0.11213234066963196,"3252":0.12649177014827728,"3253":-5.748578071594238,"3254":14.573558807373047,"3255":0.9819923639297485,"3256":2.8165409564971924,"3257":-0.09427625685930252,"3258":-1.5764185190200806,"3259":0.6172887682914734,"3260":0.4276677072048187,"3261":-5.31453800201416,"3262":-3.926453113555908,"3263":-0.30077677965164185,"3264":-2.1615614891052246,"3265":-6.256076335906982,"3266":-1.0590171813964844,"3267":3.8560280799865723,"3268":6.277096271514893,"3269":-0.9978067874908447,"3270":-4.975157737731934,"3271":-1.3227263689041138,"3272":-3.116457939147949,"3273":-2.515808343887329,"3274":-2.502791404724121,"3275":-1.8145946264266968,"3276":-1.6335467100143433,"3277":-2.709613800048828,"3278":9.87391185760498,"3279":-4.607790946960449,"3280":6.246053218841553,"3281":0.34100422263145447,"3282":1.8734450340270996,"3283":0.3610454201698303,"3284":1.7382134199142456,"3285":1.2754510641098022,"3286":3.0578625202178955,"3287":3.497138738632202,"3288":6.320974826812744,"3289":-2.773695468902588,"3290":-8.189376831054688,"3291":-6.230931282043457,"3292":-6.082101821899414,"3293":5.664505481719971,"3294":-7.719451904296875,"3295":5.012409687042236,"3296":4.336250305175781,"3297":-1.6202048063278198,"3298":-6.929197788238525,"3299":-2.225497007369995,"3300":-0.32243114709854126,"3301":-7.872322082519531,"3302":-0.5303674340248108,"3303":-0.9681066870689392,"3304":-3.2682504653930664,"3305":-0.2754158675670624,"3306":-4.365721225738525,"3307":3.1979193687438965,"3308":1.4788837432861328,"3309":3.0897884368896484,"3310":-3.1197917461395264,"3311":1.4270858764648438,"3312":-7.892006874084473,"3313":-1.0980483293533325,"3314":4.323081016540527,"3315":-1.6528563499450684,"3316":6.311662197113037,"3317":13.887590408325195,"3318":3.04023814201355,"3319":0.8549366593360901,"3320":-4.72783088684082,"3321":-3.2546427249908447,"3322":4.004638671875,"3323":1.355542540550232,"3324":2.0768966674804688,"3325":3.47350811958313,"3326":-12.595916748046875,"3327":-6.723722457885742,"3328":0.22049440443515778,"3329":-1.0674196481704712,"3330":-3.093273878097534,"3331":-2.893972635269165,"3332":8.527316093444824,"3333":2.397047996520996,"3334":-0.37908464670181274,"3335":-7.743127346038818,"3336":2.694950819015503,"3337":2.9228715896606445,"3338":-4.746337890625,"3339":11.644137382507324,"3340":-7.99036169052124,"3341":9.484079360961914,"3342":10.521069526672363,"3343":6.677717208862305,"3344":4.950455665588379,"3345":-4.332562446594238,"3346":0.1694900095462799,"3347":2.4201087951660156,"3348":0.42124658823013306,"3349":1.46543550491333,"3350":1.8398617506027222,"3351":7.338321685791016,"3352":1.44857656955719,"3353":-1.2310192584991455,"3354":2.1776182651519775,"3355":-2.09440279006958,"3356":0.7217714190483093,"3357":-9.959160804748535,"3358":-8.87087631225586,"3359":-15.070844650268555,"3360":7.024982452392578,"3361":2.7277464866638184,"3362":6.202297210693359,"3363":-12.177716255187988,"3364":-8.74994945526123,"3365":-2.654924154281616,"3366":-1.167506456375122,"3367":0.9874405860900879,"3368":-9.393667221069336,"3369":-10.422633171081543,"3370":0.509607195854187,"3371":0.3738788664340973,"3372":0.4306367337703705,"3373":-2.9587326049804688,"3374":9.15463638305664,"3375":-13.15473747253418,"3376":2.4089114665985107,"3377":-1.4320555925369263,"3378":9.093482971191406,"3379":5.407408237457275,"3380":-0.10097352415323257,"3381":-10.240635871887207,"3382":9.509207725524902,"3383":4.366671085357666,"3384":-5.563302040100098,"3385":5.595470905303955,"3386":-0.36892351508140564,"3387":-3.9660909175872803,"3388":4.616217136383057,"3389":-10.07835578918457,"3390":-5.783457279205322,"3391":5.487689971923828,"3392":10.558363914489746,"3393":6.526841163635254,"3394":9.746458053588867,"3395":-10.357758522033691,"3396":5.170632362365723,"3397":-3.1316781044006348,"3398":3.4620110988616943,"3399":0.5016192197799683,"3400":9.985983848571777,"3401":0.42765575647354126,"3402":1.9687737226486206,"3403":5.781664848327637,"3404":-0.9728606939315796,"3405":5.584434509277344,"3406":9.285795211791992,"3407":-15.976521492004395,"3408":-2.8016088008880615,"3409":-0.11058351397514343,"3410":-4.420928478240967,"3411":11.686223983764648,"3412":5.248879432678223,"3413":2.5921192169189453,"3414":-4.079767227172852,"3415":3.1564218997955322,"3416":6.4156646728515625,"3417":4.495006084442139,"3418":5.945023536682129,"3419":-2.519772529602051,"3420":-7.249551773071289,"3421":-2.0385754108428955,"3422":4.811388969421387,"3423":1.6910542249679565,"3424":-11.128461837768555,"3425":-2.723374128341675,"3426":0.025957319885492325,"3427":3.7382707595825195,"3428":3.8182287216186523,"3429":4.0386786460876465,"3430":-1.7211248874664307,"3431":6.580753803253174,"3432":-0.12955518066883087,"3433":1.7592618465423584,"3434":3.751399278640747,"3435":0.8927666544914246,"3436":11.971657752990723,"3437":-4.347569465637207,"3438":5.249848365783691,"3439":-0.3049163222312927,"3440":-1.8197396993637085,"3441":1.2569278478622437,"3442":-2.3934133052825928,"3443":-1.9193960428237915,"3444":-7.084881782531738,"3445":3.3407812118530273,"3446":-1.9775242805480957,"3447":-7.215714931488037,"3448":-7.873487949371338,"3449":2.5235466957092285,"3450":5.175114154815674,"3451":1.1351673603057861,"3452":0.7466127872467041,"3453":4.1932220458984375,"3454":1.3024635314941406,"3455":5.092294692993164,"3456":-8.27873420715332,"3457":1.134759545326233,"3458":-0.2811321020126343,"3459":6.679776668548584,"3460":-0.23326866328716278,"3461":8.383719444274902,"3462":-12.554259300231934,"3463":0.8720312714576721,"3464":5.315520286560059,"3465":-11.01292610168457,"3466":-8.383817672729492,"3467":0.825020968914032,"3468":3.428493022918701,"3469":0.9814927577972412,"3470":-11.206653594970703,"3471":-5.728527069091797,"3472":0.7062072157859802,"3473":0.41149193048477173,"3474":-7.974729537963867,"3475":0.01033008936792612,"3476":3.8899118900299072,"3477":-5.26816463470459,"3478":7.7517781257629395,"3479":8.294239044189453,"3480":0.792055070400238,"3481":-9.102879524230957,"3482":3.7262516021728516,"3483":0.46623891592025757,"3484":9.566606521606445,"3485":0.3300899267196655,"3486":-0.151155486702919,"3487":-10.931354522705078,"3488":-6.330811023712158,"3489":-5.578513145446777,"3490":1.7507151365280151,"3491":7.078732013702393,"3492":2.3925888538360596,"3493":4.880490303039551,"3494":-1.8112661838531494,"3495":2.2940750122070312,"3496":3.6717419624328613,"3497":-6.736664772033691,"3498":-3.5523905754089355,"3499":-15.620180130004883,"3500":9.964269638061523,"3501":10.751969337463379,"3502":18.377056121826172,"3503":-4.990241050720215,"3504":14.371428489685059,"3505":5.513520240783691,"3506":0.22331814467906952,"3507":-1.1232197284698486,"3508":17.34688377380371,"3509":3.17970609664917,"3510":-0.15241606533527374,"3511":-2.4962525367736816,"3512":16.26096534729004,"3513":24.127960205078125,"3514":-3.7710177898406982,"3515":4.006225109100342,"3516":-9.96638011932373,"3517":20.139127731323242,"3518":-5.680367946624756,"3519":-6.341550827026367,"3520":9.807164192199707,"3521":-1.4693193435668945,"3522":-4.018246650695801,"3523":-0.9335741400718689,"3524":1.7154353857040405,"3525":-4.507596969604492,"3526":-12.174041748046875,"3527":2.198066234588623,"3528":-10.835127830505371,"3529":-3.905169725418091,"3530":6.708043098449707,"3531":-1.3741509914398193,"3532":-8.53794002532959,"3533":1.9614611864089966,"3534":-3.404437303543091,"3535":-13.139424324035645,"3536":3.053593635559082,"3537":6.6772236824035645,"3538":7.352929592132568,"3539":-2.4586644172668457,"3540":-7.117936611175537,"3541":-0.7823868989944458,"3542":5.076672554016113,"3543":2.4388866424560547,"3544":-4.996590614318848,"3545":1.5260127782821655,"3546":2.0419955253601074,"3547":-6.419012069702148,"3548":5.232640743255615,"3549":6.359858512878418,"3550":-6.019209861755371,"3551":-7.448570251464844,"3552":-9.837169647216797,"3553":-3.157334804534912,"3554":-5.073691368103027,"3555":-11.321873664855957,"3556":-6.46297025680542,"3557":-0.3787309229373932,"3558":-8.676339149475098,"3559":-2.4430742263793945,"3560":-3.2349815368652344,"3561":-3.3956968784332275,"3562":4.465093612670898,"3563":-0.8004831671714783,"3564":2.031508207321167,"3565":5.04684591293335,"3566":-10.044102668762207,"3567":8.852054595947266,"3568":3.639401435852051,"3569":4.63146448135376,"3570":-17.55507469177246,"3571":-5.160043239593506,"3572":-12.661293029785156,"3573":23.138835906982422,"3574":-2.035604953765869,"3575":-1.1878873109817505,"3576":-2.174206018447876,"3577":0.8203667402267456,"3578":-6.487133026123047,"3579":-4.267571449279785,"3580":0.8844618797302246,"3581":0.3904567062854767,"3582":2.561558485031128,"3583":-4.617987155914307,"3584":-1.1529096364974976,"3585":-2.5076217651367188,"3586":3.3730528354644775,"3587":-3.012939691543579,"3588":-7.335268497467041,"3589":1.2038016319274902,"3590":-3.715214729309082,"3591":3.6537671089172363,"3592":3.56423282623291,"3593":3.161363363265991,"3594":-2.5336501598358154,"3595":-1.0821785926818848,"3596":-3.658205270767212,"3597":-1.7550685405731201,"3598":-6.590162754058838,"3599":5.550056457519531,"3600":-3.530799388885498,"3601":-0.3099369406700134,"3602":6.906095027923584,"3603":-7.516067028045654,"3604":-6.0564069747924805,"3605":-0.5128198862075806,"3606":3.5160911083221436,"3607":2.1275789737701416,"3608":-3.2406673431396484,"3609":0.1850416660308838,"3610":5.188343524932861,"3611":1.7175002098083496,"3612":-11.453590393066406,"3613":-2.4889912605285645,"3614":-6.962339401245117,"3615":2.141632556915283,"3616":-9.326921463012695,"3617":-5.662163257598877,"3618":-3.3227102756500244,"3619":7.010380744934082,"3620":-9.44459056854248,"3621":-6.337810516357422,"3622":-4.233283996582031,"3623":-0.14664451777935028,"3624":3.424290657043457,"3625":-5.096720218658447,"3626":-3.878146171569824,"3627":4.130692958831787,"3628":-0.7105672955513,