{"type":"LSTM","options":{"inputSize":65,"inputRange":65,"hiddenSizes":[20,20],"outputSize":65,"learningRate":0.01,"decayRate":0.999,"smoothEps":1e-8,"regc":0.000001,"clipval":5,"json":null,"dataFormatter":{"indexTable":{"0":37,"1":53,"2":36,"8":58," ":0,"w":1,"h":2,"a":3,"t":4,"b":5,"o":6,"u":7,"C":8,"n":9,"s":10,"m":11,"e":12,"r":13,"i":14,"l":15,"g":16,"?":17,"I":18,"c":19,":":20,"'":21,"B":22,"y":23,"&":24,";":25,"f":26,"d":27,"k":28,"-":29,"p":30,".":31,"v":32,"U":33,"S":34,",":35,"!":38,"A":39,"M":40,"E":41,"J":42,"x":43,"T":44,"H":45,"Y":46,")":47,"K":48,"P":49,"R":50,"O":51,"L":52,"G":54,"q":55,"j":56,"z":57,"_":59,"N":60,"W":61,"stop-input":62,"start-output":63,"unrecognized":64},"characterTable":{"0":" ","1":"w","2":"h","3":"a","4":"t","5":"b","6":"o","7":"u","8":"C","9":"n","10":"s","11":"m","12":"e","13":"r","14":"i","15":"l","16":"g","17":"?","18":"I","19":"c","20":":","21":"'","22":"B","23":"y","24":"&","25":";","26":"f","27":"d","28":"k","29":"-","30":"p","31":".","32":"v","33":"U","34":"S","35":",","36":"2","37":"0","38":"!","39":"A","40":"M","41":"E","42":"J","43":"x","44":"T","45":"H","46":"Y","47":")","48":"K","49":"P","50":"R","51":"O","52":"L","53":"1","54":"G","55":"q","56":"j","57":"z","58":"8","59":"_","60":"N","61":"W","62":"stop-input","63":"start-output","64":"unrecognized"},"values":[" what about Consumerism as the new religion? I can see it now: 'Buying is the new tithe' ","&gt; not sure why I care if a story about some idiotic Italian magistrates It's strange that this kind of head-in-the-sand dismissal of the international picture has become associated with the right. It seems to really weaken their hand. I have read that there is a belief in the US gov decision making process along the lines that because the US is so powerful, they now create history and don't really have to worry about international concerns and historical precedents.","...from 2002!","An article on Micro Economics by Joel Spolsky","Can someone explain to me why this is important? That is, other than to impresss someone with how much you can drink, which means you are childish or have serious self image problems. ","Hard to believe, I know, but the linked article actually explains that! You should give it a read.","I agree with you. BUT things which don't feel like revelations can also be extremely important. After all, you can't be a great hacker if you keep wasting your time on errands :-) Keep writing, Paul.","I don't think work has to be bone-crushingly insightful to be valuable. It helps to have it written out so you can keep reading what you already know.","I've been doing this sort of filtering with PROCMAIL for over 10 years now. I guess the cool thing is that gmail allows you to create sorting rules based on this criteria, that is impossible with other 'free' email providors.","It wasn't posted here because we are all familiar with Paul Graham's site and have probably found it ourselves already. Always ready to answer a rhetorical question, at your service.","So now with reddit we even have a place to start a discussion with the author :)","Some people have been able to comment for longer than others ;-)","There is an interesting phenomenon occurring at reddit whereby the majority left-leaning denizens of the sight are slowly alienating the minority right-leaning ones like myself. The only question I have is why do I care? I'm not sure why I care if a story about some idiotic Italian magistrates gets voted up to the top of the 'hot' list, but I do. I'm starting to feel like I don't fit in here. Maybe you should change the name to 'blueit'.","Yepp, plus the idea ain't new at all. I know many people who have been using this approach for some 8 years now. Also, you don't need Gmail to sort your emails by address. Every decent email client on the planet will do that just as good. Lastly, this approach is only useful if you are actually fully determined to sueing those companies' arses. Otherwise, it's a complete waste of time. Bottom line: this article is rather useless.","actually, as a lifelong atheist, i think it might be a good idea to have an official state church in the USA. a single officially recognized, state funded, church denomination that was considered the 'default religion' for anybody who didn't choose to opt out of it and pick another - would have to cater to everyone, could not afford to discriminate or act too fundamentalist crazy. it would have to be a church for the whole people, and therefore couldn't make enemies of anybody, really. and because it'd be the largest religion by far, it -- with its necessary tolerance -- would become the standard for other denominations to be judged by. an association with the state would tame religion, i think. or, since this _is_ the USA we're talking about, maybe it would destroy the state. politics here have a way of being bass-ackwards a lot of the time.","entirely fair, if the site is solely intended to be a feed of the web. I thought, though, that reddit is also about rating well-known bits of the web, eg. Norvig's programming-in-10-years essay, and all of the other stuff of graham's, etc..","reddit is 'what's new online' not 'rate the web' So i for my part will demote anything old like this article.","you know, I like Paul Grahams stuff. I'm not one of these people who dislike him because he's successful or because he's popular. Interestingly he wrote an essay on Being Popular, but it was talking about quite the opposite. Now he's popular, does that cause problems? Anyway, I've decided to register with Reddit and post something, but only because I'm avoiding doing this particular piece of work ;) As I've said, I like Pauls work, BUT I just get the feeling that its waning - his earlier stuff was was a real 'wow' factor for me as it was exactly what I'd been thinking and mirrored what we were doing. What I read now is 'ok' but I don't send it to all my friends and print it to make my wife read it. Am I the only one who feels like this?"],"characters":[" ","w","h","a","t","b","o","u","C","n","s","m","e","r","i","l","g","?","I","c",":","'","B","y","&",";","f","d","k","-","p",".","v","U","S",",","2","0","!","A","M","E","J","x","T","H","Y",")","K","P","R","O","L","1","G","q","j","z","8","_","N","W","stop-input","start-output","unrecognized"]}},"input":{"rows":66,"columns":65,"weights":{"0":0.31310713291168213,"1":-1.9310846328735352,"2":-0.04603530839085579,"3":1.120654582977295,"4":1.4332406520843506,"5":1.1697778701782227,"6":-0.08549980074167252,"7":1.2751761674880981,"8":-1.1918030977249146,"9":-2.926790237426758,"10":-1.6972423791885376,"11":0.0399797298014164,"12":0.7102755308151245,"13":-1.2786537408828735,"14":0.4622243344783783,"15":-1.6061707735061646,"16":-2.2673139572143555,"17":1.8645267486572266,"18":0.38612404465675354,"19":0.9679795503616333,"20":1.1435641050338745,"21":-1.7671887874603271,"22":0.7229791879653931,"23":-0.7777347564697266,"24":0.1025710180401802,"25":0.9892390966415405,"26":1.295633316040039,"27":0.8159304857254028,"28":-1.9594550132751465,"29":-0.8765528202056885,"30":-0.7197691798210144,"31":0.8161459565162659,"32":-0.8487657904624939,"33":0.6656052470207214,"34":0.6926818490028381,"35":-0.5896437168121338,"36":-0.6091962456703186,"37":1.369398593902588,"38":1.5466049909591675,"39":0.8474714159965515,"40":1.4404881000518799,"41":0.10875765979290009,"42":-1.0118088722229004,"43":0.15112201869487762,"44":-0.6982753872871399,"45":0.6038957834243774,"46":3.012021541595459,"47":0.8355497121810913,"48":-1.3275580406188965,"49":-2.155003786087036,"50":0.5247371196746826,"51":-1.7934794425964355,"52":0.9214020371437073,"53":0.020230110734701157,"54":1.0489369630813599,"55":-1.1520334482192993,"56":-0.8663141131401062,"57":1.7580903768539429,"58":0.08527212589979172,"59":-0.8082866668701172,"60":1.2535654306411743,"61":1.8944178819656372,"62":0.9482250809669495,"63":1.2427241802215576,"64":2.325439214706421,"65":1.313711404800415,"66":-1.1025614738464355,"67":-1.2545669078826904,"68":-0.286940336227417,"69":-0.9459564089775085,"70":0.48902076482772827,"71":-0.32995498180389404,"72":-0.4350857436656952,"73":-3.6029574871063232,"74":1.1593126058578491,"75":-0.8081206679344177,"76":0.7671741843223572,"77":2.6883440017700195,"78":-0.8493037223815918,"79":-0.09705670177936554,"80":0.24550655484199524,"81":0.2696669399738312,"82":-0.8593336939811707,"83":-5.253358840942383,"84":-0.11135735362768173,"85":-6.185482978820801,"86":2.773869514465332,"87":-2.080245018005371,"88":0.6370115280151367,"89":2.558929443359375,"90":-0.23048186302185059,"91":0.8043451905250549,"92":-3.356109857559204,"93":0.4825274646282196,"94":-0.7978182435035706,"95":1.1067434549331665,"96":-1.4637454748153687,"97":-0.20885688066482544,"98":-1.6714906692504883,"99":2.399597644805908,"100":0.4323035776615143,"101":2.6841509342193604,"102":-0.7459229826927185,"103":1.7971874475479126,"104":0.33201682567596436,"105":-3.9969732761383057,"106":0.6411252021789551,"107":-0.16835914552211761,"108":-2.6754560470581055,"109":1.4763456583023071,"110":-1.0257498025894165,"111":0.27826762199401855,"112":-1.845015287399292,"113":2.274559497833252,"114":-0.3488045036792755,"115":-0.459852933883667,"116":2.9399302005767822,"117":2.0800535678863525,"118":-3.515528917312622,"119":0.19661730527877808,"120":-1.8682446479797363,"121":1.0025532245635986,"122":-2.2948272228240967,"123":1.623894214630127,"124":-0.3318800926208496,"125":-0.3269747793674469,"126":1.3217757940292358,"127":-3.2071661949157715,"128":-0.23058654367923737,"129":-0.8428699374198914,"130":2.7548608779907227,"131":-0.7857365608215332,"132":-0.9778156280517578,"133":-0.7986270785331726,"134":4.120375156402588,"135":-0.07064280658960342,"136":-0.4111877977848053,"137":1.516048789024353,"138":3.9324543476104736,"139":-0.21808229386806488,"140":-0.31580349802970886,"141":-0.2625865638256073,"142":2.512941360473633,"143":-0.04936587065458298,"144":1.8652873039245605,"145":5.597777843475342,"146":5.4660468101501465,"147":0.9007523655891418,"148":-2.1319925785064697,"149":-3.4550511837005615,"150":-1.4892122745513916,"151":1.336013913154602,"152":-1.290670394897461,"153":1.6791918277740479,"154":0.2981102764606476,"155":2.2789642810821533,"156":-0.3043978810310364,"157":0.3635437786579132,"158":1.147750735282898,"159":-1.7009696960449219,"160":4.529642105102539,"161":-2.298872709274292,"162":-1.927927017211914,"163":1.9363079071044922,"164":0.9030247926712036,"165":1.0821294784545898,"166":2.868649482727051,"167":0.6525571942329407,"168":0.8753775954246521,"169":0.36040204763412476,"170":-5.5379557609558105,"171":-1.0532729625701904,"172":0.36958324909210205,"173":-0.2279142141342163,"174":-6.355541706085205,"175":-0.07061126828193665,"176":-0.7214470505714417,"177":-0.4690104126930237,"178":2.476074695587158,"179":3.0919277667999268,"180":-3.7932348251342773,"181":0.7738862633705139,"182":1.414426565170288,"183":3.87479305267334,"184":0.6319248676300049,"185":-2.2779712677001953,"186":1.7473015785217285,"187":-4.102459907531738,"188":-0.5685182213783264,"189":1.1171971559524536,"190":-0.02203908935189247,"191":-0.2609045207500458,"192":-4.675110816955566,"193":0.9626703262329102,"194":-0.6658417582511902,"195":3.0751118659973145,"196":1.9269136190414429,"197":-4.179131507873535,"198":6.578112602233887,"199":5.3715901374816895,"200":3.194232702255249,"201":-0.3069781959056854,"202":-0.31685778498649597,"203":0.512340784072876,"204":-2.449216365814209,"205":-1.6346025466918945,"206":4.310041904449463,"207":-1.6154934167861938,"208":-0.2501525282859802,"209":1.2249047756195068,"210":-0.9258929491043091,"211":-6.029351711273193,"212":-1.1926674842834473,"213":0.7403907775878906,"214":0.5655426383018494,"215":-1.9435466527938843,"216":-1.8068645000457764,"217":1.4320893287658691,"218":-3.5371217727661133,"219":0.17227232456207275,"220":2.093064546585083,"221":-4.186758995056152,"222":0.40737688541412354,"223":-1.2015609741210938,"224":-2.653806447982788,"225":-2.1642041206359863,"226":0.3839137852191925,"227":0.3220488131046295,"228":0.29809626936912537,"229":3.787078380584717,"230":-1.2143691778182983,"231":4.210330486297607,"232":-1.2879934310913086,"233":-0.16865581274032593,"234":1.2722827196121216,"235":-1.103421926498413,"236":1.3263835906982422,"237":1.0288974046707153,"238":-0.44031861424446106,"239":0.21609380841255188,"240":-0.7913675904273987,"241":-0.7157453298568726,"242":-2.0878241062164307,"243":-2.959092140197754,"244":-3.4128353595733643,"245":-4.47180700302124,"246":-4.713695526123047,"247":-5.691104888916016,"248":0.31628161668777466,"249":-0.6096163392066956,"250":2.979801654815674,"251":-0.08632120490074158,"252":2.9073054790496826,"253":-0.5528160929679871,"254":4.538278102874756,"255":-0.26547008752822876,"256":-0.5511985421180725,"257":0.11565522849559784,"258":-0.34320104122161865,"259":-0.49083858728408813,"260":-1.3762128353118896,"261":-0.20658117532730103,"262":0.42712533473968506,"263":-0.17089900374412537,"264":-0.7888767123222351,"265":0.8675010800361633,"266":1.2956209182739258,"267":-1.7847537994384766,"268":1.4061733484268188,"269":1.504325270652771,"270":1.6230754852294922,"271":-1.3184736967086792,"272":0.44579315185546875,"273":0.5018848180770874,"274":1.394540548324585,"275":2.1557445526123047,"276":-0.21580743789672852,"277":-0.9062253832817078,"278":-2.304292917251587,"279":3.1454734802246094,"280":-1.996593713760376,"281":0.037146735936403275,"282":0.008176799863576889,"283":0.3235675096511841,"284":0.15416429936885834,"285":0.04087154567241669,"286":1.8212379217147827,"287":-1.8071337938308716,"288":0.4635382294654846,"289":2.9056084156036377,"290":0.06106773018836975,"291":-4.372081279754639,"292":0.20499390363693237,"293":-2.868976593017578,"294":4.442712783813477,"295":0.6073977947235107,"296":0.6656728386878967,"297":2.9192452430725098,"298":0.410100519657135,"299":1.3705936670303345,"300":-1.8264923095703125,"301":-1.6213513612747192,"302":1.0510976314544678,"303":1.3390494585037231,"304":-3.5506298542022705,"305":-0.48233306407928467,"306":-5.466578006744385,"307":0.46051618456840515,"308":1.2854355573654175,"309":0.4464562237262726,"310":-1.317232608795166,"311":-0.46757879853248596,"312":1.4150022268295288,"313":-0.4845106303691864,"314":-1.8420971632003784,"315":-1.913290023803711,"316":2.4701852798461914,"317":-4.023016452789307,"318":-2.8563733100891113,"319":2.3388240337371826,"320":-0.7250006198883057,"321":2.4425692558288574,"322":0.03503524139523506,"323":-1.185849666595459,"324":-0.9478466510772705,"325":-2.4177887439727783,"326":-1.1066577434539795,"327":-1.508689284324646,"328":0.36562034487724304,"329":-2.5137579441070557,"330":-1.5276628732681274,"331":0.8127301931381226,"332":1.1002458333969116,"333":0.2868739664554596,"334":-0.7052299976348877,"335":-1.1290351152420044,"336":-2.2822349071502686,"337":0.3651052713394165,"338":-0.440817266702652,"339":-0.8250227570533752,"340":-1.9287570714950562,"341":-0.33978188037872314,"342":-4.025541305541992,"343":-0.6051549315452576,"344":-2.9219915866851807,"345":0.9676257967948914,"346":-0.9987305998802185,"347":0.7721771001815796,"348":-0.9540504813194275,"349":1.1312141418457031,"350":-1.508180022239685,"351":-1.118432879447937,"352":1.2902474403381348,"353":-0.03531783074140549,"354":1.51887047290802,"355":0.6508638858795166,"356":-3.472618818283081,"357":3.2802345752716064,"358":1.978121042251587,"359":-2.35353422164917,"360":-0.14347045123577118,"361":0.3480907380580902,"362":0.16447824239730835,"363":-2.761647939682007,"364":3.2969093322753906,"365":-0.35399436950683594,"366":0.2131050080060959,"367":0.3163389563560486,"368":-1.4153040647506714,"369":-2.527275800704956,"370":-1.384225606918335,"371":3.941735029220581,"372":-2.2515318393707275,"373":0.2756732702255249,"374":-4.536641597747803,"375":0.03423956409096718,"376":-0.17082540690898895,"377":-0.5665481090545654,"378":-1.112210750579834,"379":-0.06417885422706604,"380":2.4640092849731445,"381":0.05211818963289261,"382":0.6173085570335388,"383":-3.623216390609741,"384":2.3712751865386963,"385":-1.9907642602920532,"386":0.20006757974624634,"387":1.5896010398864746,"388":3.8678295612335205,"389":3.734368324279785,"390":0.7959494590759277,"391":0.5416148900985718,"392":1.492985486984253,"393":1.3832162618637085,"394":-3.6673903465270996,"395":0.6139259338378906,"396":0.4655188024044037,"397":-0.3973706364631653,"398":1.937860131263733,"399":-1.6015547513961792,"400":-4.57033634185791,"401":-0.8857501745223999,"402":1.5424882173538208,"403":-2.8128767013549805,"404":0.05672849714756012,"405":-2.5123648643493652,"406":0.7007232904434204,"407":0.47594231367111206,"408":-1.0622150897979736,"409":1.3109180927276611,"410":-2.8777568340301514,"411":2.0727686882019043,"412":2.289607524871826,"413":1.1233561038970947,"414":-4.280078411102295,"415":1.2866218090057373,"416":0.5574615597724915,"417":-0.5802472233772278,"418":-3.416780471801758,"419":-2.4875681400299072,"420":-0.36425745487213135,"421":-5.170483112335205,"422":0.09644920378923416,"423":-2.687297821044922,"424":-0.18402814865112305,"425":-0.8392379879951477,"426":-0.20238766074180603,"427":3.1414835453033447,"428":-2.959881544113159,"429":0.35461747646331787,"430":-2.156796455383301,"431":-2.335395097732544,"432":1.9384286403656006,"433":-0.40028780698776245,"434":1.3689016103744507,"435":-1.9040374755859375,"436":-0.49977168440818787,"437":-2.694286584854126,"438":-0.6883113384246826,"439":-0.49415314197540283,"440":-0.9138249158859253,"441":-1.189383625984192,"442":-1.4772151708602905,"443":1.336897850036621,"444":-0.2454608529806137,"445":0.07456699013710022,"446":0.4503982365131378,"447":2.830352306365967,"448":-2.061220169067383,"449":-0.5270076990127563,"450":0.6203026175498962,"451":-1.0763931274414062,"452":0.202002614736557,"453":2.777311325073242,"454":-0.7572147846221924,"455":0.7982080578804016,"456":-0.1846550703048706,"457":0.224041149020195,"458":0.9814729690551758,"459":1.5527164936065674,"460":0.3781917095184326,"461":0.4939027726650238,"462":0.33194518089294434,"463":1.593957781791687,"464":0.8005774617195129,"465":-2.1168808937072754,"466":-1.4628413915634155,"467":-1.7934520244598389,"468":1.985924243927002,"469":-0.21622638404369354,"470":-1.1641325950622559,"471":1.087470531463623,"472":-1.4486968517303467,"473":-0.6306689977645874,"474":-3.2332210540771484,"475":-0.29270482063293457,"476":-0.5676485896110535,"477":1.8789108991622925,"478":0.0027214481960982084,"479":1.097449779510498,"480":-2.1535048484802246,"481":0.39599645137786865,"482":1.0560675859451294,"483":0.01251742523163557,"484":-0.32745641469955444,"485":0.24631458520889282,"486":-3.5094358921051025,"487":1.4447351694107056,"488":0.2842588722705841,"489":-1.0300729274749756,"490":1.1375882625579834,"491":1.8071473836898804,"492":0.6028218865394592,"493":-0.2707188129425049,"494":5.142131328582764,"495":-0.24055525660514832,"496":-1.2551679611206055,"497":-3.0433411598205566,"498":0.5425499677658081,"499":-1.9101800918579102,"500":-0.5900490283966064,"501":1.2563748359680176,"502":3.071094036102295,"503":4.09497594833374,"504":-2.3501596450805664,"505":2.016979932785034,"506":-0.4106215536594391,"507":-0.3667450249195099,"508":1.6438955068588257,"509":-0.4215712249279022,"510":-1.18030846118927,"511":0.2570993900299072,"512":1.347906231880188,"513":0.4814099371433258,"514":1.3394981622695923,"515":1.5501282215118408,"516":-1.3867950439453125,"517":-1.3941326141357422,"518":1.0858232975006104,"519":-1.4698655605316162,"520":-0.9620206952095032,"521":0.14874236285686493,"522":0.5038534998893738,"523":-1.1018927097320557,"524":1.621263861656189,"525":0.007639726623892784,"526":-0.17651568353176117,"527":2.0264294147491455,"528":-3.2690491676330566,"529":0.398798406124115,"530":0.7734877467155457,"531":1.2706172466278076,"532":-2.2094333171844482,"533":-2.0124213695526123,"534":-0.8114354014396667,"535":0.6054587960243225,"536":0.43390682339668274,"537":-0.4077257513999939,"538":-4.64252233505249,"539":0.0929437205195427,"540":-0.8286108374595642,"541":-0.004801658447831869,"542":3.1270225048065186,"543":0.8867380023002625,"544":-0.4785522520542145,"545":-0.23353701829910278,"546":-2.1647703647613525,"547":-2.2315211296081543,"548":2.4664793014526367,"549":-0.060696277767419815,"550":-1.0099883079528809,"551":-0.7258554100990295,"552":-0.14120061695575714,"553":-1.168701171875,"554":2.9201269149780273,"555":0.35289472341537476,"556":3.1003577709198,"557":-1.5534322261810303,"558":1.1106085777282715,"559":0.5854665040969849,"560":-0.1311892420053482,"561":-1.1162837743759155,"562":-0.056503646075725555,"563":-0.978374183177948,"564":-2.8407819271087646,"565":0.261640727519989,"566":1.4023418426513672,"567":2.473759174346924,"568":1.0068751573562622,"569":-1.796597957611084,"570":-0.5359780192375183,"571":0.8548763990402222,"572":1.619763970375061,"573":0.3303578197956085,"574":-1.6824183464050293,"575":0.9755305051803589,"576":1.9797996282577515,"577":1.515703558921814,"578":0.8117069005966187,"579":1.0738271474838257,"580":0.9142805933952332,"581":2.2346723079681396,"582":1.443522334098816,"583":-1.1047331094741821,"584":1.3456727266311646,"585":0.5935149788856506,"586":6.718312740325928,"587":-4.836464881896973,"588":0.29098275303840637,"589":1.1959760189056396,"590":-5.006345748901367,"591":2.545304536819458,"592":-5.668420791625977,"593":-5.849666118621826,"594":5.978602409362793,"595":-4.411818504333496,"596":-5.473637580871582,"597":4.028756618499756,"598":-5.3598103523254395,"599":-7.795145511627197,"600":3.2202584743499756,"601":-3.406986713409424,"602":-4.006173133850098,"603":-10.87784194946289,"604":1.7053626775741577,"605":-1.4905240535736084,"606":-0.8815611004829407,"607":1.1315703392028809,"608":6.847012519836426,"609":-0.31893739104270935,"610":2.8170204162597656,"611":-5.610727310180664,"612":-0.04445681720972061,"613":-0.3969927728176117,"614":-1.0074743032455444,"615":-1.620651125907898,"616":-1.029014229774475,"617":-2.0536563396453857,"618":6.582861423492432,"619":-0.07628615200519562,"620":7.909486770629883,"621":14.924725532531738,"622":-6.42173433303833,"623":0.3757811188697815,"624":-4.055497646331787,"625":-3.538490056991577,"626":-3.024803876876831,"627":-1.4874931573867798,"628":0.5270853638648987,"629":4.431721210479736,"630":1.0742807388305664,"631":0.5453399419784546,"632":8.392784118652344,"633":0.17726898193359375,"634":6.588827133178711,"635":-1.2956539392471313,"636":-0.7619155645370483,"637":-5.8951239585876465,"638":-6.818012237548828,"639":-0.2243957668542862,"640":-5.62945556640625,"641":-2.2806830406188965,"642":0.6074878573417664,"643":-8.179036140441895,"644":6.685507297515869,"645":0.6266857981681824,"646":-4.262175559997559,"647":-5.627245903015137,"648":0.9969337582588196,"649":-8.852245330810547,"650":0.4918833374977112,"651":0.4038562476634979,"652":-0.295727401971817,"653":1.1922334432601929,"654":-1.8183470964431763,"655":-0.2995361089706421,"656":0.8607825040817261,"657":0.07405064254999161,"658":3.0622146129608154,"659":0.15371868014335632,"660":0.390926331281662,"661":0.4785861372947693,"662":-1.0138283967971802,"663":-1.342157006263733,"664":0.6715770363807678,"665":-0.6376479864120483,"666":1.9099249839782715,"667":-0.23181134462356567,"668":1.5039576292037964,"669":1.6191368103027344,"670":0.22267436981201172,"671":-7.536402225494385,"672":-3.5619425773620605,"673":4.595048904418945,"674":-1.6354645490646362,"675":-2.72788143157959,"676":0.35805782675743103,"677":1.5959086418151855,"678":0.8884499669075012,"679":0.28536927700042725,"680":-2.2210750579833984,"681":1.204964518547058,"682":4.421745300292969,"683":0.227349653840065,"684":-0.368502676486969,"685":-1.925532341003418,"686":-1.050483226776123,"687":-1.0775256156921387,"688":-1.4357987642288208,"689":-0.4407407343387604,"690":1.054257869720459,"691":-0.36180442571640015,"692":-0.7486982345581055,"693":-1.464972972869873,"694":-3.600651502609253,"695":-0.7374480962753296,"696":3.024946928024292,"697":-2.901209831237793,"698":-1.6906812191009521,"699":0.5014886260032654,"700":-1.0900311470031738,"701":-4.006335735321045,"702":3.4826900959014893,"703":0.2499435842037201,"704":-0.7688837647438049,"705":0.005775765515863895,"706":1.2008696794509888,"707":3.916735887527466,"708":0.018195269629359245,"709":4.088437557220459,"710":0.16225412487983704,"711":0.6313984394073486,"712":-1.0412166118621826,"713":1.4896891117095947,"714":1.563391089439392,"715":-0.0448211207985878,"716":-0.270089328289032,"717":0.8730124235153198,"718":-0.7326408624649048,"719":-0.44300511479377747,"720":-1.2286922931671143,"721":-0.15816666185855865,"722":0.8526759743690491,"723":1.6919755935668945,"724":-1.8472048044204712,"725":1.7322449684143066,"726":1.8193905353546143,"727":-0.09691810607910156,"728":4.531868934631348,"729":-0.5366458296775818,"730":-1.054074764251709,"731":-0.41064921021461487,"732":-1.878286600112915,"733":-1.923579454421997,"734":2.1278762817382812,"735":0.24799202382564545,"736":-5.991221904754639,"737":4.3914947509765625,"738":0.1254836767911911,"739":-0.7077347636222839,"740":-1.0901411771774292,"741":4.993806838989258,"742":-0.9348181486129761,"743":-0.8058221340179443,"744":-1.0099860429763794,"745":-0.47013452649116516,"746":-0.23123176395893097,"747":1.112058162689209,"748":2.8406217098236084,"749":2.4041075706481934,"750":-0.4501058757305145,"751":-0.13253560662269592,"752":0.0047805579379200935,"753":-0.3689202666282654,"754":-0.9078923463821411,"755":-2.3278040885925293,"756":-1.7552109956741333,"757":-0.2668372094631195,"758":1.6697407960891724,"759":-1.5086512565612793,"760":-1.0061519145965576,"761":0.7574394345283508,"762":-0.087083600461483,"763":-2.0908844470977783,"764":-0.05805475637316704,"765":-0.6695440411567688,"766":-2.2258999347686768,"767":-1.0299025774002075,"768":0.38055646419525146,"769":-0.24877452850341797,"770":-2.3115532398223877,"771":0.7226994633674622,"772":-4.430012226104736,"773":-0.273711621761322,"774":2.897252321243286,"775":-1.0873624086380005,"776":-2.8185644149780273,"777":0.40811410546302795,"778":-2.3111727237701416,"779":-2.7770261764526367,"780":-0.7762664556503296,"781":1.6491425037384033,"782":1.8397234678268433,"783":1.6921662092208862,"784":0.5800637006759644,"785":2.8245396614074707,"786":1.6723710298538208,"787":-1.018621802330017,"788":0.8925648927688599,"789":1.0258532762527466,"790":-0.46934762597084045,"791":0.19462251663208008,"792":0.6253190636634827,"793":2.741910696029663,"794":0.07217453420162201,"795":-0.7110353708267212,"796":-1.6054102182388306,"797":-2.0361101627349854,"798":0.4806033670902252,"799":4.754334926605225,"800":0.9542214274406433,"801":3.5700151920318604,"802":-1.4819920063018799,"803":2.8815276622772217,"804":-5.536524772644043,"805":0.27895402908325195,"806":0.3840346336364746,"807":-1.027833104133606,"808":1.6765894889831543,"809":3.075643301010132,"810":2.7245118618011475,"811":0.8845154643058777,"812":-1.6931767463684082,"813":-1.0774402618408203,"814":0.12905460596084595,"815":-1.053844928741455,"816":1.7234596014022827,"817":0.34265729784965515,"818":-0.8925232291221619,"819":1.3106173276901245,"820":-0.7565862536430359,"821":-0.513766348361969,"822":1.7452123165130615,"823":-1.4587126970291138,"824":-2.665888547897339,"825":2.698979139328003,"826":-0.9312776327133179,"827":1.4974327087402344,"828":-0.12517468631267548,"829":1.7417688369750977,"830":-1.891540288925171,"831":1.532696008682251,"832":2.16676926612854,"833":-0.6241024136543274,"834":-0.5855710506439209,"835":0.4689752161502838,"836":-0.522718071937561,"837":2.794167995452881,"838":-4.554162979125977,"839":1.16484797000885,"840":-1.291783094406128,"841":-2.777956485748291,"842":-3.706125020980835,"843":-2.6358137130737305,"844":-1.4164167642593384,"845":-0.20239980518817902,"846":-1.8186688423156738,"847":1.437812328338623,"848":0.9210315942764282,"849":-1.2834540605545044,"850":-1.2033860683441162,"851":-0.9966577887535095,"852":-0.30586621165275574,"853":-6.5639567375183105,"854":-1.6644457578659058,"855":-2.902716636657715,"856":1.190679907798767,"857":-1.429836630821228,"858":-3.3399641513824463,"859":-0.6257420182228088,"860":2.7244644165039062,"861":2.2469165325164795,"862":0.7799087762832642,"863":2.823084831237793,"864":-0.7911912798881531,"865":-2.0081725120544434,"866":3.822528600692749,"867":-0.30175864696502686,"868":-4.550908088684082,"869":2.1241300106048584,"870":-1.3795174360275269,"871":-1.9108760356903076,"872":-1.2361674308776855,"873":1.5548650026321411,"874":0.08389172703027725,"875":-1.5555236339569092,"876":0.7085980176925659,"877":0.5342386960983276,"878":-1.196441888809204,"879":-0.7220944762229919,"880":-0.2712726891040802,"881":-0.5851535797119141,"882":-1.3202664852142334,"883":-1.5356558561325073,"884":-1.0761916637420654,"885":-7.847034454345703,"886":-0.30876895785331726,"887":-0.7042018175125122,"888":1.966728925704956,"889":4.617146015167236,"890":-2.153377056121826,"891":-0.6973015666007996,"892":3.8722143173217773,"893":6.095533847808838,"894":-0.8406456708908081,"895":0.8780931830406189,"896":4.055363178253174,"897":-2.6061365604400635,"898":-3.6188719272613525,"899":1.3050634860992432,"900":1.3776428699493408,"901":-1.9934937953948975,"902":0.5669025182723999,"903":1.749969244003296,"904":-4.818092346191406,"905":0.08285752683877945,"906":-2.5690805912017822,"907":-1.482629418373108,"908":-0.8993667364120483,"909":0.30948522686958313,"910":-0.4572463929653168,"911":0.267402321100235,"912":0.043218065053224564,"913":0.3427148759365082,"914":-1.3887910842895508,"915":-0.3655095398426056,"916":0.09229705482721329,"917":-1.5393340587615967,"918":2.545548677444458,"919":-0.5367909073829651,"920":0.2583548426628113,"921":-1.3618028163909912,"922":0.9341533780097961,"923":1.7981014251708984,"924":-0.8618594408035278,"925":3.240946054458618,"926":-0.3418949544429779,"927":-3.699526071548462,"928":-3.4539296627044678,"929":-1.1957899332046509,"930":1.2234628200531006,"931":-2.6448302268981934,"932":2.602739095687866,"933":3.358107328414917,"934":-2.392848491668701,"935":-1.207529902458191,"936":-0.9729384183883667,"937":1.2830666303634644,"938":-0.975636899471283,"939":-0.02221496030688286,"940":0.25956010818481445,"941":-0.2526046931743622,"942":-0.12357636541128159,"943":-2.032484292984009,"944":0.5842902660369873,"945":-2.0553081035614014,"946":-0.4350534975528717,"947":-0.5928437113761902,"948":0.6177074909210205,"949":1.2140713930130005,"950":-0.5710999965667725,"951":0.8829274773597717,"952":-1.5108448266983032,"953":-0.1988063007593155,"954":-1.1015887260437012,"955":0.3502470850944519,"956":-1.1996510028839111,"957":-3.135516881942749,"958":2.132279634475708,"959":-0.38624027371406555,"960":-0.8397925496101379,"961":-0.5166870951652527,"962":-0.8859071731567383,"963":0.19863036274909973,"964":0.38536036014556885,"965":0.7397850155830383,"966":-1.7588869333267212,"967":-0.7443389296531677,"968":-0.8169959187507629,"969":2.343231439590454,"970":-1.2944669723510742,"971":-2.362553358078003,"972":-0.4607578217983246,"973":0.06753499060869217,"974":-3.2746834754943848,"975":-1.7015570402145386,"976":-0.31004753708839417,"977":0.9604090452194214,"978":-1.8993123769760132,"979":0.2783203721046448,"980":0.5087199807167053,"981":1.676978588104248,"982":0.9479241967201233,"983":-1.6921992301940918,"984":1.0873297452926636,"985":-1.7356022596359253,"986":-1.8518534898757935,"987":0.10197624564170837,"988":-2.226884126663208,"989":-1.4005762338638306,"990":0.24093769490718842,"991":0.2347344011068344,"992":1.2115309238433838,"993":-0.812744140625,"994":-0.23689864575862885,"995":-0.429739385843277,"996":0.07799265533685684,"997":-0.8386933207511902,"998":1.6225842237472534,"999":-1.7754299640655518,"1000":0.1981610655784607,"1001":0.7003754377365112,"1002":0.0813838541507721,"1003":-0.2415981888771057,"1004":0.02174803614616394,"1005":-0.5039805769920349,"1006":-0.21867448091506958,"1007":0.07409629970788956,"1008":-0.7985671162605286,"1009":-0.516613245010376,"1010":-0.12289347499608994,"1011":0.7043716311454773,"1012":1.8705718517303467,"1013":1.6575263738632202,"1014":1.7908037900924683,"1015":0.710426926612854,"1016":1.4518619775772095,"1017":1.0424201488494873,"1018":-0.19198891520500183,"1019":-0.8206735849380493,"1020":-0.22839462757110596,"1021":-0.661177396774292,"1022":-1.3389354944229126,"1023":-1.5814213752746582,"1024":-0.017664635553956032,"1025":1.1189626455307007,"1026":-0.4662132263183594,"1027":-6.129836559295654,"1028":0.14387468993663788,"1029":-3.6606194972991943,"1030":1.1585321426391602,"1031":0.9844570755958557,"1032":0.8720319271087646,"1033":-0.5520467162132263,"1034":0.6813623905181885,"1035":1.0176812410354614,"1036":3.43870210647583,"1037":-3.4367918968200684,"1038":-0.22841776907444,"1039":-3.793442964553833,"1040":1.6779654026031494,"1041":0.8419204354286194,"1042":0.6774744987487793,"1043":-1.1882985830307007,"1044":0.9641274809837341,"1045":-0.40611085295677185,"1046":0.2854169011116028,"1047":-2.0389325618743896,"1048":3.4821064472198486,"1049":-3.138045310974121,"1050":0.5811745524406433,"1051":5.7112135887146,"1052":-0.8140919804573059,"1053":0.5528134703636169,"1054":3.4472029209136963,"1055":-1.5673640966415405,"1056":-1.0013540983200073,"1057":-4.921658992767334,"1058":0.6379070281982422,"1059":0.8278643488883972,"1060":0.22159288823604584,"1061":0.35225817561149597,"1062":3.9787344932556152,"1063":0.05233453959226608,"1064":-0.33135756850242615,"1065":0.8481253385543823,"1066":-8.546660423278809,"1067":-0.6147423386573792,"1068":0.9476155042648315,"1069":-1.47185480594635,"1070":1.5272616147994995,"1071":-0.4475133717060089,"1072":0.10829436033964157,"1073":-4.385405540466309,"1074":-1.5407302379608154,"1075":-0.25859352946281433,"1076":0.4055449962615967,"1077":-0.17841744422912598,"1078":3.091657876968384,"1079":-1.2039158344268799,"1080":-1.5747580528259277,"1081":0.6692271828651428,"1082":0.6386746168136597,"1083":3.5788156986236572,"1084":1.1208490133285522,"1085":4.055124282836914,"1086":-0.02632949873805046,"1087":1.51964271068573,"1088":-2.6960880756378174,"1089":-0.6818676590919495,"1090":-1.0200077295303345,"1091":-0.11835984885692596,"1092":-2.0578670501708984,"1093":-0.9185301065444946,"1094":-1.277237892150879,"1095":-1.2041206359863281,"1096":-0.26232439279556274,"1097":-1.7340619564056396,"1098":0.46223798394203186,"1099":5.622066020965576,"1100":0.1505705863237381,"1101":-0.0492243729531765,"1102":-2.716593027114868,"1103":-0.2921845316886902,"1104":-1.928626537322998,"1105":2.1768100261688232,"1106":3.7081003189086914,"1107":0.7150800824165344,"1108":-1.3111917972564697,"1109":-1.8608016967773438,"1110":0.7455266118049622,"1111":3.13189697265625,"1112":-2.2271206378936768,"1113":0.6520919799804688,"1114":2.721041679382324,"1115":-3.8846354484558105,"1116":-2.74625301361084,"1117":0.22596001625061035,"1118":-3.0524847507476807,"1119":-0.4289121925830841,"1120":0.27775272727012634,"1121":-2.8478453159332275,"1122":0.6600203514099121,"1123":-1.4104174375534058,"1124":-6.610105037689209,"1125":-1.1702452898025513,"1126":3.3530075550079346,"1127":0.13471022248268127,"1128":1.9171957969665527,"1129":-2.572920322418213,"1130":0.5643082857131958,"1131":-0.8773730993270874,"1132":5.558632850646973,"1133":-1.878766655921936,"1134":-0.7627571821212769,"1135":2.2941384315490723,"1136":-3.448662757873535,"1137":1.6374304294586182,"1138":0.9074458479881287,"1139":-2.0661356449127197,"1140":-1.5441105365753174,"1141":7.2430267333984375,"1142":-0.5910765528678894,"1143":-1.2850576639175415,"1144":1.7201800346374512,"1145":-2.0024452209472656,"1146":-0.6268797516822815,"1147":-1.0698809623718262,"1148":-1.9577945470809937,"1149":-1.4404337406158447,"1150":-0.5694348216056824,"1151":0.7834175229072571,"1152":-0.315160870552063,"1153":-0.9978413581848145,"1154":-2.408156394958496,"1155":0.3691861927509308,"1156":1.5880979299545288,"1157":-1.2885634899139404,"1158":0.5761841535568237,"1159":-0.21879443526268005,"1160":-0.6257578134536743,"1161":-0.27264493703842163,"1162":3.145420551300049,"1163":-0.7327224612236023,"1164":0.503357470035553,"1165":0.6714687943458557,"1166":0.5638588666915894,"1167":-1.3877118825912476,"1168":0.28333237767219543,"1169":-2.929816961288452,"1170":7.138383865356445,"1171":3.400789499282837,"1172":0.2941596508026123,"1173":0.8701675534248352,"1174":-2.7456626892089844,"1175":0.44722020626068115,"1176":-1.877469778060913,"1177":-5.072930812835693,"1178":2.2694342136383057,"1179":4.194561004638672,"1180":-0.8893158435821533,"1181":1.8437570333480835,"1182":-3.673595905303955,"1183":1.3379430770874023,"1184":-0.30935901403427124,"1185":-7.438230991363525,"1186":-4.106809139251709,"1187":2.366206407546997,"1188":-3.560877799987793,"1189":-2.4773755073547363,"1190":-4.338916778564453,"1191":-0.9415768384933472,"1192":-3.191718101501465,"1193":0.656980037689209,"1194":2.236876964569092,"1195":-0.47137224674224854,"1196":0.2377839982509613,"1197":1.1260708570480347,"1198":0.4086421728134155,"1199":-1.8207842111587524,"1200":1.12166166305542,"1201":-1.8747272491455078,"1202":-0.32370641827583313,"1203":-3.503692626953125,"1204":0.33700308203697205,"1205":1.3378711938858032,"1206":-2.8871381282806396,"1207":4.570398330688477,"1208":-0.8485938906669617,"1209":-0.6980419158935547,"1210":-0.7354974746704102,"1211":-3.2908358573913574,"1212":-2.9555959701538086,"1213":2.410763740539551,"1214":1.4176567792892456,"1215":2.7612526416778564,"1216":0.9149361252784729,"1217":-5.510181427001953,"1218":-0.0789608433842659,"1219":-0.31021636724472046,"1220":-2.178873300552368,"1221":-8.213664054870605,"1222":3.6491458415985107,"1223":0.37079179286956787,"1224":2.036332130432129,"1225":1.7091400623321533,"1226":0.31842583417892456,"1227":0.3236860930919647,"1228":1.4847897291183472,"1229":-1.084671974182129,"1230":4.221182346343994,"1231":-1.3294463157653809,"1232":5.161677837371826,"1233":2.7916581630706787,"1234":-1.7457683086395264,"1235":-1.6100728511810303,"1236":-1.9593323469161987,"1237":3.187744379043579,"1238":-0.7657467126846313,"1239":-1.044054627418518,"1240":0.9419897198677063,"1241":0.4469098150730133,"1242":-1.4984028339385986,"1243":-0.5902695059776306,"1244":-0.5328164100646973,"1245":0.7320846319198608,"1246":0.4410027265548706,"1247":-1.1209512948989868,"1248":-1.8739683628082275,"1249":1.506730079650879,"1250":-1.0926308631896973,"1251":-0.854853630065918,"1252":0.95998215675354,"1253":0.40974491834640503,"1254":-0.7503370642662048,"1255":-0.7920975089073181,"1256":1.5491012334823608,"1257":-1.2004393339157104,"1258":3.285820960998535,"1259":2.656059741973877,"1260":0.3358818590641022,"1261":-6.643002986907959,"1262":0.5993024110794067,"1263":-1.6580008268356323,"1264":-0.8625928163528442,"1265":1.5140467882156372,"1266":-1.0207500457763672,"1267":0.10585510730743408,"1268":-0.11034584045410156,"1269":2.4240128993988037,"1270":-1.2150850296020508,"1271":2.6429667472839355,"1272":-2.944389581680298,"1273":0.27636149525642395,"1274":0.48031455278396606,"1275":0.025481250137090683,"1276":-1.9791934490203857,"1277":3.6730475425720215,"1278":-0.02742651291191578,"1279":-1.9697418212890625,"1280":0.8923515677452087,"1281":-3.441642999649048,"1282":1.5414514541625977,"1283":-0.7005569934844971,"1284":1.0972702503204346,"1285":0.36685433983802795,"1286":1.1567890644073486,"1287":-0.666599690914154,"1288":-0.33011701703071594,"1289":-3.182793378829956,"1290":0.49331507086753845,"1291":-1.2651715278625488,"1292":1.4045330286026,"1293":-2.9036221504211426,"1294":-1.8528058528900146,"1295":-1.103695034980774,"1296":0.10077303647994995,"1297":-0.8771597146987915,"1298":-1.9803376197814941,"1299":1.8490865230560303,"1300":-0.40332016348838806,"1301":1.6780411005020142,"1302":-1.5960078239440918,"1303":0.301922470331192,"1304":-0.48842260241508484,"1305":0.5433481931686401,"1306":2.234575033187866,"1307":0.06895193457603455,"1308":0.23510591685771942,"1309":-0.5890874266624451,"1310":-4.437407970428467,"1311":-1.192153811454773,"1312":1.0653634071350098,"1313":-1.0098164081573486,"1314":3.7903876304626465,"1315":0.7304219603538513,"1316":-0.057405464351177216,"1317":1.8866262435913086,"1318":-0.500075101852417,"1319":4.296736717224121,"1320":-3.457152843475342,"1321":7.348110198974609,"1322":0.7363273501396179,"1323":-0.47368675470352173,"1324":0.22414827346801758,"1325":-0.6925902962684631,"1326":6.036824703216553,"1327":0.46044620871543884,"1328":-1.5776456594467163,"1329":-1.6958433389663696,"1330":1.7664669752120972,"1331":-2.0319926738739014,"1332":-1.2403128147125244,"1333":2.700232982635498,"1334":-1.3825370073318481,"1335":-0.6319862604141235,"1336":0.34115636348724365,"1337":1.0633823871612549,"1338":1.218601942062378,"1339":-0.7303248047828674,"1340":-0.7340490221977234,"1341":1.659950613975525,"1342":-0.5863710641860962,"1343":3.160574436187744,"1344":2.1488659381866455,"1345":0.5701647400856018,"1346":-0.4010568857192993,"1347":-1.224351167678833,"1348":-0.8823081851005554,"1349":0.6392006874084473,"1350":-1.3096129894256592,"1351":1.5781866312026978,"1352":-1.2194983959197998,"1353":-1.209533452987671,"1354":-1.233689546585083,"1355":-2.7324604988098145,"1356":-0.7750772833824158,"1357":2.9387502670288086,"1358":-2.60600209236145,"1359":-0.8879352807998657,"1360":-0.3420746326446533,"1361":1.8340530395507812,"1362":-3.2505362033843994,"1363":1.0831756591796875,"1364":0.2895260751247406,"1365":-0.7228046655654907,"1366":3.5555920600891113,"1367":-3.6851558685302734,"1368":-1.4451251029968262,"1369":1.071907877922058,"1370":-1.0025146007537842,"1371":-3.4238479137420654,"1372":0.2425968050956726,"1373":-5.079901695251465,"1374":-2.125946283340454,"1375":1.8239649534225464,"1376":-0.7581116557121277,"1377":0.5255904197692871,"1378":5.344002723693848,"1379":-0.6702489852905273,"1380":-0.5201011896133423,"1381":-2.3653810024261475,"1382":0.5110838413238525,"1383":-1.5445778369903564,"1384":-0.9474079012870789,"1385":3.0780131816864014,"1386":-0.5373335480690002,"1387":-2.8815255165100098,"1388":-3.3334267139434814,"1389":4.10878324508667,"1390":2.1542837619781494,"1391":-2.241349220275879,"1392":1.6997644901275635,"1393":1.6594518423080444,"1394":2.262273073196411,"1395":1.4927308559417725,"1396":-0.162688747048378,"1397":-0.11788606643676758,"1398":1.403568148612976,"1399":1.0997670888900757,"1400":-0.7127668857574463,"1401":0.17985936999320984,"1402":0.6649747490882874,"1403":-1.9727213382720947,"1404":0.0541408471763134,"1405":-0.05067569389939308,"1406":3.1952695846557617,"1407":-4.5058207511901855,"1408":1.120247483253479,"1409":2.8342692852020264,"1410":3.0059585571289062,"1411":2.0045011043548584,"1412":0.24876517057418823,"1413":5.691871166229248,"1414":0.59263676404953,"1415":0.15456697344779968,"1416":1.982913851737976,"1417":2.219841957092285,"1418":-4.034798622131348,"1419":2.5687968730926514,"1420":-4.42255973815918,"1421":0.8239249587059021,"1422":-4.473740100860596,"1423":0.7693639993667603,"1424":-1.9846036434173584,"1425":2.7600362300872803,"1426":1.6090227365493774,"1427":-2.3882992267608643,"1428":0.8887509703636169,"1429":-1.537975788116455,"1430":-1.2213751077651978,"1431":-2.4482262134552,"1432":0.2605898976325989,"1433":0.28841671347618103,"1434":1.6550548076629639,"1435":1.8803445100784302,"1436":0.45024603605270386,"1437":1.090036392211914,"1438":-0.44920527935028076,"1439":1.1440387964248657,"1440":0.9034687876701355,"1441":-0.9136237502098083,"1442":-0.8843464851379395,"1443":1.228695034980774,"1444":1.8461642265319824,"1445":-2.2647528648376465,"1446":0.13610437512397766,"1447":-1.9955774545669556,"1448":2.6816158294677734,"1449":-1.9594365358352661,"1450":1.0795246362686157,"1451":0.25496867299079895,"1452":2.034238576889038,"1453":1.1075371503829956,"1454":-1.2165584564208984,"1455":-0.19362135231494904,"1456":0.3869784474372864,"1457":-0.3647593557834625,"1458":-0.16887150704860687,"1459":3.2897863388061523,"1460":-0.6746976375579834,"1461":0.9979088306427002,"1462":-1.4435226917266846,"1463":-0.7145596742630005,"1464":0.9683094024658203,"1465":-0.263457328081131,"1466":1.6313663721084595,"1467":-0.6472432017326355,"1468":-1.1063979864120483,"1469":-1.3132508993148804,"1470":0.8899747133255005,"1471":1.8684170246124268,"1472":0.235277459025383,"1473":0.8306106328964233,"1474":-0.09220384061336517,"1475":4.275669574737549,"1476":0.5693501234054565,"1477":0.29942405223846436,"1478":1.4436575174331665,"1479":0.393662691116333,"1480":-0.423105925321579,"1481":1.5339446067810059,"1482":5.984774112701416,"1483":-0.4642852544784546,"1484":-4.996703147888184,"1485":-3.7765111923217773,"1486":0.8417922854423523,"1487":1.6157516241073608,"1488":-1.9593209028244019,"1489":0.41693511605262756,"1490":-2.2675704956054688,"1491":-0.8792421221733093,"1492":-1.1374382972717285,"1493":-0.8845689296722412,"1494":-3.0241284370422363,"1495":-7.158512115478516,"1496":-1.0687192678451538,"1497":6.756371974945068,"1498":-8.633370399475098,"1499":0.6070628762245178,"1500":-1.8275915384292603,"1501":3.77204966545105,"1502":3.8453307151794434,"1503":6.222042560577393,"1504":0.3809778094291687,"1505":5.129679203033447,"1506":2.786163568496704,"1507":0.3214050531387329,"1508":-12.136374473571777,"1509":-1.4196032285690308,"1510":4.386260509490967,"1511":-1.3281415700912476,"1512":2.1624343395233154,"1513":-2.6605215072631836,"1514":-1.728929042816162,"1515":1.578438401222229,"1516":4.602655410766602,"1517":-2.463080406188965,"1518":0.1912398487329483,"1519":-1.1639692783355713,"1520":-0.5439928770065308,"1521":-7.267838478088379,"1522":3.8852505683898926,"1523":3.897287607192993,"1524":-4.679861068725586,"1525":2.1154634952545166,"1526":2.282717704772949,"1527":0.17467573285102844,"1528":-2.561361312866211,"1529":5.837178707122803,"1530":-7.98629093170166,"1531":3.3203885555267334,"1532":0.9565333127975464,"1533":-0.5391743779182434,"1534":7.302868843078613,"1535":0.09979228675365448,"1536":5.9022111892700195,"1537":8.445871353149414,"1538":1.1600735187530518,"1539":-2.8302669525146484,"1540":-6.935471057891846,"1541":-6.628111839294434,"1542":-0.8081421256065369,"1543":-0.2811712622642517,"1544":-1.794913649559021,"1545":1.2609052658081055,"1546":3.5234270095825195,"1547":1.8223429918289185,"1548":1.251235842704773,"1549":-2.244518756866455,"1550":2.3491551876068115,"1551":-0.8756840825080872,"1552":5.947508811950684,"1553":2.614469051361084,"1554":-6.232427597045898,"1555":1.0523256063461304,"1556":2.822575569152832,"1557":-5.070249080657959,"1558":-0.8784638047218323,"1559":4.73145055770874,"1560":-0.7187914848327637,"1561":-1.9942823648452759,"1562":-0.9511188268661499,"1563":-2.1657731533050537,"1564":4.853600025177002,"1565":-1.030289888381958,"1566":0.9661011695861816,"1567":3.0913822650909424,"1568":1.3449478149414062,"1569":1.2512072324752808,"1570":-2.827319622039795,"1571":-1.7961304187774658,"1572":0.23975037038326263,"1573":2.536661386489868,"1574":0.814651370048523,"1575":1.4896953105926514,"1576":-1.2010691165924072,"1577":3.132627010345459,"1578":-6.413880348205566,"1579":0.023641010746359825,"1580":1.709614872932434,"1581":-1.7952946424484253,"1582":2.2017688751220703,"1583":0.7562617063522339,"1584":-1.4458688497543335,"1585":0.9324373602867126,"1586":-2.08012318611145,"1587":4.727773189544678,"1588":-0.5127715468406677,"1589":-2.5424928665161133,"1590":-1.495689868927002,"1591":-0.38049349188804626,"1592":-0.4950130581855774,"1593":-0.12954100966453552,"1594":2.561032772064209,"1595":-1.4803756475448608,"1596":0.9285171627998352,"1597":-1.6141328811645508,"1598":-2.0761172771453857,"1599":0.3224506378173828,"1600":-0.5693311095237732,"1601":-0.44623667001724243,"1602":-0.8902329802513123,"1603":0.6977586150169373,"1604":-0.8443787097930908,"1605":-0.8905324935913086,"1606":-3.3602614402770996,"1607":-1.6280052661895752,"1608":1.9177262783050537,"1609":0.8738840222358704,"1610":-0.18281257152557373,"1611":-1.1775740385055542,"1612":-1.347041368484497,"1613":-1.0894657373428345,"1614":1.9352308511734009,"1615":-0.030909089371562004,"1616":0.5180056691169739,"1617":-0.7032239437103271,"1618":-0.91204833984375,"1619":-2.302414894104004,"1620":-0.30390897393226624,"1621":2.6824839115142822,"1622":-0.9582951068878174,"1623":0.5320031642913818,"1624":-1.956398606300354,"1625":-8.641889572143555,"1626":2.4768853187561035,"1627":1.6361944675445557,"1628":5.680187225341797,"1629":-3.7382309436798096,"1630":-1.0218515396118164,"1631":6.13871431350708,"1632":-1.7693332433700562,"1633":1.3147534132003784,"1634":8.67263126373291,"1635":5.197057723999023,"1636":-2.400988817214966,"1637":1.4468106031417847,"1638":6.240623950958252,"1639":3.769861936569214,"1640":0.3858254849910736,"1641":11.555335998535156,"1642":1.0389328002929688,"1643":2.7559170722961426,"1644":1.6907153129577637,"1645":-2.2854509353637695,"1646":2.2150354385375977,"1647":6.472174167633057,"1648":4.413447380065918,"1649":2.9417951107025146,"1650":0.6956871747970581,"1651":7.293019771575928,"1652":-10.986344337463379,"1653":-0.8351132273674011,"1654":-0.12849144637584686,"1655":-0.8168319463729858,"1656":-2.2209715843200684,"1657":-0.27637186646461487,"1658":9.252493858337402,"1659":-3.2594876289367676,"1660":1.928546667098999,"1661":-2.303788661956787,"1662":-5.532921314239502,"1663":-4.024196147918701,"1664":-6.658027172088623,"1665":2.1492018699645996,"1666":-5.068901062011719,"1667":0.8021079301834106,"1668":9.168707847595215,"1669":7.2427077293396,"1670":-1.3026100397109985,"1671":-1.8645182847976685,"1672":-0.5629093050956726,"1673":2.9260287284851074,"1674":0.21660548448562622,"1675":-6.604706287384033,"1676":0.3164316713809967,"1677":4.613776206970215,"1678":1.1047158241271973,"1679":3.2916653156280518,"1680":-4.068078994750977,"1681":6.180559158325195,"1682":3.670745372772217,"1683":-5.006927967071533,"1684":-0.7935751080513,"1685":-6.549428939819336,"1686":2.0747721195220947,"1687":2.3349056243896484,"1688":0.759117603302002,"1689":-6.127242565155029,"1690":-2.911778211593628,"1691":0.42429041862487793,"1692":-3.970407485961914,"1693":2.050654411315918,"1694":1.7163842916488647,"1695":-1.7753574848175049,"1696":0.5603523850440979,"1697":-4.6334357261657715,"1698":-6.0429911613464355,"1699":2.8952672481536865,"1700":-1.850007176399231,"1701":-4.798696994781494,"1702":-1.5103799104690552,"1703":9.22432804107666,"1704":-4.244874954223633,"1705":-3.2243902683258057,"1706":-3.7726383209228516,"1707":-1.9107706546783447,"1708":-0.14602042734622955,"1709":1.5933303833007812,"1710":2.1157174110412598,"1711":-1.183750867843628,"1712":-0.03522295504808426,"1713":-0.7617974877357483,"1714":-1.5657012462615967,"1715":6.653977870941162,"1716":-1.8689844608306885,"1717":-1.4785196781158447,"1718":-4.919592380523682,"1719":-1.1177036762237549,"1720":-1.9608827829360962,"1721":0.058875732123851776,"1722":6.750094890594482,"1723":3.472200870513916,"1724":2.184062957763672,"1725":-0.48949068784713745,"1726":0.0084046870470047,"1727":4.259339332580566,"1728":-3.8609097003936768,"1729":-1.1371577978134155,"1730":3.8424813747406006,"1731":-0.29890769720077515,"1732":-5.913400173187256,"1733":-3.760161876678467,"1734":3.2698779106140137,"1735":1.4500551223754883,"1736":6.068582534790039,"1737":3.4609575271606445,"1738":3.7574470043182373,"1739":-3.293766498565674,"1740":-0.42677581310272217,"1741":2.058051347732544,"1742":4.85781192779541,"1743":1.3227121829986572,"1744":-0.9013432264328003,"1745":-3.363112449645996,"1746":1.6683502197265625,"1747":-2.5574207305908203,"1748":-1.8533121347427368,"1749":2.022366762161255,"1750":0.16908766329288483,"1751":0.1718406230211258,"1752":-2.6322669982910156,"1753":1.3682326078414917,"1754":-3.3039419651031494,"1755":-2.2094507217407227,"1756":-0.5320261716842651,"1757":-2.279284715652466,"1758":-0.44783300161361694,"1759":-0.5297340750694275,"1760":1.6157552003860474,"1761":-1.972959041595459,"1762":0.15190839767456055,"1763":1.5082801580429077,"1764":0.8697195649147034,"1765":-2.610811948776245,"1766":0.5087904930114746,"1767":0.18206574022769928,"1768":0.128667950630188,"1769":-2.1774742603302,"1770":0.28502923250198364,"1771":1.6344953775405884,"1772":-1.7049134969711304,"1773":-3.30711030960083,"1774":0.7493054866790771,"1775":-3.2759673595428467,"1776":-1.7764105796813965,"1777":1.256313443183899,"1778":0.4295981526374817,"1779":-0.1487542688846588,"1780":0.973742663860321,"1781":-0.6546713709831238,"1782":-0.3974926173686981,"1783":-1.2017700672149658,"1784":-1.9725463390350342,"1785":-1.7844418287277222,"1786":-1.12864089012146,"1787":-0.6381944417953491,"1788":-1.5913374423980713,"1789":-0.650181233882904,"1790":-2.0150279998779297,"1791":1.716678500175476,"1792":1.103319525718689,"1793":1.9228805303573608,"1794":-1.709490418434143,"1795":-1.096150279045105,"1796":-0.8257387280464172,"1797":0.8384763598442078,"1798":-2.8015036582946777,"1799":-4.126783847808838,"1800":0.5062720775604248,"1801":-1.2435919046401978,"1802":-0.051966242492198944,"1803":0.3759119510650635,"1804":-1.491763949394226,"1805":2.2722582817077637,"1806":3.6272470951080322,"1807":-3.042389154434204,"1808":0.5380824208259583,"1809":-1.0951075553894043,"1810":-1.3669416904449463,"1811":0.25392523407936096,"1812":2.366098165512085,"1813":-1.3104701042175293,"1814":1.0316482782363892,"1815":1.9921579360961914,"1816":1.4151414632797241,"1817":1.57148277759552,"1818":0.6723371148109436,"1819":1.6036559343338013,"1820":0.814487636089325,"1821":-1.1106940507888794,"1822":0.488160103559494,"1823":-2.2491753101348877,"1824":-0.71317458152771,"1825":-0.5542535185813904,"1826":1.6962988376617432,"1827":1.290084719657898,"1828":0.46489930152893066,"1829":0.36943790316581726,"1830":-2.8303213119506836,"1831":0.5062227249145508,"1832":-0.514721691608429,"1833":0.5154938697814941,"1834":1.0936317443847656,"1835":0.6578148007392883,"1836":1.4873998165130615,"1837":0.1279476284980774,"1838":-1.1008495092391968,"1839":-1.094343662261963,"1840":-1.497297763824463,"1841":-0.9898061156272888,"1842":-0.9539558291435242,"1843":-0.5473582744598389,"1844":-1.235586404800415,"1845":1.2972033023834229,"1846":1.0162851810455322,"1847":1.407234787940979,"1848":-1.2276703119277954,"1849":-0.5254625678062439,"1850":-1.9452720880508423,"1851":-2.7112739086151123,"1852":-1.0084699392318726,"1853":-2.9297142028808594,"1854":0.4310491979122162,"1855":-0.27710843086242676,"1856":2.575544595718384,"1857":-0.11745283752679825,"1858":1.2694416046142578,"1859":1.6110283136367798,"1860":-2.396690607070923,"1861":-0.1625315546989441,"1862":0.7047116756439209,"1863":-1.160791277885437,"1864":-2.5681469440460205,"1865":-0.1116924062371254,"1866":-1.1864687204360962,"1867":-0.5985232591629028,"1868":1.498486042022705,"1869":-0.6294607520103455,"1870":-1.3315985202789307,"1871":0.8774793148040771,"1872":-0.6599499583244324,"1873":0.5190324187278748,"1874":-1.4058959484100342,"1875":-2.1136512756347656,"1876":0.35714077949523926,"1877":-0.8216356039047241,"1878":0.7138312458992004,"1879":-0.43090108036994934,"1880":-1.9037214517593384,"1881":1.5188454389572144,"1882":-1.0943092107772827,"1883":-0.41214820742607117,"1884":1.619708776473999,"1885":-0.5497272610664368,"1886":-0.0011693596607074142,"1887":-0.10260863602161407,"1888":-0.2569601535797119,"1889":-3.514681816101074,"1890":-0.8948935866355896,"1891":1.3577851057052612,"1892":-0.8919461369514465,"1893":-1.403847098350525,"1894":-2.3710415363311768,"1895":1.4379057884216309,"1896":3.73073410987854,"1897":-1.3892312049865723,"1898":0.8977105021476746,"1899":-2.0218727588653564,"1900":-0.4123466908931732,"1901":0.3189820349216461,"1902":0.8193342089653015,"1903":1.722770094871521,"1904":1.8987782001495361,"1905":0.3838269114494324,"1906":0.6529591083526611,"1907":2.6758413314819336,"1908":1.6456921100616455,"1909":0.9882387518882751,"1910":1.3853163719177246,"1911":-2.6950833797454834,"1912":0.22736342251300812,"1913":-4.175049304962158,"1914":-1.3961440324783325,"1915":-0.22444753348827362,"1916":0.6075823307037354,"1917":-0.5980349183082581,"1918":2.234891891479492,"1919":-0.5467892289161682,"1920":0.5549258589744568,"1921":-1.580376386642456,"1922":1.544174075126648,"1923":-1.2011163234710693,"1924":-0.32466796040534973,"1925":-1.7340718507766724,"1926":-1.0055867433547974,"1927":-0.4458891749382019,"1928":1.5638859272003174,"1929":-0.45771294832229614,"1930":0.2512562572956085,"1931":-2.0951855182647705,"1932":-2.744713306427002,"1933":1.0449821949005127,"1934":-0.27872514724731445,"1935":-0.5639927387237549,"1936":-0.29793596267700195,"1937":1.5750113725662231,"1938":0.7586764693260193,"1939":1.2969396114349365,"1940":0.8676104545593262,"1941":0.11241629719734192,"1942":-0.15625254809856415,"1943":1.7475543022155762,"1944":3.438184976577759,"1945":-0.8576510548591614,"1946":-1.255881428718567,"1947":3.067777156829834,"1948":-1.7415837049484253,"1949":-0.3908107280731201,"1950":1.5900710821151733,"1951":1.9931570291519165,"1952":1.617997407913208,"1953":6.165188789367676,"1954":0.8433438539505005,"1955":1.729148268699646,"1956":2.867126226425171,"1957":0.11101099103689194,"1958":-1.9850603342056274,"1959":-0.5816556215286255,"1960":-1.3757190704345703,"1961":-3.990324020385742,"1962":1.2664077281951904,"1963":-6.272831916809082,"1964":1.387794852256775,"1965":-2.628227472305298,"1966":3.0734810829162598,"1967":-0.7242400050163269,"1968":-0.3170308470726013,"1969":1.2869844436645508,"1970":2.385011911392212,"1971":0.5133090019226074,"1972":2.811821222305298,"1973":0.2802653908729553,"1974":-4.126543045043945,"1975":-1.8022871017456055,"1976":2.0107619762420654,"1977":2.592327356338501,"1978":1.542543649673462,"1979":-2.4084959030151367,"1980":-1.6906712055206299,"1981":-1.1532065868377686,"1982":0.3866427540779114,"1983":-0.14924311637878418,"1984":-1.9474114179611206,"1985":0.2034345269203186,"1986":4.7581281661987305,"1987":3.061218500137329,"1988":-0.6620649099349976,"1989":1.7711615562438965,"1990":3.162447452545166,"1991":-0.7282743453979492,"1992":-3.672206163406372,"1993":2.956399917602539,"1994":-1.6239672899246216,"1995":-0.9785327315330505,"1996":-1.7552967071533203,"1997":-0.9855203032493591,"1998":1.0782418251037598,"1999":2.3837883472442627,"2000":-6.533321380615234,"2001":-3.0345630645751953,"2002":-2.2823052406311035,"2003":3.442612409591675,"2004":2.7842206954956055,"2005":3.1416170597076416,"2006":-0.7320004105567932,"2007":3.773115873336792,"2008":-0.6739160418510437,"2009":-0.03568895161151886,"2010":3.6531481742858887,"2011":1.5363410711288452,"2012":-2.40301513671875,"2013":0.7229819297790527,"2014":-1.572819471359253,"2015":-1.7407220602035522,"2016":-0.07955114543437958,"2017":0.9250258207321167,"2018":-0.5015395879745483,"2019":-0.7122794985771179,"2020":1.7474709749221802,"2021":-2.176805019378662,"2022":-2.664891481399536,"2023":6.9651198387146,"2024":-1.1398319005966187,"2025":-1.8573498725891113,"2026":0.9655547142028809,"2027":3.955310583114624,"2028":3.6903834342956543,"2029":0.597308874130249,"2030":-1.3337701559066772,"2031":-2.6008317470550537,"2032":0.5680580735206604,"2033":0.09746580570936203,"2034":-0.48023441433906555,"2035":2.211064577102661,"2036":1.3863153457641602,"2037":-2.440614700317383,"2038":3.2214596271514893,"2039":-4.039971351623535,"2040":-0.5594906806945801,"2041":2.4508824348449707,"2042":0.019161298871040344,"2043":-2.2411258220672607,"2044":-1.9641554355621338,"2045":-1.7412437200546265,"2046":2.176377296447754,"2047":0.3015567362308502,"2048":-1.7387927770614624,"2049":-0.3503169119358063,"2050":-3.7011773586273193,"2051":0.20967504382133484,"2052":1.3500498533248901,"2053":-1.855343222618103,"2054":-1.7723584175109863,"2055":-2.6175007820129395,"2056":0.13724300265312195,"2057":0.1820673644542694,"2058":1.4051405191421509,"2059":0.43137696385383606,"2060":1.585371494293213,"2061":-1.8360120058059692,"2062":-2.289210319519043,"2063":-2.725036382675171,"2064":0.21202100813388824,"2065":1.4408007860183716,"2066":-0.9212761521339417,"2067":2.374560594558716,"2068":-0.7311933040618896,"2069":0.31791478395462036,"2070":0.3601927161216736,"2071":0.6664291620254517,"2072":-0.6852605938911438,"2073":0.7992489337921143,"2074":-1.3836711645126343,"2075":-2.1787827014923096,"2076":3.168989896774292,"2077":-0.49677273631095886,"2078":-0.7572218775749207,"2079":-0.951745331287384,"2080":-0.3007581830024719,"2081":-0.3572116792201996,"2082":2.22475266456604,"2083":-0.5908361673355103,"2084":-0.3022732734680176,"2085":0.6099229454994202,"2086":1.8614422082901,"2087":-1.5892390012741089,"2088":2.6006669998168945,"2089":-0.533972442150116,"2090":3.1235811710357666,"2091":-2.4380173683166504,"2092":2.0948326587677,"2093":1.2480411529541016,"2094":-0.5483394861221313,"2095":0.5138067007064819,"2096":0.7438951730728149,"2097":-1.2075668573379517,"2098":-1.383184790611267,"2099":-0.7385647296905518,"2100":0.85738605260849,"2101":-1.1382074356079102,"2102":1.5881280899047852,"2103":2.5724270343780518,"2104":-2.9988152980804443,"2105":0.09620518982410431,"2106":-0.004369443282485008,"2107":1.4882309436798096,"2108":0.29353341460227966,"2109":-1.3349950313568115,"2110":-1.1492726802825928,"2111":0.21839971840381622,"2112":0.22609549760818481,"2113":-1.154805064201355,"2114":-0.2282560020685196,"2115":-1.5703319311141968,"2116":-1.9414286613464355,"2117":-0.6514026522636414,"2118":2.1721384525299072,"2119":0.4357095956802368,"2120":-1.9222019910812378,"2121":-0.9186265468597412,"2122":-0.3912644386291504,"2123":0.49203962087631226,"2124":-1.668274164199829,"2125":-0.5370591282844543,"2126":-0.6783936619758606,"2127":-1.1919822692871094,"2128":-1.6178921461105347,"2129":1.7367922067642212,"2130":0.5407338738441467,"2131":3.365187644958496,"2132":-1.7369060516357422,"2133":0.10047286003828049,"2134":-0.09942396730184555,"2135":-0.9388560056686401,"2136":-1.4735482931137085,"2137":-1.6005672216415405,"2138":1.87065589427948,"2139":1.0399705171585083,"2140":-1.3280155658721924,"2141":-2.709195852279663,"2142":-3.1947579383850098,"2143":2.769171714782715,"2144":-3.7259323596954346,"2145":-1.3741432428359985,"2146":-1.1322340965270996,"2147":-0.34367620944976807,"2148":-0.875031054019928,"2149":-1.9704458713531494,"2150":2.3211357593536377,"2151":-0.69310462474823,"2152":1.4252625703811646,"2153":4.062111854553223,"2154":-0.6783958673477173,"2155":1.1560239791870117,"2156":-0.8882092237472534,"2157":1.2395470142364502,"2158":1.4852954149246216,"2159":2.0606184005737305,"2160":1.198711633682251,"2161":-0.6627594232559204,"2162":-0.21026359498500824,"2163":0.5611729025840759,"2164":2.557119846343994,"2165":-0.3934345841407776,"2166":-0.801407516002655,"2167":1.4994820356369019,"2168":0.6499262452125549,"2169":0.32511311769485474,"2170":0.798004150390625,"2171":1.5704965591430664,"2172":-0.0941971018910408,"2173":-1.8484692573547363,"2174":0.07867186516523361,"2175":-0.6471389532089233,"2176":-0.00878092274069786,"2177":1.832196831703186,"2178":-2.5142574310302734,"2179":-0.03718412294983864,"2180":-1.4433598518371582,"2181":-0.4972229599952698,"2182":-0.22705642879009247,"2183":1.346959114074707,"2184":1.0523738861083984,"2185":-1.3670382499694824,"2186":-1.1815168857574463,"2187":3.431704044342041,"2188":-1.4530962705612183,"2189":-2.9955246448516846,"2190":0.7920365333557129,"2191":-0.987610399723053,"2192":-1.564914345741272,"2193":1.92684805393219,"2194":0.7348583340644836,"2195":0.2872878909111023,"2196":-0.7396454215049744,"2197":-1.5463117361068726,"2198":-1.0232961177825928,"2199":-2.2184629440307617,"2200":-0.1719256341457367,"2201":-0.13044990599155426,"2202":0.965448260307312,"2203":1.3440688848495483,"2204":-0.9147138595581055,"2205":-1.8746628761291504,"2206":0.42358294129371643,"2207":-0.5824759602546692,"2208":-1.6378883123397827,"2209":-1.812940001487732,"2210":5.461187839508057,"2211":0.31827160716056824,"2212":-6.0804901123046875,"2213":-0.08373911678791046,"2214":3.744812250137329,"2215":-1.1886125802993774,"2216":-4.524130821228027,"2217":-1.3147940635681152,"2218":2.8810224533081055,"2219":-1.259157657623291,"2220":4.100041389465332,"2221":2.944611072540283,"2222":2.670607805252075,"2223":-1.0809417963027954,"2224":-2.8512184619903564,"2225":-1.2178961038589478,"2226":-3.709195852279663,"2227":6.284204006195068,"2228":3.5070178508758545,"2229":-9.236932754516602,"2230":3.3127143383026123,"2231":5.370471477508545,"2232":-2.1120502948760986,"2233":-5.819356441497803,"2234":5.043410301208496,"2235":-0.5901167988777161,"2236":7.172673225402832,"2237":-6.163424968719482,"2238":-2.7431533336639404,"2239":-0.1955488622188568,"2240":1.7993992567062378,"2241":2.967130661010742,"2242":2.6703133583068848,"2243":5.6817450523376465,"2244":4.713375568389893,"2245":2.659284830093384,"2246":-0.016721829771995544,"2247":-1.1053102016448975,"2248":-7.872049808502197,"2249":-2.156238079071045,"2250":-1.6889041662216187,"2251":5.613168239593506,"2252":-5.5242791175842285,"2253":3.1660797595977783,"2254":10.017706871032715,"2255":9.593395233154297,"2256":5.75952672958374,"2257":0.5085205435752869,"2258":4.852261543273926,"2259":2.7926414012908936,"2260":-6.9548234939575195,"2261":0.008526233956217766,"2262":1.859663963317871,"2263":-6.709985256195068,"2264":0.8583695888519287,"2265":-4.2903923988342285,"2266":-3.640866994857788,"2267":-4.020859241485596,"2268":-2.782021999359131,"2269":1.3759846687316895,"2270":2.6030328273773193,"2271":-11.082550048828125,"2272":0.5559015870094299,"2273":9.336226463317871,"2274":-3.208510160446167,"2275":-1.278381586074829,"2276":-3.938591957092285,"2277":-2.889444589614868,"2278":-0.3004576563835144,"2279":1.5483227968215942,"2280":3.056368350982666,"2281":-4.385675430297852,"2282":3.7817423343658447,"2283":7.34184455871582,"2284":-2.632399082183838,"2285":1.803078055381775,"2286":2.8229737281799316,"2287":-1.686779260635376,"2288":-5.308375358581543,"2289":3.2316079139709473,"2290":3.539785385131836,"2291":-1.3289294242858887,"2292":1.5789904594421387,"2293":0.6442959904670715,"2294":-2.715808868408203,"2295":1.8214308023452759,"2296":-4.675415515899658,"2297":-4.05733585357666,"2298":-0.9271547198295593,"2299":-4.767895221710205,"2300":-2.319873571395874,"2301":-0.08891405165195465,"2302":1.411289930343628,"2303":2.8960139751434326,"2304":1.3569387197494507,"2305":-4.082328796386719,"2306":-1.205863118171692,"2307":3.7342493534088135,"2308":1.8397581577301025,"2309":-0.20226897299289703,"2310":-4.970824718475342,"2311":5.123669624328613,"2312":-3.270814895629883,"2313":-1.4354833364486694,"2314":-0.6823810935020447,"2315":0.9458861351013184,"2316":1.7421222925186157,"2317":1.3696177005767822,"2318":-2.78311824798584,"2319":3.408378839492798,"2320":0.4678002595901489,"2321":-3.7749991416931152,"2322":-0.321399062871933,"2323":-2.818178415298462,"2324":3.7212460041046143,"2325":2.598215103149414,"2326":-1.8131548166275024,"2327":-2.277947187423706,"2328":0.04601367190480232,"2329":0.9596530795097351,"2330":5.47323751449585,"2331":-0.7336742281913757,"2332":4.496114253997803,"2333":-0.13906410336494446,"2334":-5.190199851989746,"2335":-2.6425321102142334,"2336":2.28266978263855,"2337":-1.0118829011917114,"2338":-3.0018372535705566,"2339":1.9704238176345825,"2340":-1.722819209098816,"2341":-0.24114544689655304,"2342":1.7691646814346313,"2343":-2.34580659866333,"2344":2.536003828048706,"2345":1.4059971570968628,"2346":0.26246488094329834,"2347":-0.5363625288009644,"2348":0.9549944400787354,"2349":-0.6408274173736572,"2350":0.10631804168224335,"2351":1.7379311323165894,"2352":-0.47214922308921814,"2353":4.388273239135742,"2354":-0.26867347955703735,"2355":2.655888319015503,"2356":-1.891315221786499,"2357":-2.258700370788574,"2358":-2.8546080589294434,"2359":0.13622598350048065,"2360":-1.800832748413086,"2361":1.946756362915039,"2362":4.026864051818848,"2363":1.8680832386016846,"2364":-1.662339687347412,"2365":3.074908494949341,"2366":-2.560652256011963,"2367":-3.5019125938415527,"2368":-0.6843705177307129,"2369":-0.802838921546936,"2370":1.9556325674057007,"2371":0.6108449697494507,"2372":-0.35507094860076904,"2373":1.2648100852966309,"2374":-1.8771510124206543,"2375":-1.061159372329712,"2376":3.338073492050171,"2377":0.764117419719696,"2378":3.0967018604278564,"2379":-0.007929429411888123,"2380":-1.313704490661621,"2381":0.6519899964332581,"2382":0.7798773646354675,"2383":-0.17428916692733765,"2384":0.2680359482765198,"2385":2.073286771774292,"2386":-0.3127601444721222,"2387":-1.2448848485946655,"2388":-2.570554733276367,"2389":0.1900402158498764,"2390":-2.6491456031799316,"2391":2.98384428024292,"2392":1.578588843345642,"2393":0.5254287719726562,"2394":-2.250493049621582,"2395":1.0965664386749268,"2396":1.384329915046692,"2397":-3.2545907497406006,"2398":-1.902804970741272,"2399":1.0086002349853516,"2400":-1.8053878545761108,"2401":1.0927298069000244,"2402":-2.1138088703155518,"2403":1.7749651670455933,"2404":-3.4352951049804688,"2405":0.06854546815156937,"2406":-0.07609041035175323,"2407":0.016026053577661514,"2408":-0.031185636296868324,"2409":-0.05435377359390259,"2410":-0.04191219434142113,"2411":0.03038140945136547,"2412":0.003452252596616745,"2413":0.0751180350780487,"2414":-0.06868515908718109,"2415":-0.07157877832651138,"2416":0.0042043826542794704,"2417":0.020809810608625412,"2418":0.04584068804979324,"2419":-0.06491079181432724,"2420":-0.018128471449017525,"2421":0.0060332538560032845,"2422":0.04590941593050957,"2423":0.025696448981761932,"2424":0.01988869346678257,"2425":-0.044605448842048645,"2426":-0.06109871715307236,"2427":-0.042195796966552734,"2428":0.00475526787340641,"2429":-0.05347336083650589,"2430":-0.01088444609194994,"2431":0.0763622373342514,"2432":-0.05915197357535362,"2433":0.05989432334899902,"2434":-0.07548505067825317,"2435":-0.035760264843702316,"2436":-0.062320709228515625,"2437":-0.05873141810297966,"2438":0.07137782126665115,"2439":-0.02786550112068653,"2440":0.006954076699912548,"2441":-0.029788993299007416,"2442":0.04306643456220627,"2443":0.06075974553823471,"2444":0.012737737037241459,"2445":0.05844953656196594,"2446":-0.025569509714841843,"2447":0.01162223145365715,"2448":0.0030840104445815086,"2449":-0.05771314725279808,"2450":0.07121357321739197,"2451":0.014758857898414135,"2452":-0.06413102895021439,"2453":0.006414374336600304,"2454":0.04257192462682724,"2455":-0.057824332267045975,"2456":-0.012907660566270351,"2457":-0.013123946264386177,"2458":-0.018286652863025665,"2459":0.03305025398731232,"2460":-0.07282105088233948,"2461":0.039811357855796814,"2462":-0.07191107422113419,"2463":-0.05287817493081093,"2464":0.07396639883518219,"2465":0.030075589194893837,"2466":0.034547243267297745,"2467":-0.05782905966043472,"2468":0.0061902329325675964,"2469":-0.05585508048534393,"2470":4.921844005584717,"2471":3.51961612701416,"2472":1.0274670124053955,"2473":5.759856224060059,"2474":10.41982364654541,"2475":-5.385061264038086,"2476":2.3887932300567627,"2477":-0.651804506778717,"2478":-4.4059672355651855,"2479":9.690899848937988,"2480":-4.826663494110107,"2481":-4.032390594482422,"2482":-1.15164315700531,"2483":-4.646373271942139,"2484":1.927743911743164,"2485":-6.58969783782959,"2486":-6.337522029876709,"2487":-1.516703724861145,"2488":-4.806076526641846,"2489":2.744380474090576,"2490":-3.6988840103149414,"2491":-2.5685980319976807,"2492":2.3511345386505127,"2493":-1.5034849643707275,"2494":-1.652403473854065,"2495":5.037752151489258,"2496":-0.9236209392547607,"2497":2.158811569213867,"2498":0.8163543343544006,"2499":5.712244033813477,"2500":-5.69331693649292,"2501":2.4215009212493896,"2502":0.4113439917564392,"2503":-4.286776065826416,"2504":5.659739017486572,"2505":7.045836448669434,"2506":-3.5205798149108887,"2507":3.7329351902008057,"2508":-2.716392993927002,"2509":8.666661262512207,"2510":-4.788842678070068,"2511":-2.557375192642212,"2512":-0.7699192762374878,"2513":-5.198964595794678,"2514":4.151108264923096,"2515":8.633309364318848,"2516":-0.2722901701927185,"2517":1.3777776956558228,"2518":-0.46872958540916443,"2519":-6.2223310470581055,"2520":4.010587215423584,"2521":-1.4867061376571655,"2522":6.472766399383545,"2523":6.819753170013428,"2524":1.9090560674667358,"2525":-3.516357898712158,"2526":-3.831819534301758,"2527":3.3686130046844482,"2528":2.3161768913269043,"2529":8.179766654968262,"2530":1.4406062364578247,"2531":4.868497371673584,"2532":-3.2259795665740967,"2533":-1.4165595769882202,"2534":3.0215275287628174,"2535":-0.011070284061133862,"2536":0.009379245340824127,"2537":-0.07533930242061615,"2538":0.06356748938560486,"2539":0.03882545977830887,"2540":0.03209645301103592,"2541":0.03727036714553833,"2542":-0.052886635065078735,"2543":-0.007656514644622803,"2544":0.047570500522851944,"2545":0.055864449590444565,"2546":0.029278138652443886,"2547":-0.044785670936107635,"2548":0.04094216227531433,"2549":0.06045078858733177,"2550":-0.03119511902332306,"2551":-0.0459846593439579,"2552":-0.03145034238696098,"2553":0.0387544110417366,"2554":0.040528226643800735,"2555":-0.0732826367020607,"2556":-0.04052646458148956,"2557":-0.04567371681332588,"2558":0.06811615824699402,"2559":-0.06842102855443954,"2560":-0.03514675423502922,"2561":-0.04137628898024559,"2562":-0.011628360487520695,"2563":0.06945876032114029,"2564":-0.034805454313755035,"2565":0.04929670691490173,"2566":0.0287429578602314,"2567":0.022709213197231293,"2568":0.0535135380923748,"2569":-0.06446930021047592,"2570":-0.04042709618806839,"2571":0.05250445380806923,"2572":-0.0725659728050232,"2573":-0.06678316742181778,"2574":-0.01779499091207981,"2575":0.04079835116863251,"2576":0.00683553097769618,"2577":-0.013420800678431988,"2578":0.044216811656951904,"2579":-0.031619250774383545,"2580":-0.017689460888504982,"2581":0.06476681679487228,"2582":-0.02357446774840355,"2583":0.04103901982307434,"2584":-0.02855519950389862,"2585":0.038070566952228546,"2586":0.06935315579175949,"2587":-0.027815407142043114,"2588":0.031579066067934036,"2589":-0.0604376420378685,"2590":-0.0732911080121994,"2591":-0.018530910834670067,"2592":-0.041926927864551544,"2593":0.001958092674612999,"2594":0.01286732591688633,"2595":0.0691361054778099,"2596":0.005583176854997873,"2597":0.069729283452034,"2598":-0.062212757766246796,"2599":0.017485545948147774,"2600":-4.634678363800049,"2601":0.770277202129364,"2602":-1.3914175033569336,"2603":-2.157235622406006,"2604":2.315751791000366,"2605":0.16501757502555847,"2606":0.5360122323036194,"2607":3.262835741043091,"2608":5.383624076843262,"2609":-1.9163521528244019,"2610":-0.23695340752601624,"2611":-0.6399951577186584,"2612":5.257827281951904,"2613":3.027216911315918,"2614":3.1878912448883057,"2615":0.2760298550128937,"2616":1.8761340379714966,"2617":-0.9917536973953247,"2618":-6.353850364685059,"2619":7.093815326690674,"2620":2.322258949279785,"2621":10.100733757019043,"2622":2.9298925399780273,"2623":-9.445093154907227,"2624":3.7115678787231445,"2625":4.505371570587158,"2626":1.4717670679092407,"2627":-1.7939884662628174,"2628":-1.4069302082061768,"2629":-3.636824131011963,"2630":-2.9428229331970215,"2631":-0.38168835639953613,"2632":-1.7265986204147339,"2633":1.3608068227767944,"2634":-0.7597200870513916,"2635":-0.5472443103790283,"2636":3.8189549446105957,"2637":2.382124185562134,"2638":5.110002517700195,"2639":-1.4093281030654907,"2640":-1.152869462966919,"2641":4.669424057006836,"2642":6.806158065795898,"2643":-5.847991943359375,"2644":-1.2606823444366455,"2645":2.525995969772339,"2646":-3.4429399967193604,"2647":2.1573405265808105,"2648":4.608978271484375,"2649":-0.9124438762664795,"2650":-5.371095657348633,"2651":3.000748872756958,"2652":-8.697905540466309,"2653":1.973052978515625,"2654":2.8239173889160156,"2655":0.4683738350868225,"2656":-2.0572640895843506,"2657":4.3348493576049805,"2658":-11.370267868041992,"2659":2.2850918769836426,"2660":-1.336915373802185,"2661":2.285093069076538,"2662":-1.0864120721817017,"2663":0.479912132024765,"2664":-2.055633306503296,"2665":3.512995958328247,"2666":-1.2247815132141113,"2667":-7.631345748901367,"2668":-7.142386436462402,"2669":-1.984136700630188,"2670":-0.39853477478027344,"2671":-1.26149320602417,"2672":-1.1404743194580078,"2673":-6.92605447769165,"2674":-7.107176303863525,"2675":1.647952914237976,"2676":-1.2770352363586426,"2677":-8.348523139953613,"2678":-2.260423183441162,"2679":-6.180881023406982,"2680":-6.637342929840088,"2681":-5.3151164054870605,"2682":-3.4382901191711426,"2683":4.426342010498047,"2684":0.23314878344535828,"2685":-5.329905033111572,"2686":-1.0973378419876099,"2687":2.978959560394287,"2688":-1.8307983875274658,"2689":-2.3203957080841064,"2690":1.95084810256958,"2691":1.2296723127365112,"2692":1.2144200801849365,"2693":-2.902672529220581,"2694":-0.8984006643295288,"2695":-3.0354578495025635,"2696":-2.9928975105285645,"2697":5.34356164932251,"2698":-1.2627564668655396,"2699":-2.5028834342956543,"2700":-4.6254563331604,"2701":0.39141032099723816,"2702":3.4678616523742676,"2703":3.7848987579345703,"2704":2.205841302871704,"2705":1.876263976097107,"2706":-1.4492686986923218,"2707":-2.156956672668457,"2708":-5.190001487731934,"2709":4.366198539733887,"2710":4.049426555633545,"2711":2.304532051086426,"2712":-0.7618511319160461,"2713":1.1986031532287598,"2714":-1.405679702758789,"2715":-3.1984872817993164,"2716":1.2046403884887695,"2717":-4.651159286499023,"2718":-0.12796692550182343,"2719":4.622905731201172,"2720":0.08472895622253418,"2721":-0.8592139482498169,"2722":5.032425880432129,"2723":5.506855010986328,"2724":0.1447611004114151,"2725":-3.806931734085083,"2726":1.5023648738861084,"2727":5.479150772094727,"2728":-0.007330003194510937,"2729":12.914671897888184,"2730":-3.274104356765747,"2731":-2.831679582595825,"2732":-1.786730170249939,"2733":-6.574222564697266,"2734":1.6185798645019531,"2735":-1.2101985216140747,"2736":0.9741427302360535,"2737":-4.6023335456848145,"2738":-3.1208410263061523,"2739":4.588492393493652,"2740":-2.9272098541259766,"2741":-9.021265029907227,"2742":-7.030114650726318,"2743":9.481768608093262,"2744":-4.26450777053833,"2745":7.3534064292907715,"2746":5.459648609161377,"2747":-2.8983030319213867,"2748":-1.5622798204421997,"2749":-0.7531337738037109,"2750":0.708251416683197,"2751":-7.125115871429443,"2752":5.9141316413879395,"2753":4.5559611320495605,"2754":-5.600459098815918,"2755":-2.6536238193511963,"2756":-2.219022750854492,"2757":-3.203350782394409,"2758":1.1388314962387085,"2759":-0.6965144872665405,"2760":10.740422248840332,"2761":5.971117973327637,"2762":4.636284828186035,"2763":-3.3489439487457275,"2764":1.2481619119644165,"2765":-2.8931264877319336,"2766":3.583466053009033,"2767":3.1017634868621826,"2768":-4.535174369812012,"2769":1.0696269273757935,"2770":-3.8409664630889893,"2771":0.1040886715054512,"2772":-2.724339246749878,"2773":2.39485502243042,"2774":7.897968292236328,"2775":9.085030555725098,"2776":3.214785575866699,"2777":-3.443415880203247,"2778":0.23385639488697052,"2779":1.324558138847351,"2780":4.9059553146362305,"2781":6.9576826095581055,"2782":4.548550128936768,"2783":-0.9211044311523438,"2784":-5.2151408195495605,"2785":-5.296375274658203,"2786":4.360001564025879,"2787":0.2176351100206375,"2788":3.7698843479156494,"2789":7.478268623352051,"2790":0.9762032628059387,"2791":5.4462080001831055,"2792":10.971559524536133,"2793":-9.070671081542969,"2794":0.2531569004058838,"2795":0.018801279366016388,"2796":0.03921409323811531,"2797":0.04792448505759239,"2798":-0.03665745630860329,"2799":-0.04365481808781624,"2800":0.005689714103937149,"2801":0.028371330350637436,"2802":-0.015116139315068722,"2803":-0.05324303358793259,"2804":-0.03912639617919922,"2805":-0.0017035329947248101,"2806":0.04023434966802597,"2807":-0.023172566667199135,"2808":-0.04711782932281494,"2809":0.042054761201143265,"2810":0.05602186918258667,"2811":0.06544665992259979,"2812":-0.024017298594117165,"2813":-0.03145095705986023,"2814":0.04748376086354256,"2815":0.059216734021902084,"2816":0.05556302145123482,"2817":-0.07172626256942749,"2818":0.05182504653930664,"2819":-0.024194560945034027,"2820":-0.05288998782634735,"2821":0.04848911240696907,"2822":-0.044725168496370316,"2823":-0.03163860738277435,"2824":-0.04675912484526634,"2825":-0.0716162696480751,"2826":0.032168492674827576,"2827":0.042473286390304565,"2828":-0.041788145899772644,"2829":0.07291895151138306,"2830":-0.07149739563465118,"2831":-0.041467852890491486,"2832":0.001015138579532504,"2833":0.06154027208685875,"2834":0.021935435011982918,"2835":0.014569852501153946,"2836":0.05745445564389229,"2837":0.019246967509388924,"2838":-0.012662815861403942,"2839":0.0731441006064415,"2840":0.004634384531527758,"2841":-0.039704833179712296,"2842":-0.0018007260514423251,"2843":0.0040641603991389275,"2844":-0.037014007568359375,"2845":0.0206898245960474,"2846":0.004907936789095402,"2847":-0.07431714236736298,"2848":0.017254531383514404,"2849":-0.06800510734319687,"2850":-0.021435974165797234,"2851":0.02066325955092907,"2852":-0.023196997120976448,"2853":-0.0075501264072954655,"2854":-0.03518419340252876,"2855":-0.07063201814889908,"2856":0.0030738706700503826,"2857":0.03092595934867859,"2858":-0.06203300133347511,"2859":0.022419529035687447,"2860":0.21244290471076965,"2861":-3.9400017261505127,"2862":-3.549225091934204,"2863":0.5816657543182373,"2864":-2.7561120986938477,"2865":3.8594181537628174,"2866":-6.522550106048584,"2867":-5.075543403625488,"2868":-3.5526793003082275,"2869":-0.9859795570373535,"2870":-0.9340255856513977,"2871":3.336977243423462,"2872":6.741605281829834,"2873":-1.5747395753860474,"2874":-0.7354661822319031,"2875":-1.1664321422576904,"2876":-1.4019100666046143,"2877":0.5499057769775391,"2878":10.807196617126465,"2879":2.2214221954345703,"2880":0.5629100799560547,"2881":-1.787603497505188,"2882":-0.8872359395027161,"2883":5.160939693450928,"2884":-1.5572800636291504,"2885":-10.254470825195312,"2886":0.04523126035928726,"2887":10.884108543395996,"2888":-3.076714515686035,"2889":-1.5181670188903809,"2890":-5.996149063110352,"2891":-2.457481861114502,"2892":6.2231950759887695,"2893":0.2449897676706314,"2894":-2.2783260345458984,"2895":-4.1306681632995605,"2896":-6.073583126068115,"2897":-7.191864013671875,"2898":0.215473473072052,"2899":-8.250821113586426,"2900":-3.3389766216278076,"2901":-5.903299808502197,"2902":-2.844566822052002,"2903":-2.037372589111328,"2904":-2.5446689128875732,"2905":4.230253219604492,"2906":-5.119594573974609,"2907":-5.180804252624512,"2908":-7.998541831970215,"2909":-5.207752704620361,"2910":12.138091087341309,"2911":-1.4590749740600586,"2912":-5.265284061431885,"2913":-5.980930805206299,"2914":-3.8696422576904297,"2915":1.501251459121704,"2916":3.446882724761963,"2917":-2.773170232772827,"2918":2.3365931510925293,"2919":4.377365589141846,"2920":-2.3284380435943604,"2921":-0.10017859190702438,"2922":-0.10406123846769333,"2923":1.0551193952560425,"2924":0.44721880555152893,"2925":-2.588224172592163,"2926":0.9926773309707642,"2927":2.685880422592163,"2928":-1.9221574068069458,"2929":3.3536312580108643,"2930":3.571497678756714,"2931":-5.2699666023254395,"2932":2.226161479949951,"2933":4.626513481140137,"2934":2.070815086364746,"2935":-2.278301239013672,"2936":1.6745132207870483,"2937":-3.402611017227173,"2938":5.829504013061523,"2939":2.9174013137817383,"2940":2.596442222595215,"2941":7.644644260406494,"2942":-0.5723234415054321,"2943":-4.021549224853516,"2944":1.2302905321121216,"2945":0.1885417252779007,"2946":1.3439617156982422,"2947":1.6609394550323486,"2948":1.9333940744400024,"2949":-0.5704249143600464,"2950":-1.2388842105865479,"2951":-5.299684047698975,"2952":3.679002046585083,"2953":-0.06786242872476578,"2954":-2.401951313018799,"2955":0.9272018074989319,"2956":-2.2051117420196533,"2957":-0.9739635586738586,"2958":-1.3198052644729614,"2959":-2.259122848510742,"2960":0.079799123108387,"2961":-0.15005730092525482,"2962":-1.6723241806030273,"2963":4.358267307281494,"2964":-4.076492786407471,"2965":-3.1609458923339844,"2966":-1.393682599067688,"2967":-1.2336410284042358,"2968":0.8639103174209595,"2969":-1.7622621059417725,"2970":0.18855562806129456,"2971":-3.070490598678589,"2972":-1.2635409832000732,"2973":2.760148763656616,"2974":-4.893127918243408,"2975":1.4819426536560059,"2976":-0.7517667412757874,"2977":0.1558760553598404,"2978":-0.3734188973903656,"2979":-0.5071877241134644,"2980":-3.399127960205078,"2981":4.545426368713379,"2982":3.407684326171875,"2983":-1.59091317653656,"2984":2.617187261581421,"2985":-2.0537502765655518,"2986":-1.4260520935058594,"2987":-3.781848669052124,"2988":-1.4310563802719116,"2989":1.2681230306625366,"2990":-0.013754462823271751,"2991":-0.05902783200144768,"2992":-0.07703983038663864,"2993":0.04690801724791527,"2994":-0.06067309528589249,"2995":-0.03964928165078163,"2996":-0.07487661391496658,"2997":0.06347531825304031,"2998":0.04736018553376198,"2999":0.0036962267477065325,"3000":-0.061939820647239685,"3001":-0.0031656010542064905,"3002":0.03522071614861488,"3003":-0.018832264468073845,"3004":0.029201678931713104,"3005":0.006614260841161013,"3006":-0.008127651177346706,"3007":0.015276754274964333,"3008":0.009626569226384163,"3009":0.004267155658453703,"3010":-0.03730380907654762,"3011":-0.047078005969524384,"3012":0.04292408376932144,"3013":-0.00001976841849682387,"3014":-0.023720160126686096,"3015":-0.013398922979831696,"3016":0.03205568343400955,"3017":-0.0422423779964447,"3018":-0.07289879024028778,"3019":0.048989005386829376,"3020":0.07140679657459259,"3021":-0.019997622817754745,"3022":0.03559223189949989,"3023":0.026748070493340492,"3024":0.06218033283948898,"3025":0.005774021614342928,"3026":0.07018417865037918,"3027":0.0021427443716675043,"3028":0.025258054956793785,"3029":-0.06693085283041,"3030":0.019314512610435486,"3031":0.04661625996232033,"3032":0.026089897379279137,"3033":0.021402480080723763,"3034":-0.03779518976807594,"3035":0.027713637799024582,"3036":0.029766663908958435,"3037":-0.04948118329048157,"3038":-0.01922367326915264,"3039":0.010977506637573242,"3040":-0.0681513324379921,"3041":0.012482847087085247,"3042":0.034451622515916824,"3043":-0.003164983121678233,"3044":0.06277122348546982,"3045":-0.07173780351877213,"3046":-0.03651174157857895,"3047":-0.03954918310046196,"3048":0.07271231710910797,"3049":0.0045052035711705685,"3050":0.0391584187746048,"3051":-0.025426439940929413,"3052":-0.032212432473897934,"3053":-0.01774812489748001,"3054":0.052034635096788406,"3055":-2.5736210346221924,"3056":-2.1144964694976807,"3057":-1.472465991973877,"3058":-1.9967267513275146,"3059":1.225587010383606,"3060":2.9039223194122314,"3061":4.668870449066162,"3062":-3.6724541187286377,"3063":-5.939414978027344,"3064":5.401670455932617,"3065":-0.4206077754497528,"3066":-0.32120442390441895,"3067":-1.1663544178009033,"3068":-5.788840293884277,"3069":-0.076030433177948,"3070":-1.0151259899139404,"3071":6.050081253051758,"3072":-5.794039249420166,"3073":-3.497131824493408,"3074":-0.5244618058204651,"3075":1.3340840339660645,"3076":1.5308102369308472,"3077":0.5234338641166687,"3078":0.5010441541671753,"3079":-3.002371072769165,"3080":4.668766021728516,"3081":-6.312731742858887,"3082":4.065131187438965,"3083":4.3118672370910645,"3084":-2.5303378105163574,"3085":-6.738777160644531,"3086":1.1311324834823608,"3087":1.206301212310791,"3088":1.5600095987319946,"3089":-8.21370792388916,"3090":0.1457349956035614,"3091":5.8503875732421875,"3092":-1.435516595840454,"3093":5.220643997192383,"3094":3.7349002361297607,"3095":5.399138927459717,"3096":8.829081535339355,"3097":-2.7499868869781494,"3098":3.595078229904175,"3099":-3.4428305625915527,"3100":1.8990408182144165,"3101":0.6153221726417542,"3102":0.2539285719394684,"3103":2.2369918823242188,"3104":6.000389099121094,"3105":-0.26472705602645874,"3106":1.8997063636779785,"3107":-3.3302695751190186,"3108":-0.9041309356689453,"3109":-5.879962921142578,"3110":3.4523024559020996,"3111":-1.5982232093811035,"3112":8.987919807434082,"3113":-3.6841046810150146,"3114":-3.2372536659240723,"3115":-1.7083379030227661,"3116":1.329606294631958,"3117":-1.7578634023666382,"3118":2.6534345149993896,"3119":5.788400173187256,"3120":-0.805360734462738,"3121":-1.2987152338027954,"3122":1.4153119325637817,"3123":-1.1081054210662842,"3124":5.814093589782715,"3125":-0.6186666488647461,"3126":2.2883083820343018,"3127":2.287837266921997,"3128":-5.3358964920043945,"3129":4.486199378967285,"3130":-1.7544829845428467,"3131":-4.4533371925354,"3132":-1.7168054580688477,"3133":1.066179633140564,"3134":1.202945351600647,"3135":2.002093553543091,"3136":4.480253219604492,"3137":-2.9081838130950928,"3138":-7.511038780212402,"3139":-2.527143955230713,"3140":-1.44900381565094,"3141":-2.642051935195923,"3142":4.322024345397949,"3143":-3.1877341270446777,"3144":-3.2515928745269775,"3145":1.0165431499481201,"3146":-1.0293275117874146,"3147":-4.841228485107422,"3148":0.6600288152694702,"3149":-0.6871969699859619,"3150":1.2247422933578491,"3151":-0.46096354722976685,"3152":-0.172050341963768,"3153":-1.0655159950256348,"3154":4.238389492034912,"3155":0.9104517102241516,"3156":-1.201505184173584,"3157":2.183612823486328,"3158":-1.1894701719284058,"3159":1.3947921991348267,"3160":4.396356105804443,"3161":-0.3961942195892334,"3162":-0.6645315289497375,"3163":4.821051120758057,"3164":0.7145674824714661,"3165":5.533045291900635,"3166":1.9477964639663696,"3167":2.431475877761841,"3168":5.309415340423584,"3169":2.4648680686950684,"3170":-5.849973678588867,"3171":7.109691619873047,"3172":-0.6571907997131348,"3173":-1.2390486001968384,"3174":2.9844675064086914,"3175":-2.0696442127227783,"3176":-1.7571132183074951,"3177":-0.6679656505584717,"3178":-0.7516991496086121,"3179":5.006173610687256,"3180":-3.579958200454712,"3181":1.7761480808258057,"3182":-1.2265907526016235,"3183":-0.9245771169662476,"3184":-1.4744980335235596,"3185":-3.8471319675445557,"3186":-6.856556415557861,"3187":7.905163764953613,"3188":-10.752583503723145,"3189":-2.5707828998565674,"3190":10.450736045837402,"3191":-3.3404150009155273,"3192":-0.9467039704322815,"3193":1.0854830741882324,"3194":-1.4416663646697998,"3195":-13.726428985595703,"3196":1.900463581085205,"3197":5.3847856521606445,"3198":0.3408987820148468,"3199":-0.05947313457727432,"3200":-4.896949291229248,"3201":2.6186211109161377,"3202":10.67421817779541,"3203":-7.334065914154053,"3204":8.149538040161133,"3205":5.796235084533691,"3206":-18.299930572509766,"3207":4.694389820098877,"3208":4.405547618865967,"3209":-7.777383327484131,"3210":-0.4754336178302765,"3211":2.005046844482422,"3212":11.608468055725098,"3213":-3.032569169998169,"3214":-4.449486255645752,"3215":-8.234421730041504,"3216":-14.045392036437988,"3217":6.18397331237793,"3218":-1.0359959602355957,"3219":-4.06610107421875,"3220":-12.324304580688477,"3221":6.806426048278809,"3222":6.1609206199646,"3223":4.811212539672852,"3224":2.7437257766723633,"3225":1.234086036682129,"3226":-3.4965927600860596,"3227":11.459650993347168,"3228":7.969386577606201,"3229":-6.490653991699219,"3230":-5.580104827880859,"3231":-8.314871788024902,"3232":-1.0788590908050537,"3233":-3.6326451301574707,"3234":-4.912973880767822,"3235":5.158563613891602,"3236":-8.289651870727539,"3237":-8.448678016662598,"3238":0.03865065798163414,"3239":-6.807367324829102,"3240":9.409225463867188,"3241":8.014835357666016,"3242":20.888696670532227,"3243":0.27399498224258423,"3244":0.7742674946784973,"3245":-2.287339448928833,"3246":6.499353408813477,"3247":6.597283840179443,"3248":-9.66628360748291,"3249":7.1897454261779785,"3250":1.3534440994262695,"3251":6.303626537322998,"3252":1.2953741550445557,"3253":2.389995813369751,"3254":1.706045389175415,"3255":-2.0334055423736572,"3256":0.36724838614463806,"3257":-3.9814717769622803,"3258":-4.902013778686523,"3259":-3.4405746459960938,"3260":-0.12127863615751266,"3261":1.1745214462280273,"3262":-3.1453142166137695,"3263":-0.12374167144298553,"3264":0.16281786561012268,"3265":-0.8667306303977966,"3266":-2.1879279613494873,"3267":-1.6449710130691528,"3268":1.5009942054748535,"3269":-1.7156037092208862,"3270":-2.1003801822662354,"3271":5.0012125968933105,"3272":-1.141336441040039,"3273":0.10888004302978516,"3274":2.73636531829834,"3275":3.227893829345703,"3276":-0.7859989404678345,"3277":2.0917227268218994,"3278":-2.1555192470550537,"3279":-1.8996189832687378,"3280":-2.3186802864074707,"3281":3.4658725261688232,"3282":-0.24807031452655792,"3283":-1.0336430072784424,"3284":-0.6417129039764404,"3285":5.586339950561523,"3286":-1.2222129106521606,"3287":0.7824574708938599,"3288":-0.03439140319824219,"3289":2.4831831455230713,"3290":-0.6729607582092285,"3291":-2.714444875717163,"3292":-1.1919291019439697,"3293":-1.8977258205413818,"3294":5.796252727508545,"3295":7.032743453979492,"3296":3.7816531658172607,"3297":-1.0075156688690186,"3298":0.02854207530617714,"3299":-3.898837089538574,"3300":-1.963341474533081,"3301":-1.6731181144714355,"3302":1.0990303754806519,"3303":2.655933141708374,"3304":-2.6072800159454346,"3305":0.8922274708747864,"3306":-0.7770164012908936,"3307":-3.1734490394592285,"3308":3.9071197509765625,"3309":4.1204962730407715,"3310":3.5167596340179443,"3311":0.705417275428772,"3312":3.471820116043091,"3313":-0.5553029775619507,"3314":5.338832378387451,"3315":-4.604728698730469,"3316":1.3262356519699097,"3317":-1.2475197315216064,"3318":-4.543004035949707,"3319":7.125830173492432,"3320":2.106299638748169,"3321":-4.650496006011963,"3322":0.557920515537262,"3323":3.2048897743225098,"3324":-0.7691457867622375,"3325":0.7954787015914917,"3326":0.5324020385742188,"3327":-0.10741297900676727,"3328":7.196330547332764,"3329":-2.5239851474761963,"3330":7.85894250869751,"3331":-1.259392499923706,"3332":4.4544148445129395,"3333":0.46656671166419983,"3334":12.78768539428711,"3335":6.200195789337158,"3336":3.1023080348968506,"3337":3.6367266178131104,"3338":2.199509382247925,"3339":-6.369738578796387,"3340":7.991237163543701,"3341":-0.30559834837913513,"3342":5.404157638549805,"3343":1.864404320716858,"3344":-5.430859088897705,"3345":4.827078342437744,"3346":-3.574944496154785,"3347":-7.1584343910217285,"3348":1.787886619567871,"3349":3.6638598442077637,"3350":-2.639282464981079,"3351":1.0979069471359253,"3352":6.096155643463135,"3353":2.4618797302246094,"3354":-3.97483229637146,"3355":-5.934899806976318,"3356":-3.1134891510009766,"3357":-2.142954111099243,"3358":-1.4582780599594116,"3359":1.987231731414795,"3360":3.4068713188171387,"3361":1.2753700017929077,"3362":1.117068886756897,"3363":-6.351985931396484,"3364":0.7366364002227783,"3365":3.4387524127960205,"3366":2.404068946838379,"3367":-8.942015647888184,"3368":-3.0437228679656982,"3369":-3.1851141452789307,"3370":-8.21695613861084,"3371":-4.769996166229248,"3372":-9.340371131896973,"3373":-4.4405364990234375,"3374":-4.677718162536621,"3375":-0.4759330153465271,"3376":2.7349870204925537,"3377":-10.3326997756958,"3378":-8.42516040802002,"3379":-3.4190168380737305,"3380":-5.427647113800049,"3381":-3.7516677379608154,"3382":2.4613332748413086,"3383":-0.7439796924591064,"3384":-8.435131072998047,"3385":-1.3600152730941772,"3386":7.781444549560547,"3387":-3.856956958770752,"3388":-2.9291231632232666,"3389":3.0313687324523926,"3390":1.554960012435913,"3391":1.7034246921539307,"3392":-0.7995217442512512,"3393":3.1566593647003174,"3394":-3.2325639724731445,"3395":0.7208049893379211,"3396":-3.181680679321289,"3397":8.300607681274414,"3398":1.0247429609298706,"3399":1.529234766960144,"3400":-1.4668878316879272,"3401":-3.0210623741149902,"3402":4.094650745391846,"3403":-1.9362131357192993,"3404":-3.215965747833252,"3405":6.135277271270752,"3406":-6.516301155090332,"3407":-1.2795281410217285,"3408":-1.745173454284668,"3409":-1.4043623208999634,"3410":-2.4422261714935303,"3411":-1.8083550930023193,"3412":2.1451523303985596,"3413":5.039691925048828,"3414":4.9172515869140625,"3415":-0.5382534265518188,"3416":1.2355159521102905,"3417":-2.384564161300659,"3418":-2.7162978649139404,"3419":-3.9234120845794678,"3420":1.2005069255828857,"3421":-3.4319519996643066,"3422":-3.158477783203125,"3423":3.0230932235717773,"3424":-0.40608301758766174,"3425":0.1309417486190796,"3426":2.2613158226013184,"3427":3.995105743408203,"3428":1.2785248756408691,"3429":-2.906630754470825,"3430":-1.7941429615020752,"3431":10.255105018615723,"3432":0.7166870832443237,"3433":-2.6660101413726807,"3434":-4.660444259643555,"3435":-7.916863441467285,"3436":4.0634918212890625,"3437":1.510023593902588,"3438":-0.6286763548851013,"3439":5.759580612182617,"3440":2.2808361053466797,"3441":1.7863940000534058,"3442":0.05382001772522926,"3443":-0.11046885699033737,"3444":-7.632517337799072,"3445":3.1785030364990234,"3446":5.017946720123291,"3447":1.7253215312957764,"3448":1.072609782218933,"3449":-2.8091812133789062,"3450":2.4924795627593994,"3451":1.7073057889938354,"3452":8.234902381896973,"3453":6.963987350463867,"3454":-4.741149425506592,"3455":1.125278353691101,"3456":2.387941837310791,"3457":3.198547124862671,"3458":0.24790261685848236,"3459":-2.950989246368408,"3460":5.273710250854492,"3461":-5.602094650268555,"3462":-2.009999990463257,"3463":4.220584392547607,"3464":4.990849494934082,"3465":-1.4523780345916748,"3466":3.235581874847412,"3467":-1.131043553352356,"3468":3.8442726135253906,"3469":-1.3385088443756104,"3470":-8.840946197509766,"3471":2.2240304946899414,"3472":0.7602566480636597,"3473":1.119966983795166,"3474":-8.158757209777832,"3475":-1.0462664365768433,"3476":-7.236666202545166,"3477":-4.827341079711914,"3478":6.440625190734863,"3479":-1.1872003078460693,"3480":0.13009585440158844,"3481":-2.8137059211730957,"3482":-2.8321731090545654,"3483":-1.9569734334945679,"3484":5.42070198059082,"3485":-4.226385116577148,"3486":-7.940798759460449,"3487":-0.549164891242981,"3488":4.9784417152404785,"3489":-4.554182052612305,"3490":-1.2174036502838135,"3491":-0.2027479112148285,"3492":5.48275089263916,"3493":-6.498384475708008,"3494":-5.712034702301025,"3495":1.9388657808303833,"3496":1.929441213607788,"3497":-1.2700674533843994,"3498":4.779839038848877,"3499":-1.4798400402069092,"3500":-0.6944905519485474,"3501":10.243953704833984,"3502":-1.1369677782058716,"3503":5.551546096801758,"3504":0.08228947967290878,"3505":6.196328639984131,"3506":-0.7006351351737976,"3507":-0.3538016378879547,"3508":-5.003488063812256,"3509":-6.209711074829102,"3510":5.538025379180908,"3511":-1.9424386024475098,"3512":2.133084297180176,"3513":-3.7524290084838867,"3514":0.42840930819511414,"3515":-1.7790583372116089,"3516":-3.8874988555908203,"3517":2.7409021854400635,"3518":5.335230350494385,"3519":-5.966131210327148,"3520":6.731121063232422,"3521":-1.5621532201766968,"3522":0.6810141205787659,"3523":-0.6112316846847534,"3524":6.350140571594238,"3525":3.256887674331665,"3526":-0.5123876333236694,"3527":-0.6319453716278076,"3528":6.896495819091797,"3529":-2.2004189491271973,"3530":1.887340784072876,"3531":-1.1815848350524902,"3532":0.9359553456306458,"3533":0.139219269156456,"3534":-2.8831396102905273,"3535":-3.9049911499023438,"3536":2.2333414554595947,"3537":1.6742502450942993,"3538":2.7638344764709473,"3539":-3.679952621459961,"3540":-2.1949470043182373,"3541":-3.0940165519714355,"3542":-0.00896468386054039,"3543":0.0297881867736578,"3544":-6.07828950881958,"3545":-1.6099605560302734,"3546":1.3572924137115479,"3547":-0.32147789001464844,"3548":-0.042531806975603104,"3549":2.0414352416992188,"3550":0.23450927436351776,"3551":-0.44770869612693787,"3552":0.02395045943558216,"3553":3.1979076862335205,"3554":-0.5398797988891602,"3555":1.945268988609314,"3556":-2.3083786964416504,"3557":0.8537777066230774,"3558":-4.822865009307861,"3559":-4.773320198059082,"3560":-2.4088051319122314,"3561":-12.918054580688477,"3562":1.5177239179611206,"3563":-4.823894500732422,"3564":-2.401517152786255,"3565":2.8436100482940674,"3566":5.276012420654297,"3567":2.1412582397460938,"3568":2.3817367553710938,"3569":-6.7536749839782715,"3570":0.7588099837303162,"3571":-6.238993167877197,"3572":1.6214097738265991,"3573":-1.9891999959945679,"3574":2.781207323074341,"3575":0.37219899892807007,"3576":-0.9975795149803162,"3577":-4.080455303192139,"3578":-6.2108564376831055,"3579":3.219038963317871,"3580":-1.426017165184021,"3581":0.9499304890632629,"3582":0.5359137654304504,"3583":5.157914638519287,"3584":1.5427985191345215,"3585":-1.9521633386611938,"3586":0.9608976244926453,"3587":2.3590455055236816,"3588":-2.153527021408081,