{"type":"LSTM","options":{"inputSize":65,"inputRange":65,"hiddenSizes":[20,20],"outputSize":65,"learningRate":0.01,"decayRate":0.999,"smoothEps":1e-8,"regc":0.000001,"clipval":5,"json":null,"dataFormatter":{"indexTable":{"0":37,"1":53,"2":36,"8":58," ":0,"w":1,"h":2,"a":3,"t":4,"b":5,"o":6,"u":7,"C":8,"n":9,"s":10,"m":11,"e":12,"r":13,"i":14,"l":15,"g":16,"?":17,"I":18,"c":19,":":20,"'":21,"B":22,"y":23,"&":24,";":25,"f":26,"d":27,"k":28,"-":29,"p":30,".":31,"v":32,"U":33,"S":34,",":35,"!":38,"A":39,"M":40,"E":41,"J":42,"x":43,"T":44,"H":45,"Y":46,")":47,"K":48,"P":49,"R":50,"O":51,"L":52,"G":54,"q":55,"j":56,"z":57,"_":59,"N":60,"W":61,"stop-input":62,"start-output":63,"unrecognized":64},"characterTable":{"0":" ","1":"w","2":"h","3":"a","4":"t","5":"b","6":"o","7":"u","8":"C","9":"n","10":"s","11":"m","12":"e","13":"r","14":"i","15":"l","16":"g","17":"?","18":"I","19":"c","20":":","21":"'","22":"B","23":"y","24":"&","25":";","26":"f","27":"d","28":"k","29":"-","30":"p","31":".","32":"v","33":"U","34":"S","35":",","36":"2","37":"0","38":"!","39":"A","40":"M","41":"E","42":"J","43":"x","44":"T","45":"H","46":"Y","47":")","48":"K","49":"P","50":"R","51":"O","52":"L","53":"1","54":"G","55":"q","56":"j","57":"z","58":"8","59":"_","60":"N","61":"W","62":"stop-input","63":"start-output","64":"unrecognized"},"values":[" what about Consumerism as the new religion? I can see it now: 'Buying is the new tithe' ","&gt; not sure why I care if a story about some idiotic Italian magistrates It's strange that this kind of head-in-the-sand dismissal of the international picture has become associated with the right. It seems to really weaken their hand. I have read that there is a belief in the US gov decision making process along the lines that because the US is so powerful, they now create history and don't really have to worry about international concerns and historical precedents.","...from 2002!","An article on Micro Economics by Joel Spolsky","Can someone explain to me why this is important? That is, other than to impresss someone with how much you can drink, which means you are childish or have serious self image problems. ","Hard to believe, I know, but the linked article actually explains that! You should give it a read.","I agree with you. BUT things which don't feel like revelations can also be extremely important. After all, you can't be a great hacker if you keep wasting your time on errands :-) Keep writing, Paul.","I don't think work has to be bone-crushingly insightful to be valuable. It helps to have it written out so you can keep reading what you already know.","I've been doing this sort of filtering with PROCMAIL for over 10 years now. I guess the cool thing is that gmail allows you to create sorting rules based on this criteria, that is impossible with other 'free' email providors.","It wasn't posted here because we are all familiar with Paul Graham's site and have probably found it ourselves already. Always ready to answer a rhetorical question, at your service.","So now with reddit we even have a place to start a discussion with the author :)","Some people have been able to comment for longer than others ;-)","There is an interesting phenomenon occurring at reddit whereby the majority left-leaning denizens of the sight are slowly alienating the minority right-leaning ones like myself. The only question I have is why do I care? I'm not sure why I care if a story about some idiotic Italian magistrates gets voted up to the top of the 'hot' list, but I do. I'm starting to feel like I don't fit in here. Maybe you should change the name to 'blueit'.","Yepp, plus the idea ain't new at all. I know many people who have been using this approach for some 8 years now. Also, you don't need Gmail to sort your emails by address. Every decent email client on the planet will do that just as good. Lastly, this approach is only useful if you are actually fully determined to sueing those companies' arses. Otherwise, it's a complete waste of time. Bottom line: this article is rather useless.","actually, as a lifelong atheist, i think it might be a good idea to have an official state church in the USA. a single officially recognized, state funded, church denomination that was considered the 'default religion' for anybody who didn't choose to opt out of it and pick another - would have to cater to everyone, could not afford to discriminate or act too fundamentalist crazy. it would have to be a church for the whole people, and therefore couldn't make enemies of anybody, really. and because it'd be the largest religion by far, it -- with its necessary tolerance -- would become the standard for other denominations to be judged by. an association with the state would tame religion, i think. or, since this _is_ the USA we're talking about, maybe it would destroy the state. politics here have a way of being bass-ackwards a lot of the time.","entirely fair, if the site is solely intended to be a feed of the web. I thought, though, that reddit is also about rating well-known bits of the web, eg. Norvig's programming-in-10-years essay, and all of the other stuff of graham's, etc..","reddit is 'what's new online' not 'rate the web' So i for my part will demote anything old like this article.","you know, I like Paul Grahams stuff. I'm not one of these people who dislike him because he's successful or because he's popular. Interestingly he wrote an essay on Being Popular, but it was talking about quite the opposite. Now he's popular, does that cause problems? Anyway, I've decided to register with Reddit and post something, but only because I'm avoiding doing this particular piece of work ;) As I've said, I like Pauls work, BUT I just get the feeling that its waning - his earlier stuff was was a real 'wow' factor for me as it was exactly what I'd been thinking and mirrored what we were doing. What I read now is 'ok' but I don't send it to all my friends and print it to make my wife read it. Am I the only one who feels like this?"],"characters":[" ","w","h","a","t","b","o","u","C","n","s","m","e","r","i","l","g","?","I","c",":","'","B","y","&",";","f","d","k","-","p",".","v","U","S",",","2","0","!","A","M","E","J","x","T","H","Y",")","K","P","R","O","L","1","G","q","j","z","8","_","N","W","stop-input","start-output","unrecognized"]}},"input":{"rows":66,"columns":65,"weights":{"0":0.6000351905822754,"1":0.8370656371116638,"2":0.6349901556968689,"3":1.8373266458511353,"4":1.335365891456604,"5":1.0685535669326782,"6":-0.5098172426223755,"7":-0.692377507686615,"8":-1.6837396621704102,"9":0.15430215001106262,"10":-1.0518850088119507,"11":1.2159948348999023,"12":2.1869189739227295,"13":1.5337482690811157,"14":-2.74759578704834,"15":1.1290091276168823,"16":-1.7546111345291138,"17":-0.8792555332183838,"18":-0.08266369998455048,"19":-0.8821597099304199,"20":-0.517486572265625,"21":0.20996244251728058,"22":0.6711525917053223,"23":0.5430143475532532,"24":-0.4548417031764984,"25":1.0300240516662598,"26":-0.6634865403175354,"27":1.7423696517944336,"28":-0.21163703501224518,"29":1.7279255390167236,"30":-2.1769490242004395,"31":-1.119957447052002,"32":-3.68251371383667,"33":1.3322800397872925,"34":0.928339421749115,"35":0.13637472689151764,"36":3.9334557056427,"37":2.1545350551605225,"38":1.6611460447311401,"39":3.1628081798553467,"40":-1.9875799417495728,"41":-2.3330492973327637,"42":1.4037740230560303,"43":0.569557249546051,"44":-2.225390672683716,"45":2.2767512798309326,"46":-0.31434366106987,"47":0.26271918416023254,"48":-1.1929999589920044,"49":-0.5420515537261963,"50":-0.27221962809562683,"51":0.3456920385360718,"52":-0.24773122370243073,"53":-0.4528411626815796,"54":1.9870898723602295,"55":2.1266472339630127,"56":1.0872924327850342,"57":0.7620255351066589,"58":3.4780402183532715,"59":0.7527799010276794,"60":-0.7725228071212769,"61":-1.1123353242874146,"62":2.032040596008301,"63":-1.1761234998703003,"64":-1.8467401266098022,"65":-0.20169518887996674,"66":-0.1355210691690445,"67":1.0715827941894531,"68":0.6583994626998901,"69":1.9409306049346924,"70":0.26544392108917236,"71":1.1904412508010864,"72":0.05560053884983063,"73":-1.158104419708252,"74":-2.1672863960266113,"75":3.3133676052093506,"76":-2.3122589588165283,"77":0.4112248122692108,"78":0.5878733396530151,"79":1.1335126161575317,"80":2.2099685668945312,"81":2.592613935470581,"82":-2.6274189949035645,"83":0.6354043483734131,"84":-0.5206345319747925,"85":-0.8869802951812744,"86":-0.3822244703769684,"87":3.0846946239471436,"88":-0.9958573579788208,"89":-1.619976282119751,"90":2.509229898452759,"91":3.301257848739624,"92":-0.0006892902893014252,"93":-1.4637352228164673,"94":0.03123997338116169,"95":0.9712507724761963,"96":-1.9692798852920532,"97":-0.6738418936729431,"98":-3.151280403137207,"99":-2.39701247215271,"100":-2.2499234676361084,"101":-1.231782078742981,"102":0.09584783017635345,"103":0.03362894058227539,"104":-0.8797352313995361,"105":2.545693874359131,"106":1.474657654762268,"107":1.929760217666626,"108":2.782693386077881,"109":-3.4416723251342773,"110":-3.4731061458587646,"111":1.0688753128051758,"112":-1.7707805633544922,"113":0.24833668768405914,"114":1.0967580080032349,"115":2.1717498302459717,"116":-4.126458644866943,"117":-0.7844316959381104,"118":-0.5371743440628052,"119":-0.5656364560127258,"120":-1.878998041152954,"121":-0.959656834602356,"122":0.9136918783187866,"123":-3.8703863620758057,"124":0.3613266050815582,"125":-2.031796932220459,"126":2.4089224338531494,"127":-0.28508713841438293,"128":-3.7217719554901123,"129":-0.6240716576576233,"130":-1.0238548517227173,"131":-1.576317310333252,"132":1.895159125328064,"133":0.2695412039756775,"134":0.6517689228057861,"135":-0.4173552989959717,"136":0.6410504579544067,"137":1.5319796800613403,"138":1.393680453300476,"139":0.9371670484542847,"140":1.8864200115203857,"141":-1.8532657623291016,"142":0.8556445837020874,"143":0.13454611599445343,"144":0.47621849179267883,"145":-2.293916702270508,"146":-1.6663248538970947,"147":-1.1700137853622437,"148":1.5997247695922852,"149":0.4385451674461365,"150":0.6246600151062012,"151":-0.7506480813026428,"152":-3.5312225818634033,"153":-1.5796128511428833,"154":-2.6704940795898438,"155":2.826785087585449,"156":-2.5151166915893555,"157":4.074747085571289,"158":0.7899867296218872,"159":-1.0901187658309937,"160":2.2115139961242676,"161":3.148475408554077,"162":-0.2879771292209625,"163":-2.7650585174560547,"164":-0.8660144805908203,"165":-1.9886687994003296,"166":0.41949263215065,"167":-1.6473450660705566,"168":-0.41568711400032043,"169":-2.093677520751953,"170":-0.388175368309021,"171":2.929635763168335,"172":-1.232806921005249,"173":-1.919789433479309,"174":0.48499244451522827,"175":-1.4036668539047241,"176":-0.7082350850105286,"177":-0.847045361995697,"178":-0.3118516802787781,"179":-0.07611721754074097,"180":1.368269681930542,"181":1.9632208347320557,"182":1.0624146461486816,"183":0.9947205781936646,"184":1.4217323064804077,"185":1.3678864240646362,"186":-0.3958553075790405,"187":-0.3313506245613098,"188":-2.2795002460479736,"189":-0.7000405788421631,"190":2.131556987762451,"191":1.0088374614715576,"192":-2.4857845306396484,"193":-3.3478622436523438,"194":-0.3505387604236603,"195":1.6039234399795532,"196":0.05580155551433563,"197":2.4280762672424316,"198":-2.527357578277588,"199":0.5308660268783569,"200":-0.8952317237854004,"201":-0.3137994706630707,"202":1.1720852851867676,"203":0.4239424765110016,"204":0.5210636258125305,"205":-0.16620206832885742,"206":3.3973655700683594,"207":0.9507119059562683,"208":-1.0318702459335327,"209":-2.580738067626953,"210":5.865140914916992,"211":-1.2182250022888184,"212":1.2371761798858643,"213":3.1523473262786865,"214":1.8942235708236694,"215":0.8668773770332336,"216":2.905351161956787,"217":-0.09317983686923981,"218":-0.2923024594783783,"219":0.72310870885849,"220":-0.40821772813796997,"221":0.05017663165926933,"222":-0.061157479882240295,"223":-0.02727857418358326,"224":0.663264274597168,"225":-3.568983793258667,"226":5.64211893081665,"227":-0.003582358593121171,"228":-6.009329319000244,"229":0.8653659224510193,"230":0.25563278794288635,"231":2.624763250350952,"232":5.232028007507324,"233":0.029425105080008507,"234":-0.7495431900024414,"235":0.7713644504547119,"236":1.7615422010421753,"237":2.4014151096343994,"238":0.632043719291687,"239":-1.663549780845642,"240":-4.962660312652588,"241":-5.476208209991455,"242":1.713309407234192,"243":3.315579414367676,"244":0.8072353601455688,"245":1.6375294923782349,"246":-5.4504008293151855,"247":0.6432299613952637,"248":-1.4638841152191162,"249":-3.36572265625,"250":0.016847580671310425,"251":-1.7305588722229004,"252":0.3272409439086914,"253":-2.6536896228790283,"254":-2.1757688522338867,"255":2.3312928676605225,"256":0.6212330460548401,"257":-1.8861083984375,"258":-9.55041790008545,"259":-3.888014316558838,"260":0.07531052082777023,"261":1.3307322263717651,"262":0.7635438442230225,"263":0.8681684136390686,"264":0.47144049406051636,"265":0.3787999153137207,"266":-1.8672831058502197,"267":0.1589549034833908,"268":-2.707530975341797,"269":-1.5261821746826172,"270":3.144106149673462,"271":-5.090782642364502,"272":1.2946786880493164,"273":3.5518081188201904,"274":-0.4988202750682831,"275":0.13689860701560974,"276":-2.8005611896514893,"277":-1.2677713632583618,"278":0.1535719484090805,"279":0.7941693663597107,"280":-0.16545267403125763,"281":0.9159091114997864,"282":1.0987094640731812,"283":0.215213805437088,"284":-2.298393726348877,"285":-0.5004981756210327,"286":0.05655685439705849,"287":-0.532167375087738,"288":-0.3375157415866852,"289":-1.2136240005493164,"290":1.6582295894622803,"291":5.883683204650879,"292":-0.04011327028274536,"293":0.7150847315788269,"294":1.739316463470459,"295":0.6068532466888428,"296":0.16029858589172363,"297":0.7606658339500427,"298":-3.312701940536499,"299":2.03863525390625,"300":-1.2502810955047607,"301":-0.020005829632282257,"302":-0.9999614357948303,"303":-0.34853842854499817,"304":1.215668797492981,"305":2.8912346363067627,"306":-0.9397028684616089,"307":1.2343825101852417,"308":-1.1174193620681763,"309":0.28166231513023376,"310":-0.6275659799575806,"311":-0.9933555126190186,"312":-3.0117156505584717,"313":1.1489574909210205,"314":6.336516380310059,"315":0.7645372152328491,"316":-1.9774783849716187,"317":0.4645267724990845,"318":2.678924560546875,"319":0.19177496433258057,"320":-0.4375670552253723,"321":-0.5871717929840088,"322":-0.2646479308605194,"323":-1.8264247179031372,"324":2.0897839069366455,"325":1.6304618120193481,"326":0.3472978174686432,"327":-0.6890423893928528,"328":-0.929627001285553,"329":0.7352429628372192,"330":-1.260831594467163,"331":-1.208061695098877,"332":2.100698709487915,"333":-0.6181925535202026,"334":-1.0000476837158203,"335":0.44967424869537354,"336":-1.4587047100067139,"337":-0.27852264046669006,"338":2.0916242599487305,"339":1.6071547269821167,"340":0.5037256479263306,"341":-1.7714695930480957,"342":-1.6519315242767334,"343":-0.027502739802002907,"344":1.0774478912353516,"345":0.24577537178993225,"346":0.022657878696918488,"347":0.5198971629142761,"348":-1.1092336177825928,"349":2.533694267272949,"350":-0.40117979049682617,"351":1.558758020401001,"352":3.1305058002471924,"353":1.139849066734314,"354":-0.8185887336730957,"355":2.136915922164917,"356":2.648031234741211,"357":-1.8793519735336304,"358":-1.4768928289413452,"359":-0.8423930406570435,"360":-1.7142233848571777,"361":1.5721518993377686,"362":-2.185910940170288,"363":-3.6807703971862793,"364":-1.546581506729126,"365":0.6131353378295898,"366":1.3439511060714722,"367":-0.7186807990074158,"368":2.0471031665802,"369":-0.027829911559820175,"370":1.7059646844863892,"371":-1.6983006000518799,"372":0.2855898141860962,"373":-1.640337347984314,"374":-0.006190855987370014,"375":-0.967074990272522,"376":-0.01627773977816105,"377":-1.6398388147354126,"378":1.346730351448059,"379":1.679934024810791,"380":0.7267168760299683,"381":-2.668747901916504,"382":0.6034130454063416,"383":-0.6678250432014465,"384":0.2930886745452881,"385":0.15795744955539703,"386":0.7042794227600098,"387":-2.664048910140991,"388":-4.187178134918213,"389":0.35566094517707825,"390":1.0767760276794434,"391":-6.0857834815979,"392":2.1128618717193604,"393":-1.2886385917663574,"394":-3.3120014667510986,"395":0.5558898448944092,"396":-1.9094237089157104,"397":-4.9673614501953125,"398":2.4713222980499268,"399":0.11624495685100555,"400":-0.9471916556358337,"401":2.8106131553649902,"402":-0.4877370595932007,"403":-3.4647858142852783,"404":-4.535338878631592,"405":-1.0783708095550537,"406":4.509284973144531,"407":1.1708637475967407,"408":-0.906129777431488,"409":0.18765732645988464,"410":0.2311292588710785,"411":-3.382099151611328,"412":-4.702556133270264,"413":1.4336726665496826,"414":1.399440050125122,"415":1.1068156957626343,"416":-3.107492685317993,"417":-1.6477010250091553,"418":-0.848341166973114,"419":-2.008928060531616,"420":-4.88541316986084,"421":-1.645763635635376,"422":2.252307891845703,"423":-4.443971157073975,"424":2.259730577468872,"425":0.03243560343980789,"426":-1.1608662605285645,"427":-0.988192081451416,"428":0.5815228819847107,"429":-0.956305205821991,"430":10.84731674194336,"431":3.2418107986450195,"432":0.8404547572135925,"433":1.2783929109573364,"434":1.5710135698318481,"435":-0.6486201286315918,"436":-1.306475043296814,"437":1.160470724105835,"438":0.014220229350030422,"439":-4.003070831298828,"440":-0.2516918182373047,"441":-0.7508090734481812,"442":3.478102684020996,"443":8.159034729003906,"444":3.4422597885131836,"445":1.3613369464874268,"446":1.1353133916854858,"447":1.2387615442276,"448":-0.6287440061569214,"449":-1.528754711151123,"450":-0.699216902256012,"451":1.3485454320907593,"452":0.9056511521339417,"453":1.3392353057861328,"454":0.7976881861686707,"455":0.4783020317554474,"456":0.4283302128314972,"457":-0.04465317353606224,"458":0.8893105387687683,"459":-4.39177131652832,"460":-1.3573131561279297,"461":2.5649266242980957,"462":0.7366219758987427,"463":1.6475588083267212,"464":3.5207040309906006,"465":-0.6603702902793884,"466":1.0423250198364258,"467":1.0042954683303833,"468":0.29669061303138733,"469":-0.3450140953063965,"470":-0.7557098865509033,"471":-2.0316293239593506,"472":-1.1169509887695312,"473":3.8212990760803223,"474":-0.7430352568626404,"475":0.784736692905426,"476":-1.7708652019500732,"477":-4.1896772384643555,"478":-1.1536511182785034,"479":2.109097719192505,"480":-3.0366132259368896,"481":-2.66341495513916,"482":0.7738246321678162,"483":0.06790018081665039,"484":2.4873714447021484,"485":-0.21680067479610443,"486":2.611029624938965,"487":-0.3450153172016144,"488":-0.5445992946624756,"489":-1.374543309211731,"490":2.1566309928894043,"491":2.163086175918579,"492":-1.1012393236160278,"493":2.627091884613037,"494":0.16232216358184814,"495":2.6409873962402344,"496":-0.005404858849942684,"497":0.5430469512939453,"498":1.5647940635681152,"499":-0.3852565586566925,"500":0.33018967509269714,"501":-0.2244107574224472,"502":-0.11496055126190186,"503":1.9901437759399414,"504":0.3276727497577667,"505":0.9510482549667358,"506":-1.496403455734253,"507":-0.0648530125617981,"508":0.1826799064874649,"509":1.6262376308441162,"510":-1.571929693222046,"511":2.740352153778076,"512":1.6708388328552246,"513":-1.8453278541564941,"514":-0.3213021457195282,"515":0.9416160583496094,"516":0.04212704673409462,"517":-0.7497473359107971,"518":-0.06667696684598923,"519":-0.8578052520751953,"520":-1.228244423866272,"521":-1.067597508430481,"522":-0.3904727101325989,"523":-0.780071496963501,"524":-1.1574053764343262,"525":0.04157023876905441,"526":0.729521632194519,"527":1.512745976448059,"528":-0.9100571870803833,"529":0.244802325963974,"530":2.7486824989318848,"531":-1.0132372379302979,"532":-0.9170148372650146,"533":-1.2432174682617188,"534":-0.8246579766273499,"535":4.653501510620117,"536":0.6258189678192139,"537":-0.34645557403564453,"538":-0.649178683757782,"539":-1.015615701675415,"540":1.7222774028778076,"541":0.7116042971611023,"542":6.95859432220459,"543":1.6013221740722656,"544":0.3071192502975464,"545":1.170803427696228,"546":2.2094712257385254,"547":-1.0510174036026,"548":-0.3027164936065674,"549":-0.7337743639945984,"550":1.9784787893295288,"551":-3.640810489654541,"552":-1.1709365844726562,"553":-1.835388422012329,"554":0.5163167715072632,"555":-0.1640256643295288,"556":1.5081210136413574,"557":-0.015686044469475746,"558":-0.22280634939670563,"559":-0.5604231357574463,"560":1.5085334777832031,"561":0.23581726849079132,"562":-3.117518186569214,"563":-0.11100312322378159,"564":-0.539284884929657,"565":1.419127106666565,"566":0.06305070221424103,"567":0.26265013217926025,"568":-0.11674939841032028,"569":0.29703447222709656,"570":1.0049740076065063,"571":2.0198659896850586,"572":-0.4974117875099182,"573":-0.22452425956726074,"574":1.7529631853103638,"575":-3.6374998092651367,"576":1.2585667371749878,"577":2.700321912765503,"578":-0.9469653367996216,"579":2.600849151611328,"580":2.1229095458984375,"581":-2.7232983112335205,"582":-1.6844650506973267,"583":-0.936450719833374,"584":-1.634643316268921,"585":3.62480092048645,"586":-4.010049819946289,"587":8.289850234985352,"588":2.951977252960205,"589":-0.026680482551455498,"590":-4.623335361480713,"591":-3.578453540802002,"592":-5.723734378814697,"593":-4.780881881713867,"594":-6.640157222747803,"595":-3.2798728942871094,"596":-6.4973978996276855,"597":-2.6668860912323,"598":7.40126895904541,"599":0.7280256152153015,"600":0.5137813091278076,"601":-1.5681830644607544,"602":-4.76714563369751,"603":-9.227831840515137,"604":10.593866348266602,"605":-3.985042095184326,"606":-1.7240498065948486,"607":1.1903148889541626,"608":4.921262741088867,"609":2.9516475200653076,"610":3.6907167434692383,"611":-2.9390385150909424,"612":-1.0631321668624878,"613":1.0118085145950317,"614":4.045705318450928,"615":-0.8401004076004028,"616":-2.071640729904175,"617":5.003573894500732,"618":-10.1764554977417,"619":3.01167631149292,"620":3.6326205730438232,"621":6.895306587219238,"622":1.7453246116638184,"623":-7.439206600189209,"624":-3.5899977684020996,"625":3.076645612716675,"626":2.852729558944702,"627":-2.5520808696746826,"628":4.350495338439941,"629":-0.8258492946624756,"630":-1.0789886713027954,"631":-0.9882102012634277,"632":1.4322336912155151,"633":-2.161032199859619,"634":0.9479520320892334,"635":-0.4760511517524719,"636":2.8076043128967285,"637":-5.094839096069336,"638":-4.993273735046387,"639":5.746838092803955,"640":-1.7044166326522827,"641":7.204655170440674,"642":-7.02556037902832,"643":-1.5061837434768677,"644":6.592931747436523,"645":4.245934963226318,"646":-3.180204391479492,"647":-2.9520273208618164,"648":-2.2957825660705566,"649":-5.83413028717041,"650":0.6116507649421692,"651":1.2308223247528076,"652":0.39779773354530334,"653":-1.6120823621749878,"654":-0.5910769701004028,"655":-1.3830159902572632,"656":-1.2556126117706299,"657":-2.1100106239318848,"658":-1.341481328010559,"659":-2.9575579166412354,"660":2.102261781692505,"661":-0.5590741038322449,"662":-0.5122765898704529,"663":1.9305787086486816,"664":-0.5285801887512207,"665":1.3399956226348877,"666":2.6795661449432373,"667":-0.5354996919631958,"668":1.3552175760269165,"669":-1.1702184677124023,"670":-2.164721965789795,"671":-0.11219029873609543,"672":0.6799348592758179,"673":-0.5665467977523804,"674":-1.4501147270202637,"675":-0.31847327947616577,"676":1.9073145389556885,"677":-4.262223720550537,"678":-0.046632926911115646,"679":-3.935800552368164,"680":-0.29502737522125244,"681":3.8218705654144287,"682":-0.6045956611633301,"683":-0.3788440227508545,"684":-1.3702328205108643,"685":-0.827307403087616,"686":0.09980252385139465,"687":0.136044442653656,"688":0.8312888741493225,"689":-0.8988662362098694,"690":1.2611960172653198,"691":1.896883249282837,"692":-1.0219089984893799,"693":0.9593437314033508,"694":-0.8808180093765259,"695":-0.34179776906967163,"696":-2.7257297039031982,"697":-0.7786469459533691,"698":-0.04147737845778465,"699":-0.24020498991012573,"700":1.3725156784057617,"701":-1.9823380708694458,"702":-2.8755738735198975,"703":1.846308946609497,"704":-1.1486530303955078,"705":-0.006529130041599274,"706":2.480029821395874,"707":0.2680683732032776,"708":-1.6621707677841187,"709":-0.4537273347377777,"710":-2.1442530155181885,"711":-0.031485818326473236,"712":0.08278112858533859,"713":-2.847203016281128,"714":-0.5884215235710144,"715":-0.3647933006286621,"716":0.8625922799110413,"717":-1.2125953435897827,"718":3.0547900199890137,"719":-0.5672019124031067,"720":-0.04228406399488449,"721":3.930466651916504,"722":-2.133268356323242,"723":1.1765056848526,"724":4.604823589324951,"725":-1.2197104692459106,"726":-2.2681610584259033,"727":0.3088987469673157,"728":-0.06635051965713501,"729":-3.3942084312438965,"730":-2.7484445571899414,"731":-1.497714877128601,"732":4.229300022125244,"733":1.960791826248169,"734":2.5897295475006104,"735":-2.631420373916626,"736":1.016764521598816,"737":-1.2536524534225464,"738":1.362168312072754,"739":-0.5151912569999695,"740":2.6195037364959717,"741":-1.6360801458358765,"742":1.3634769916534424,"743":-0.11289757490158081,"744":-2.128394603729248,"745":1.3983159065246582,"746":-1.5422743558883667,"747":0.49638569355010986,"748":0.633105993270874,"749":-0.27388960123062134,"750":-2.0091514587402344,"751":0.781114399433136,"752":0.8212960958480835,"753":3.0191242694854736,"754":1.1473491191864014,"755":2.6334264278411865,"756":-1.6703945398330688,"757":1.2829411029815674,"758":-6.3765459060668945,"759":1.2664568424224854,"760":2.8302788734436035,"761":2.5958757400512695,"762":1.6865363121032715,"763":-0.5281267762184143,"764":-0.6342533826828003,"765":2.531554937362671,"766":-1.9246832132339478,"767":-4.771069049835205,"768":0.5624262094497681,"769":-2.565154790878296,"770":2.736898899078369,"771":-2.247483968734741,"772":0.37961840629577637,"773":0.8833534121513367,"774":-0.37251725792884827,"775":1.8880369663238525,"776":0.30037280917167664,"777":0.062315650284290314,"778":1.0957682132720947,"779":-0.7139204144477844,"780":0.4377121925354004,"781":-0.12197089940309525,"782":-0.980933427810669,"783":-0.19059042632579803,"784":-0.5880111455917358,"785":-1.134397268295288,"786":1.0672327280044556,"787":1.740502953529358,"788":0.8893640637397766,"789":1.8003116846084595,"790":4.3727240562438965,"791":-3.020533323287964,"792":1.0556962490081787,"793":-1.0021326541900635,"794":-1.2963944673538208,"795":0.9754456281661987,"796":2.7216334342956543,"797":3.5844662189483643,"798":2.5311672687530518,"799":-0.0021535097621381283,"800":-1.5877971649169922,"801":-1.0935332775115967,"802":2.8801016807556152,"803":-1.561048150062561,"804":3.8757400512695312,"805":1.255082130432129,"806":4.496040344238281,"807":0.8277909159660339,"808":0.5359964966773987,"809":-1.71504807472229,"810":0.7631076574325562,"811":-1.016998052597046,"812":0.44188669323921204,"813":-0.6401066184043884,"814":-3.1207542419433594,"815":0.9158543348312378,"816":2.364609956741333,"817":3.9639952182769775,"818":1.6165028810501099,"819":-1.7273582220077515,"820":2.2842941284179688,"821":2.077317237854004,"822":1.6995346546173096,"823":-0.877015233039856,"824":0.43807652592658997,"825":-5.052048206329346,"826":-1.6592066287994385,"827":-1.605555534362793,"828":0.1485283523797989,"829":-0.15027882158756256,"830":0.699967622756958,"831":-1.2079731225967407,"832":-2.301710605621338,"833":-1.4158272743225098,"834":-1.1021592617034912,"835":-0.7209582924842834,"836":-0.2258710265159607,"837":-1.2873996496200562,"838":0.5558662414550781,"839":-2.2547683715820312,"840":0.6971984505653381,"841":5.146868705749512,"842":0.34746265411376953,"843":-0.8448628783226013,"844":0.5798525214195251,"845":0.010397817008197308,"846":-6.890435218811035,"847":0.5489495992660522,"848":0.7826414704322815,"849":0.6852312684059143,"850":-1.4242883920669556,"851":-0.03793000429868698,"852":4.247349739074707,"853":-0.40503937005996704,"854":5.720453262329102,"855":-0.11606315523386002,"856":-1.0319383144378662,"857":2.0670015811920166,"858":0.44581782817840576,"859":4.934146404266357,"860":-0.47222909331321716,"861":-0.41384759545326233,"862":-7.07161808013916,"863":1.2421125173568726,"864":-0.9393693208694458,"865":1.1486793756484985,"866":-1.5079498291015625,"867":-3.379526138305664,"868":-0.5907301902770996,"869":2.528531551361084,"870":-1.2348381280899048,"871":-0.887978732585907,"872":1.2868194580078125,"873":-0.01337011344730854,"874":-0.9725125432014465,"875":0.9466676712036133,"876":-0.5637757778167725,"877":0.7658281922340393,"878":-1.5832629203796387,"879":-1.550887107849121,"880":0.7213820219039917,"881":1.180206298828125,"882":-2.9217870235443115,"883":0.5056761503219604,"884":-0.6997814774513245,"885":2.972686529159546,"886":1.0384308099746704,"887":-0.08167219161987305,"888":0.9587877988815308,"889":-2.1596577167510986,"890":-8.230361938476562,"891":0.5544238686561584,"892":1.9193871021270752,"893":-0.8316290974617004,"894":0.3717559278011322,"895":1.9282993078231812,"896":-1.6812928915023804,"897":0.31457874178886414,"898":-0.9387223124504089,"899":0.6544485688209534,"900":-1.6562466621398926,"901":-3.333507776260376,"902":0.3599766790866852,"903":2.5695858001708984,"904":-0.07020175457000732,"905":3.039273262023926,"906":-0.8212341666221619,"907":-1.0343512296676636,"908":1.7006676197052002,"909":1.6409523487091064,"910":-2.606006622314453,"911":-1.6269934177398682,"912":2.1141533851623535,"913":-2.397089719772339,"914":-2.5155723094940186,"915":0.6198991537094116,"916":-0.6142593622207642,"917":-3.796333074569702,"918":3.7122979164123535,"919":3.5121090412139893,"920":0.3591216206550598,"921":2.1427676677703857,"922":1.1471832990646362,"923":0.48598751425743103,"924":-3.0402114391326904,"925":-0.2711239457130432,"926":1.3122247457504272,"927":3.036574363708496,"928":2.557642698287964,"929":-1.173043131828308,"930":-3.6003406047821045,"931":-0.38822540640830994,"932":0.4004286825656891,"933":-0.4398645758628845,"934":1.8887525796890259,"935":2.764125347137451,"936":-1.280735969543457,"937":0.2858903408050537,"938":2.5583572387695312,"939":-2.731309652328491,"940":0.43930214643478394,"941":-2.142259120941162,"942":2.69874906539917,"943":-1.212265968322754,"944":1.8985364437103271,"945":-2.216226816177368,"946":-0.9274803400039673,"947":-2.6574783325195312,"948":-2.5192196369171143,"949":-1.9839218854904175,"950":2.6275317668914795,"951":2.870939254760742,"952":-2.351789712905884,"953":-2.6005799770355225,"954":0.6858310103416443,"955":-1.0105897188186646,"956":-4.3130292892456055,"957":0.31612834334373474,"958":-0.04926152527332306,"959":-0.6894735097885132,"960":1.5132209062576294,"961":0.1310173124074936,"962":1.2502316236495972,"963":4.766419410705566,"964":5.608347415924072,"965":3.1413414478302,"966":2.807283878326416,"967":2.1538679599761963,"968":-2.6924631595611572,"969":-0.79802006483078,"970":0.2662672996520996,"971":5.078311920166016,"972":0.20428608357906342,"973":0.256513386964798,"974":4.596022129058838,"975":1.0349700450897217,"976":-0.24618713557720184,"977":0.3352811336517334,"978":-0.539555013179779,"979":-1.5332565307617188,"980":1.7434004545211792,"981":0.5272548794746399,"982":-0.25110170245170593,"983":-1.156132698059082,"984":0.3853481113910675,"985":0.3577239215373993,"986":2.0034162998199463,"987":1.0902758836746216,"988":0.177381694316864,"989":-1.7736276388168335,"990":1.1928322315216064,"991":0.44062232971191406,"992":-8.044529914855957,"993":1.1511021852493286,"994":0.3638664782047272,"995":-0.4972253143787384,"996":-1.3579736948013306,"997":0.814670741558075,"998":-0.6898176074028015,"999":-4.892627239227295,"1000":-1.1917436122894287,"1001":-2.816366672515869,"1002":-0.14263956248760223,"1003":-0.22811497747898102,"1004":-0.8205591440200806,"1005":0.1606801599264145,"1006":2.7555160522460938,"1007":1.415947437286377,"1008":0.3791258931159973,"1009":-2.1210527420043945,"1010":-0.01761208474636078,"1011":0.24038541316986084,"1012":0.4214833080768585,"1013":0.2010488212108612,"1014":-0.5665277242660522,"1015":4.875688552856445,"1016":-1.6682689189910889,"1017":0.8863276243209839,"1018":2.1714892387390137,"1019":-0.5312176942825317,"1020":-0.9373802542686462,"1021":-0.2707945704460144,"1022":-0.9138150215148926,"1023":4.823840141296387,"1024":1.0332558155059814,"1025":1.1144081354141235,"1026":-0.2931681275367737,"1027":-0.9924516677856445,"1028":-0.07190178334712982,"1029":1.161861538887024,"1030":-2.1408863067626953,"1031":0.4340038001537323,"1032":-0.1975557655096054,"1033":-2.5758578777313232,"1034":0.07703789323568344,"1035":1.5199335813522339,"1036":-0.8276743292808533,"1037":-3.4086837768554688,"1038":-4.386275291442871,"1039":-1.958508849143982,"1040":-0.7229328751564026,"1041":-0.7218528985977173,"1042":1.2893425226211548,"1043":0.7022534608840942,"1044":0.4870279133319855,"1045":0.4227987825870514,"1046":0.4273049533367157,"1047":-0.9367046356201172,"1048":-0.26059648394584656,"1049":0.4211804270744324,"1050":0.12377017736434937,"1051":4.123617649078369,"1052":0.13148929178714752,"1053":0.007466661743819714,"1054":-1.4397047758102417,"1055":-4.038071632385254,"1056":-2.8652474880218506,"1057":2.9872608184814453,"1058":-0.31588584184646606,"1059":0.5953572988510132,"1060":0.8305310010910034,"1061":0.04358767345547676,"1062":-2.546250581741333,"1063":1.5898079872131348,"1064":0.3501661717891693,"1065":1.5971561670303345,"1066":-3.893535614013672,"1067":-2.923091411590576,"1068":1.6256310939788818,"1069":2.475212574005127,"1070":2.559614419937134,"1071":1.9045422077178955,"1072":0.5108183026313782,"1073":1.7635301351547241,"1074":-0.34285783767700195,"1075":-2.3627378940582275,"1076":-0.13468120992183685,"1077":0.9736093878746033,"1078":-0.6441264748573303,"1079":0.4706975519657135,"1080":0.27251920104026794,"1081":-1.1135811805725098,"1082":1.8410260677337646,"1083":-5.885831832885742,"1084":-2.401430130004883,"1085":-2.630054235458374,"1086":0.4764862358570099,"1087":-4.450352191925049,"1088":-0.5470746755599976,"1089":1.2702919244766235,"1090":0.8886908888816833,"1091":0.03167623654007912,"1092":0.46671584248542786,"1093":-1.4230647087097168,"1094":-0.12857337296009064,"1095":-0.342729389667511,"1096":0.7705336809158325,"1097":0.34246447682380676,"1098":2.771263837814331,"1099":0.18243420124053955,"1100":1.3953495025634766,"1101":-0.14017769694328308,"1102":-1.7654917240142822,"1103":-0.20708268880844116,"1104":-2.6298270225524902,"1105":0.5225712060928345,"1106":-0.7376372814178467,"1107":0.7994791865348816,"1108":0.5412347316741943,"1109":-2.2455053329467773,"1110":-2.7619426250457764,"1111":-1.96340012550354,"1112":-2.424696207046509,"1113":-0.37368038296699524,"1114":-2.896013021469116,"1115":0.07860168069601059,"1116":0.8595889806747437,"1117":-0.20535100996494293,"1118":2.568920135498047,"1119":-2.6478681564331055,"1120":-2.778362274169922,"1121":-2.820207357406616,"1122":-0.7369231581687927,"1123":-1.9481768608093262,"1124":-0.7616351842880249,"1125":-1.4852360486984253,"1126":1.8343669176101685,"1127":2.6557483673095703,"1128":-0.6569511294364929,"1129":-0.7924099564552307,"1130":-4.78900146484375,"1131":0.32141220569610596,"1132":-0.7523273825645447,"1133":1.4994096755981445,"1134":3.792933702468872,"1135":-1.7436378002166748,"1136":2.7243528366088867,"1137":-0.38502204418182373,"1138":2.050929069519043,"1139":0.5998443961143494,"1140":0.5322113037109375,"1141":-0.6341990232467651,"1142":0.5408693552017212,"1143":0.5683856010437012,"1144":-0.005239368416368961,"1145":-1.3236587047576904,"1146":1.5577619075775146,"1147":-0.5443927645683289,"1148":-0.03324776887893677,"1149":2.989353656768799,"1150":-1.5592411756515503,"1151":-3.947702407836914,"1152":2.5588598251342773,"1153":2.3029754161834717,"1154":1.2285066843032837,"1155":-1.1186250448226929,"1156":1.6621406078338623,"1157":-1.98729407787323,"1158":2.2590293884277344,"1159":-1.0136299133300781,"1160":1.7776950597763062,"1161":-0.40149423480033875,"1162":-0.2753434181213379,"1163":1.0710432529449463,"1164":-0.3533594608306885,"1165":-0.4556660056114197,"1166":-2.1350932121276855,"1167":0.16342750191688538,"1168":-1.8669190406799316,"1169":2.67037034034729,"1170":3.4434611797332764,"1171":0.3758943974971771,"1172":-2.186682939529419,"1173":2.951082944869995,"1174":4.544519424438477,"1175":-1.4149442911148071,"1176":-7.423384189605713,"1177":-2.876316547393799,"1178":2.5613467693328857,"1179":-1.5254545211791992,"1180":-5.768440246582031,"1181":-1.161942720413208,"1182":-1.430741786956787,"1183":-0.2553081512451172,"1184":5.168900489807129,"1185":2.1837170124053955,"1186":0.3822822570800781,"1187":7.184841632843018,"1188":1.467671513557434,"1189":-2.1143133640289307,"1190":-1.069188117980957,"1191":4.346770286560059,"1192":-2.080681562423706,"1193":-1.3575973510742188,"1194":1.4549169540405273,"1195":-6.340908050537109,"1196":3.3453149795532227,"1197":0.03027697652578354,"1198":5.348450183868408,"1199":-4.767343044281006,"1200":-1.280534029006958,"1201":-1.2688218355178833,"1202":-3.6513822078704834,"1203":0.26331645250320435,"1204":-1.0200165510177612,"1205":2.326495409011841,"1206":0.9919670820236206,"1207":-3.2350895404815674,"1208":5.849016189575195,"1209":-0.019992772489786148,"1210":-2.664834499359131,"1211":1.3269997835159302,"1212":1.2204283475875854,"1213":7.2231340408325195,"1214":2.8055877685546875,"1215":4.122403621673584,"1216":0.4891117215156555,"1217":3.4170427322387695,"1218":-1.0604562759399414,"1219":-3.521266222000122,"1220":0.03236427158117294,"1221":0.07248467952013016,"1222":-0.8745684027671814,"1223":-4.057484149932861,"1224":-3.3643345832824707,"1225":1.8153787851333618,"1226":0.4556426405906677,"1227":0.9663868546485901,"1228":3.834157943725586,"1229":0.8400219082832336,"1230":-5.085426330566406,"1231":-4.3290839195251465,"1232":4.757911682128906,"1233":-0.6664794087409973,"1234":-3.7311787605285645,"1235":2.2481260299682617,"1236":-0.8597158193588257,"1237":-1.1282798051834106,"1238":2.6603035926818848,"1239":-0.4287179708480835,"1240":0.4718402326107025,"1241":-0.5453243851661682,"1242":-1.4587042331695557,"1243":0.8961085081100464,"1244":2.9897654056549072,"1245":0.03000129573047161,"1246":-2.0678179264068604,"1247":-0.5198761224746704,"1248":-2.827059745788574,"1249":5.890925884246826,"1250":0.3926081359386444,"1251":-2.1069586277008057,"1252":3.271589994430542,"1253":2.8946361541748047,"1254":1.917948603630066,"1255":-2.6195831298828125,"1256":-0.32920289039611816,"1257":-1.336836576461792,"1258":-4.9499311447143555,"1259":2.9788930416107178,"1260":-4.89683723449707,"1261":0.8491419553756714,"1262":0.01154524739831686,"1263":5.736661911010742,"1264":1.2858781814575195,"1265":1.2304641008377075,"1266":-5.268173694610596,"1267":-0.9615678787231445,"1268":0.5117450952529907,"1269":-2.1207284927368164,"1270":4.387111186981201,"1271":-0.35485392808914185,"1272":1.2032867670059204,"1273":3.4363958835601807,"1274":-1.6980184316635132,"1275":-0.58139568567276,"1276":-2.5367207527160645,"1277":0.46452006697654724,"1278":4.508777618408203,"1279":-2.9867043495178223,"1280":3.119189977645874,"1281":-1.796718955039978,"1282":2.9755022525787354,"1283":-0.26549723744392395,"1284":-0.974283754825592,"1285":-1.1838860511779785,"1286":1.010185956954956,"1287":-2.870021343231201,"1288":-2.4090795516967773,"1289":-3.38936710357666,"1290":-4.294326305389404,"1291":1.7885990142822266,"1292":-0.37579774856567383,"1293":0.6571252346038818,"1294":-0.3737838864326477,"1295":-2.402388334274292,"1296":-1.8775843381881714,"1297":2.1994404792785645,"1298":-2.9227206707000732,"1299":-1.8615034818649292,"1300":0.4407392740249634,"1301":-0.4461604952812195,"1302":0.768852174282074,"1303":1.3775256872177124,"1304":-6.065093994140625,"1305":-0.8074367046356201,"1306":-0.5729391574859619,"1307":-2.3272531032562256,"1308":-0.5289574861526489,"1309":1.9159698486328125,"1310":-0.6336530447006226,"1311":3.461512565612793,"1312":-0.55470871925354,"1313":2.239468812942505,"1314":6.605014801025391,"1315":-0.33094894886016846,"1316":0.9487178325653076,"1317":-3.570385217666626,"1318":3.8989737033843994,"1319":-0.8814051151275635,"1320":1.97788405418396,"1321":0.0000792188075138256,"1322":-3.0903289318084717,"1323":0.1546703726053238,"1324":-1.768296480178833,"1325":0.4700949490070343,"1326":4.005680084228516,"1327":1.5275064706802368,"1328":-2.9200477600097656,"1329":-3.265395164489746,"1330":-2.4647059440612793,"1331":3.837599754333496,"1332":-0.6446386575698853,"1333":-1.6168068647384644,"1334":-4.354168891906738,"1335":-2.8452463150024414,"1336":-1.6273956298828125,"1337":-4.062124252319336,"1338":3.214852809906006,"1339":-0.6814845204353333,"1340":2.2601675987243652,"1341":-0.8782952427864075,"1342":0.5602920055389404,"1343":-2.485804796218872,"1344":-3.621171474456787,"1345":-0.34252071380615234,"1346":-2.2083029747009277,"1347":-1.395640254020691,"1348":1.1038696765899658,"1349":-1.6122101545333862,"1350":-1.3636229038238525,"1351":-6.3801589012146,"1352":2.42372989654541,"1353":0.9538347125053406,"1354":-0.4249546527862549,"1355":4.1950788497924805,"1356":-5.091617107391357,"1357":-0.48784139752388,"1358":-1.725569725036621,"1359":0.5692574381828308,"1360":-3.905933141708374,"1361":-0.4597913324832916,"1362":-0.09442287683486938,"1363":0.801947832107544,"1364":0.9962384104728699,"1365":0.8230234384536743,"1366":-4.789021015167236,"1367":0.11766916513442993,"1368":0.4691144526004791,"1369":-3.3753786087036133,"1370":-0.2899123728275299,"1371":-1.636391043663025,"1372":-1.0718404054641724,"1373":0.6148680448532104,"1374":2.5967812538146973,"1375":1.6941217184066772,"1376":-4.310068607330322,"1377":1.5613988637924194,"1378":0.9888643622398376,"1379":3.556380271911621,"1380":2.6143133640289307,"1381":-3.0541670322418213,"1382":0.3525124192237854,"1383":-3.056195020675659,"1384":0.45790499448776245,"1385":-1.128692626953125,"1386":1.7568327188491821,"1387":1.4968466758728027,"1388":-3.2945399284362793,"1389":-3.0629310607910156,"1390":-2.4964065551757812,"1391":-1.9286173582077026,"1392":0.25205478072166443,"1393":1.429424524307251,"1394":-0.6570594310760498,"1395":2.5961387157440186,"1396":-2.160677433013916,"1397":-0.45897790789604187,"1398":-0.5022448897361755,"1399":6.926041126251221,"1400":-1.004807710647583,"1401":-2.002873659133911,"1402":-4.156787395477295,"1403":0.21128500998020172,"1404":-1.0639750957489014,"1405":0.17635001242160797,"1406":1.166783332824707,"1407":-3.7717502117156982,"1408":-0.37209203839302063,"1409":2.933659315109253,"1410":-4.652400016784668,"1411":-1.691467523574829,"1412":0.18529635667800903,"1413":0.36498355865478516,"1414":-1.4873324632644653,"1415":-1.879050850868225,"1416":-0.8488061428070068,"1417":3.299875259399414,"1418":0.6182642579078674,"1419":3.501107692718506,"1420":-5.671238899230957,"1421":1.8942912817001343,"1422":0.7595551609992981,"1423":-2.3100292682647705,"1424":-0.8046714067459106,"1425":1.0161731243133545,"1426":1.8498125076293945,"1427":4.589991092681885,"1428":-1.6377570629119873,"1429":3.0945651531219482,"1430":1.3096131086349487,"1431":-3.670715093612671,"1432":-0.5218359231948853,"1433":0.6480870842933655,"1434":0.7624563574790955,"1435":0.1866479068994522,"1436":-2.148864269256592,"1437":3.6513915061950684,"1438":1.8803832530975342,"1439":1.5613659620285034,"1440":2.031653642654419,"1441":-0.5886322855949402,"1442":-1.8923907279968262,"1443":-0.6965592503547668,"1444":1.3698710203170776,"1445":1.464151382446289,"1446":0.9510570764541626,"1447":-0.38120830059051514,"1448":1.2446436882019043,"1449":-1.5633739233016968,"1450":1.3816883563995361,"1451":0.4012365937232971,"1452":1.5489102602005005,"1453":-1.3002341985702515,"1454":1.8083466291427612,"1455":2.5981550216674805,"1456":1.657883644104004,"1457":0.1493748128414154,"1458":0.8781969547271729,"1459":-0.22428272664546967,"1460":-1.0894646644592285,"1461":-1.4586632251739502,"1462":1.369868516921997,"1463":0.9506416916847229,"1464":1.578214406967163,"1465":0.48558372259140015,"1466":1.8649907112121582,"1467":-0.3126836121082306,"1468":1.171748399734497,"1469":-0.16568070650100708,"1470":-1.4047937393188477,"1471":1.2062116861343384,"1472":2.1448304653167725,"1473":3.0344178676605225,"1474":0.9884510636329651,"1475":0.4446104168891907,"1476":-5.245125770568848,"1477":0.13917142152786255,"1478":-0.44234031438827515,"1479":-1.0103249549865723,"1480":0.30008259415626526,"1481":-3.458139657974243,"1482":-0.44449639320373535,"1483":-1.1754461526870728,"1484":0.7736652493476868,"1485":0.42775702476501465,"1486":2.3242928981781006,"1487":0.4348576068878174,"1488":-1.7232304811477661,"1489":3.266636371612549,"1490":-0.09284587949514389,"1491":1.0580861568450928,"1492":-1.5615071058273315,"1493":0.9776561260223389,"1494":-0.07822098582983017,"1495":1.8303714990615845,"1496":0.9619554877281189,"1497":0.5201718211174011,"1498":-2.677973985671997,"1499":3.149172782897949,"1500":-4.263062477111816,"1501":-4.0143537521362305,"1502":2.3311822414398193,"1503":5.458176612854004,"1504":2.8260905742645264,"1505":-2.265021324157715,"1506":5.395260810852051,"1507":-10.990163803100586,"1508":-7.872133731842041,"1509":-7.646467685699463,"1510":-2.158133029937744,"1511":-2.0272257328033447,"1512":5.8593950271606445,"1513":-5.130369186401367,"1514":4.984769821166992,"1515":-0.9423061013221741,"1516":2.7113795280456543,"1517":9.998268127441406,"1518":-10.133651733398438,"1519":-4.855277061462402,"1520":1.7655158042907715,"1521":-0.2599168121814728,"1522":-0.4950542449951172,"1523":2.5967061519622803,"1524":-3.2448885440826416,"1525":-1.5808244943618774,"1526":4.774628162384033,"1527":2.591549873352051,"1528":3.558076858520508,"1529":-1.888362169265747,"1530":-2.2134363651275635,"1531":-7.060397624969482,"1532":2.7170283794403076,"1533":-5.435308933258057,"1534":2.118293285369873,"1535":-0.464068204164505,"1536":-1.1783967018127441,"1537":0.21049527823925018,"1538":4.651167392730713,"1539":1.7704441547393799,"1540":-4.230649471282959,"1541":-7.076298713684082,"1542":7.324743270874023,"1543":4.010809421539307,"1544":2.2038259506225586,"1545":4.155409812927246,"1546":-1.9176437854766846,"1547":6.8160080909729,"1548":9.786344528198242,"1549":-1.7141629457473755,"1550":-8.542091369628906,"1551":0.43198028206825256,"1552":4.768242835998535,"1553":-8.347652435302734,"1554":4.351722240447998,"1555":-0.6515445113182068,"1556":-4.830546855926514,"1557":-2.4356002807617188,"1558":-6.532547950744629,"1559":0.7115550637245178,"1560":1.9570305347442627,"1561":-1.4962620735168457,"1562":-0.07966955751180649,"1563":0.16378982365131378,"1564":0.41738656163215637,"1565":-1.0078831911087036,"1566":1.5955562591552734,"1567":1.0028660297393799,"1568":0.05715847760438919,"1569":-2.5305495262145996,"1570":-0.7930536866188049,"1571":2.551084518432617,"1572":-0.7206251621246338,"1573":-1.406034231185913,"1574":-0.5771695971488953,"1575":-0.4322635233402252,"1576":1.2197829484939575,"1577":2.668231248855591,"1578":1.0996884107589722,"1579":0.019567670300602913,"1580":-0.5099376440048218,"1581":-0.6157645583152771,"1582":1.7018795013427734,"1583":1.6432920694351196,"1584":0.7260451912879944,"1585":-1.223719835281372,"1586":-1.1621367931365967,"1587":-1.0039163827896118,"1588":-0.10376428067684174,"1589":0.2309846132993698,"1590":-0.8895012140274048,"1591":-0.03113068826496601,"1592":-0.9233694076538086,"1593":-0.45421525835990906,"1594":1.093576192855835,"1595":0.6799747347831726,"1596":0.6026853919029236,"1597":-0.3549685478210449,"1598":2.2473442554473877,"1599":-0.4907224178314209,"1600":1.3991543054580688,"1601":-1.1427909135818481,"1602":-0.9252076148986816,"1603":0.3710329234600067,"1604":-1.0508688688278198,"1605":0.2637314200401306,"1606":1.1894267797470093,"1607":1.444340467453003,"1608":0.6234424710273743,"1609":1.1874186992645264,"1610":2.3708245754241943,"1611":-0.9737604260444641,"1612":0.04353931173682213,"1613":0.2506573796272278,"1614":1.515982747077942,"1615":-0.06147582083940506,"1616":-0.193508118391037,"1617":2.1588964462280273,"1618":0.14949069917201996,"1619":-1.658553957939148,"1620":-0.9181641340255737,"1621":-1.09464430809021,"1622":-1.704435110092163,"1623":-0.07163196802139282,"1624":-2.652963876724243,"1625":1.2971678972244263,"1626":-6.396268844604492,"1627":5.449611663818359,"1628":-11.074952125549316,"1629":-4.30151891708374,"1630":-2.4131858348846436,"1631":-1.018671989440918,"1632":5.557816028594971,"1633":8.891220092773438,"1634":15.230414390563965,"1635":5.639608383178711,"1636":12.380304336547852,"1637":-2.728644371032715,"1638":-7.257752895355225,"1639":-9.172557830810547,"1640":7.490476608276367,"1641":2.447336196899414,"1642":15.361162185668945,"1643":5.712681293487549,"1644":-10.61082935333252,"1645":6.338460922241211,"1646":-5.535970211029053,"1647":-5.676478385925293,"1648":-6.298604965209961,"1649":11.649005889892578,"1650":-11.779598236083984,"1651":-2.585740804672241,"1652":10.295415878295898,"1653":-2.1872386932373047,"1654":0.7648264765739441,"1655":-10.11704158782959,"1656":-3.029827356338501,"1657":13.501479148864746,"1658":12.231402397155762,"1659":11.075692176818848,"1660":-10.801778793334961,"1661":-0.6189376711845398,"1662":6.2531418800354,"1663":-9.688599586486816,"1664":6.81475305557251,"1665":-2.7833337783813477,"1666":-0.3191644549369812,"1667":11.715301513671875,"1668":1.585491418838501,"1669":-13.87335205078125,"1670":-5.118627071380615,"1671":2.4994142055511475,"1672":0.9154683947563171,"1673":4.214478015899658,"1674":-5.8488969802856445,"1675":2.0151007175445557,"1676":26.08538246154785,"1677":9.78722858428955,"1678":-2.064807176589966,"1679":-14.574919700622559,"1680":2.5579378604888916,"1681":-1.345077395439148,"1682":2.1288907527923584,"1683":-13.803685188293457,"1684":5.347329139709473,"1685":12.430070877075195,"1686":-0.6659185290336609,"1687":4.450846195220947,"1688":1.585470199584961,"1689":1.864060401916504,"1690":6.451617240905762,"1691":3.7523155212402344,"1692":-3.060006618499756,"1693":-2.6140902042388916,"1694":0.79640132188797,"1695":8.583937644958496,"1696":7.281901836395264,"1697":-1.898634433746338,"1698":-7.625241279602051,"1699":-0.5901291370391846,"1700":0.5431590676307678,"1701":11.394994735717773,"1702":-0.15051279962062836,"1703":2.9845917224884033,"1704":-1.5086090564727783,"1705":3.2330727577209473,"1706":0.5780836939811707,"1707":2.483772039413452,"1708":2.909580707550049,"1709":-2.9264960289001465,"1710":0.813778817653656,"1711":-5.4454874992370605,"1712":-3.043358564376831,"1713":-1.9068387746810913,"1714":-5.086568832397461,"1715":1.625503659248352,"1716":4.159669399261475,"1717":-7.853988170623779,"1718":-4.141109943389893,"1719":-0.2767251431941986,"1720":6.043607234954834,"1721":0.4550904333591461,"1722":-4.592748165130615,"1723":-3.317800998687744,"1724":-4.472784042358398,"1725":-3.214005708694458,"1726":-1.0724846124649048,"1727":-3.057798147201538,"1728":-0.05042355880141258,"1729":3.699401378631592,"1730":-3.6055686473846436,"1731":1.0792632102966309,"1732":-6.903894424438477,"1733":-8.034997940063477,"1734":5.312231540679932,"1735":5.977358818054199,"1736":-1.0116515159606934,"1737":-13.093056678771973,"1738":2.7249319553375244,"1739":-10.17843246459961,"1740":-2.541494607925415,"1741":2.640455722808838,"1742":-8.66741943359375,"1743":3.8130879402160645,"1744":3.877370595932007,"1745":-0.8108166456222534,"1746":-4.698663711547852,"1747":-3.1127359867095947,"1748":0.017831258475780487,"1749":-2.2221224308013916,"1750":-2.8622376918792725,"1751":5.0956339836120605,"1752":-0.5763437747955322,"1753":-2.5633738040924072,"1754":0.2272677719593048,"1755":2.305860996246338,"1756":0.4784184694290161,"1757":-1.8604576587677002,"1758":0.04500614479184151,"1759":1.1229965686798096,"1760":0.5437576174736023,"1761":0.5349528789520264,"1762":3.6523892879486084,"1763":0.9810976982116699,"1764":2.679664134979248,"1765":3.454927682876587,"1766":-1.0811198949813843,"1767":0.9521560072898865,"1768":-1.0454686880111694,"1769":-1.1418880224227905,"1770":-1.8571339845657349,"1771":0.1281924843788147,"1772":1.954925298690796,"1773":0.34257733821868896,"1774":0.17581099271774292,"1775":0.052614305168390274,"1776":0.07026451081037521,"1777":-4.209053039550781,"1778":1.1280878782272339,"1779":-1.881974697113037,"1780":-3.388369083404541,"1781":-0.40470263361930847,"1782":-0.5004791021347046,"1783":0.6317335367202759,"1784":-0.0024786503054201603,"1785":-1.2723312377929688,"1786":-0.4886552095413208,"1787":-0.6515634059906006,"1788":0.03112141229212284,"1789":-1.4662628173828125,"1790":-0.9768883585929871,"1791":-0.30915603041648865,"1792":2.570765495300293,"1793":1.4746901988983154,"1794":0.8709883689880371,"1795":-2.485341787338257,"1796":0.5868420600891113,"1797":-0.7554171681404114,"1798":-4.495699405670166,"1799":2.6427128314971924,"1800":0.019719485193490982,"1801":0.609602689743042,"1802":-2.4377801418304443,"1803":3.0118393898010254,"1804":-1.9705857038497925,"1805":1.196211338043213,"1806":3.4008824825286865,"1807":-1.8854161500930786,"1808":1.0034047365188599,"1809":-1.9381358623504639,"1810":0.2185434252023697,"1811":-3.5536177158355713,"1812":-0.27180245518684387,"1813":-0.08368891477584839,"1814":-1.832396149635315,"1815":-0.8912638425827026,"1816":3.397235870361328,"1817":2.811936855316162,"1818":3.228090524673462,"1819":-0.06268130987882614,"1820":1.0238173007965088,"1821":-2.113546133041382,"1822":-0.41374263167381287,"1823":3.3262197971343994,"1824":-2.8684473037719727,"1825":-0.7868194580078125,"1826":-0.991745114326477,"1827":-2.178380250930786,"1828":-0.36985138058662415,"1829":1.132148265838623,"1830":-1.4548194408416748,"1831":3.2422752380371094,"1832":-0.9320682287216187,"1833":-0.13648591935634613,"1834":-2.7154102325439453,"1835":2.0230634212493896,"1836":-1.9442391395568848,"1837":-0.9409255981445312,"1838":1.9092355966567993,"1839":0.7843858003616333,"1840":-1.0326015949249268,"1841":0.23643368482589722,"1842":-1.1696332693099976,"1843":-1.1475750207901,"1844":-0.25869908928871155,"1845":5.453469276428223,"1846":1.6728079319000244,"1847":2.368211269378662,"1848":-0.6097071170806885,"1849":-0.6408608555793762,"1850":-0.37218666076660156,"1851":0.2934063971042633,"1852":-1.8860905170440674,"1853":0.1880674958229065,"1854":0.2661252021789551,"1855":0.3402239978313446,"1856":2.1639068126678467,"1857":-0.8950719237327576,"1858":0.6332074999809265,"1859":-0.3906691372394562,"1860":4.689477443695068,"1861":-1.2652610540390015,"1862":0.18885697424411774,"1863":-3.1501822471618652,"1864":-1.8306605815887451,"1865":0.18048106133937836,"1866":-2.994630813598633,"1867":0.8592864871025085,"1868":3.7928597927093506,"1869":-2.548508644104004,"1870":2.000748872756958,"1871":-0.9202439188957214,"1872":0.01095567923039198,"1873":0.10144103318452835,"1874":3.819650173187256,"1875":2.2835800647735596,"1876":4.167863845825195,"1877":1.5619009733200073,"1878":-0.6153981685638428,"1879":0.2398582100868225,"1880":-0.571824848651886,"1881":1.4370708465576172,"1882":0.15414202213287354,"1883":-3.347501516342163,"1884":-0.6472715735435486,"1885":-2.3746466636657715,"1886":0.8974716663360596,"1887":2.0008492469787598,"1888":-0.20646928250789642,"1889":1.103253722190857,"1890":4.5815324783325195,"1891":-7.7204108238220215,"1892":-0.16057167947292328,"1893":-0.8832041621208191,"1894":0.5414649844169617,"1895":-1.4084422588348389,"1896":1.3734709024429321,"1897":-1.033320665359497,"1898":0.22017642855644226,"1899":-5.477602958679199,"1900":2.068836212158203,"1901":1.1988261938095093,"1902":-1.5550999641418457,"1903":-1.6406211853027344,"1904":1.8644789457321167,"1905":1.704097867012024,"1906":0.6833072900772095,"1907":1.6003422737121582,"1908":-0.2971535623073578,"1909":-4.601240158081055,"1910":-0.49400418996810913,"1911":2.1572487354278564,"1912":1.451490879058838,"1913":1.3638758659362793,"1914":3.251966953277588,"1915":0.4917502701282501,"1916":-3.369823694229126,"1917":-1.114675760269165,"1918":-1.5298649072647095,"1919":0.9722720384597778,"1920":-1.5348756313323975,"1921":3.819948673248291,"1922":0.8957189917564392,"1923":1.9688853025436401,"1924":-0.6312874555587769,"1925":-0.7926415205001831,"1926":-3.811239719390869,"1927":-0.723951518535614,"1928":0.392591655254364,"1929":0.1259596049785614,"1930":1.5374544858932495,"1931":1.3820722103118896,"1932":0.5310539603233337,"1933":1.3624056577682495,"1934":-0.41751641035079956,"1935":-1.6469151973724365,"1936":1.7748545408248901,"1937":-3.522991180419922,"1938":0.6870242357254028,"1939":-0.5717955827713013,"1940":-2.9012744426727295,"1941":1.0233054161071777,"1942":0.8680548667907715,"1943":0.5701518058776855,"1944":-1.2993274927139282,"1945":-0.6548777222633362,"1946":0.19506806135177612,"1947":0.5111739039421082,"1948":-1.0278542041778564,"1949":0.35575664043426514,"1950":0.8096906542778015,"1951":-0.9023276567459106,"1952":3.927494525909424,"1953":-2.142983913421631,"1954":3.931586980819702,"1955":-2.013967990875244,"1956":-4.596195220947266,"1957":-3.1228854656219482,"1958":-7.380937576293945,"1959":-5.3062920570373535,"1960":-1.4766753911972046,"1961":5.334822177886963,"1962":-2.0508697032928467,"1963":3.3777518272399902,"1964":-0.8386220335960388,"1965":-1.372916340827942,"1966":5.786007404327393,"1967":0.0027315944898873568,"1968":1.5426359176635742,"1969":-2.041112184524536,"1970":-1.5930156707763672,"1971":1.8386602401733398,"1972":1.1468098163604736,"1973":-0.7160905599594116,"1974":-1.580281138420105,"1975":1.7172508239746094,"1976":0.04279522970318794,"1977":-9.366218566894531,"1978":4.067807197570801,"1979":-3.322927474975586,"1980":-1.4747916460037231,"1981":0.4525850713253021,"1982":-1.3022900819778442,"1983":-2.23868989944458,"1984":1.5732921361923218,"1985":-1.828652024269104,"1986":-1.842522144317627,"1987":-5.444118022918701,"1988":-2.214116096496582,"1989":-4.053989410400391,"1990":3.0734641551971436,"1991":-1.058414340019226,"1992":0.7807302474975586,"1993":-1.424415111541748,"1994":1.3831298351287842,"1995":4.701480388641357,"1996":-3.9468860626220703,"1997":0.5344641804695129,"1998":0.7043062448501587,"1999":-0.763251543045044,"2000":2.4631118774414062,"2001":2.041330337524414,"2002":-0.973952054977417,"2003":0.44506633281707764,"2004":3.0762569904327393,"2005":0.775524377822876,"2006":-0.4672980010509491,"2007":1.8301520347595215,"2008":-2.874690055847168,"2009":2.693490505218506,"2010":2.074727773666382,"2011":1.987430214881897,"2012":-0.8271448016166687,"2013":-1.3768165111541748,"2014":-2.189277410507202,"2015":-2.087747097015381,"2016":-1.102532982826233,"2017":0.10314182937145233,"2018":-1.5832931995391846,"2019":1.4735350608825684,"2020":-2.279057264328003,"2021":-1.441322922706604,"2022":-1.3857918977737427,"2023":3.282240152359009,"2024":2.7560009956359863,"2025":2.5490715503692627,"2026":-0.8619575500488281,"2027":2.9100258350372314,"2028":-2.9408187866210938,"2029":-1.2890931367874146,"2030":2.343940019607544,"2031":2.403320789337158,"2032":-0.11514328420162201,"2033":0.16768498718738556,"2034":0.9706390500068665,"2035":-3.7422943115234375,"2036":1.376446008682251,"2037":9.506183624267578,"2038":-1.9364908933639526,"2039":1.0424810647964478,"2040":4.247915744781494,"2041":0.7192341089248657,"2042":1.4470856189727783,"2043":3.5087127685546875,"2044":1.0402952432632446,"2045":-2.400481700897217,"2046":-1.564726710319519,"2047":2.849613904953003,"2048":-2.189265012741089,"2049":0.17806410789489746,"2050":-2.6292011737823486,"2051":0.13285201787948608,"2052":0.5278722643852234,"2053":0.37566307187080383,"2054":0.3563646078109741,"2055":0.629136323928833,"2056":2.8120880126953125,"2057":0.5045915246009827,"2058":2.6896603107452393,"2059":-1.9189119338989258,"2060":-1.3965555429458618,"2061":-0.531129777431488,"2062":-2.401601552963257,"2063":2.487635850906372,"2064":-0.4959022104740143,"2065":2.043928384780884,"2066":-3.3888118267059326,"2067":-0.20256444811820984,"2068":0.34019163250923157,"2069":-0.527667760848999,"2070":1.1679670810699463,"2071":-3.045151710510254,"2072":1.9821338653564453,"2073":-0.3502351939678192,"2074":1.8365586996078491,"2075":0.45376837253570557,"2076":0.4304150938987732,"2077":2.6618354320526123,"2078":0.37914547324180603,"2079":-3.5671463012695312,"2080":-0.5848160982131958,"2081":1.2712286710739136,"2082":0.7348594069480896,"2083":-2.8725733757019043,"2084":-1.0890579223632812,"2085":0.9348352551460266,"2086":0.03810447081923485,"2087":1.050397515296936,"2088":-1.8517929315567017,"2089":2.5198869705200195,"2090":0.8531271815299988,"2091":-1.897375226020813,"2092":-1.5590099096298218,"2093":0.840253472328186,"2094":-4.10523796081543,"2095":0.3624519407749176,"2096":2.5402960777282715,"2097":-5.455674648284912,"2098":-1.8267557621002197,"2099":-0.7851397395133972,"2100":2.0622360706329346,"2101":-1.8967338800430298,"2102":4.354695796966553,"2103":-0.5313621759414673,"2104":-1.7586673498153687,"2105":-1.0539005994796753,"2106":0.82280433177948,"2107":2.3961381912231445,"2108":-1.1360851526260376,"2109":2.632066011428833,"2110":-0.6482825875282288,"2111":0.8496958017349243,"2112":-1.116797924041748,"2113":-2.3611230850219727,"2114":-4.765449523925781,"2115":0.9395740628242493,"2116":-2.0753748416900635,"2117":2.6422879695892334,"2118":0.03069644421339035,"2119":-1.9513732194900513,"2120":-0.23483912646770477,"2121":-1.9743155241012573,"2122":0.39954158663749695,"2123":-0.0035739983431994915,"2124":1.56564462184906,"2125":1.7677464485168457,"2126":-2.130099296569824,"2127":-0.16302628815174103,"2128":2.7232580184936523,"2129":-0.36689290404319763,"2130":-0.32340753078460693,"2131":0.3367471992969513,"2132":-3.541867971420288,"2133":-3.0554473400115967,"2134":0.19597773253917694,"2135":-2.3100202083587646,"2136":-0.2153124064207077,"2137":-0.6611048579216003,"2138":4.151403427124023,"2139":-2.69517183303833,"2140":-0.07777316868305206,"2141":-0.6004336476325989,"2142":1.9469679594039917,"2143":2.7591440677642822,"2144":0.730268120765686,"2145":-2.871978998184204,"2146":-2.2817304134368896,"2147":-1.1531341075897217,"2148":-2.435835599899292,"2149":1.369931936264038,"2150":-0.781238317489624,"2151":-6.1115851402282715,"2152":-2.0170748233795166,"2153":1.7270545959472656,"2154":-2.021212339401245,"2155":-0.33925899863243103,"2156":1.4478379487991333,"2157":-1.0359389781951904,"2158":1.8320080041885376,"2159":3.749413013458252,"2160":5.156303882598877,"2161":-1.0337483882904053,"2162":-4.295594692230225,"2163":0.9300990700721741,"2164":-2.3589019775390625,"2165":2.785717487335205,"2166":-0.10465589910745621,"2167":-0.3039916753768921,"2168":-0.4407394230365753,"2169":-0.5263453125953674,"2170":6.475493907928467,"2171":0.6699815392494202,"2172":-0.7636871337890625,"2173":1.2233612537384033,"2174":-1.1215577125549316,"2175":0.24044182896614075,"2176":-2.0032286643981934,"2177":2.517061710357666,"2178":-0.0031228400766849518,"2179":1.9789904356002808,"2180":-4.511565685272217,"2181":1.8412880897521973,"2182":0.9150524735450745,"2183":3.070659637451172,"2184":-0.15813089907169342,"2185":-5.367159366607666,"2186":-1.253344178199768,"2187":3.8705146312713623,"2188":4.0850138664245605,"2189":-2.3871543407440186,"2190":1.4952362775802612,"2191":-0.7007296681404114,"2192":-0.8980391025543213,"2193":0.3593667447566986,"2194":-0.3301314115524292,"2195":-2.949489116668701,"2196":-6.197206020355225,"2197":-0.5352532863616943,"2198":-3.876049518585205,"2199":0.7463080883026123,"2200":5.96465539932251,"2201":3.1678342819213867,"2202":-2.3794360160827637,"2203":-1.8470265865325928,"2204":2.070607900619507,"2205":-6.352070331573486,"2206":-1.4541751146316528,"2207":-1.1594622135162354,"2208":-0.7068455815315247,"2209":-1.527398943901062,"2210":5.206804275512695,"2211":-2.5376994609832764,"2212":-2.668015956878662,"2213":3.9002368450164795,"2214":5.5334272384643555,"2215":-3.6961607933044434,"2216":4.5928239822387695,"2217":-4.9914116859436035,"2218":3.504634380340576,"2219":-7.8778300285339355,"2220":0.41703107953071594,"2221":-6.603090763092041,"2222":-2.1928822994232178,"2223":5.170266628265381,"2224":11.42265796661377,"2225":0.3514004945755005,"2226":-6.375619411468506,"2227":-4.379000186920166,"2228":-0.4749882221221924,"2229":7.650604724884033,"2230":-4.796815395355225,"2231":-2.4068830013275146,"2232":0.837092936038971,"2233":-3.8378212451934814,"2234":3.514885902404785,"2235":0.8648262619972229,"2236":-8.676153182983398,"2237":-6.167612075805664,"2238":-1.0920783281326294,"2239":2.0075604915618896,"2240":1.081979513168335,"2241":1.0506967306137085,"2242":-2.9478771686553955,"2243":-6.472562313079834,"2244":-4.088006973266602,"2245":0.42237234115600586,"2246":-0.14321990311145782,"2247":-3.6487648487091064,"2248":4.9154953956604,"2249":-1.4732023477554321,"2250":-0.7673003077507019,"2251":1.870604395866394,"2252":1.119982361793518,"2253":0.8026533126831055,"2254":0.4486372470855713,"2255":1.4884388446807861,"2256":0.6344448328018188,"2257":-4.093064308166504,"2258":1.9172718524932861,"2259":2.5671465396881104,"2260":-6.881894588470459,"2261":-6.190182209014893,"2262":-3.679119825363159,"2263":-9.529912948608398,"2264":4.686211585998535,"2265":3.985487461090088,"2266":-4.767086029052734,"2267":-2.0554559230804443,"2268":7.697787284851074,"2269":-5.08660364151001,"2270":3.666198968887329,"2271":1.8924750089645386,"2272":2.8756396770477295,"2273":1.217726469039917,"2274":-2.5206613540649414,"2275":-1.9558119773864746,"2276":-2.7747318744659424,"2277":-0.5370966792106628,"2278":-4.003023624420166,"2279":-1.1055814027786255,"2280":4.491623878479004,"2281":-2.6114470958709717,"2282":-2.4548211097717285,"2283":1.0599033832550049,"2284":1.4619176387786865,"2285":-1.7131825685501099,"2286":1.754050850868225,"2287":-0.44012054800987244,"2288":-1.460200548171997,"2289":1.0458680391311646,"2290":-4.649120807647705,"2291":0.7547376155853271,"2292":0.9975516200065613,"2293":2.887638807296753,"2294":-5.171350002288818,"2295":-1.7079681158065796,"2296":2.1013498306274414,"2297":3.4444580078125,"2298":1.428843379020691,"2299":-2.605228900909424,"2300":0.05835234373807907,"2301":0.920741617679596,"2302":3.5537188053131104,"2303":-0.042960554361343384,"2304":1.3895330429077148,"2305":-0.3964802920818329,"2306":-3.8650572299957275,"2307":-0.34524980187416077,"2308":2.120974063873291,"2309":-1.216751217842102,"2310":-4.87357759475708,"2311":2.880319118499756,"2312":-2.407120943069458,"2313":1.1749318838119507,"2314":-5.277141094207764,"2315":0.667289137840271,"2316":1.0131068229675293,"2317":-1.3854607343673706,"2318":0.15672221779823303,"2319":4.464736461639404,"2320":-5.355377197265625,"2321":-1.874893307685852,"2322":5.959039211273193,"2323":2.7541205883026123,"2324":2.7065765857696533,"2325":0.4748355746269226,"2326":0.9644300937652588,"2327":-0.07238734513521194,"2328":4.0649638175964355,"2329":0.008680371567606926,"2330":-7.0738396644592285,"2331":0.3682175576686859,"2332":2.170954942703247,"2333":-9.42008113861084,"2334":-0.019459042698144913,"2335":3.345705509185791,"2336":-4.066628932952881,"2337":2.109015703201294,"2338":-3.7135043144226074,"2339":4.348260402679443,"2340":0.6789005994796753,"2341":1.8572287559509277,"2342":2.420431137084961,"2343":5.974570274353027,"2344":-2.435546636581421,"2345":-3.3452041149139404,"2346":-2.8572499752044678,"2347":0.1027279645204544,"2348":1.1837924718856812,"2349":-0.2870478630065918,"2350":-1.8075945377349854,"2351":-2.1679747104644775,"2352":-1.1275914907455444,"2353":-1.0542372465133667,"2354":-8.156279563903809,"2355":2.777752161026001,"2356":-2.9302167892456055,"2357":9.155686378479004,"2358":1.2394691705703735,"2359":1.489190697669983,"2360":-3.461566209793091,"2361":3.082453489303589,"2362":0.15154679119586945,"2363":1.056542992591858,"2364":-2.125570774078369,"2365":-2.5058183670043945,"2366":1.568304419517517,"2367":1.5726408958435059,"2368":0.44201481342315674,"2369":-0.11514970660209656,"2370":2.701826810836792,"2371":-1.7184468507766724,"2372":-1.9934413433074951,"2373":2.69934344291687,"2374":0.5476391911506653,"2375":3.2008144855499268,"2376":5.7252888679504395,"2377":-1.770969033241272,"2378":-1.0048298835754395,"2379":2.9740138053894043,"2380":7.585476398468018,"2381":1.8899662494659424,"2382":-0.3230043649673462,"2383":-2.3098959922790527,"2384":-4.278151988983154,"2385":0.03889145702123642,"2386":0.31647399067878723,"2387":3.0173277854919434,"2388":-2.0496556758880615,"2389":-0.5723065733909607,"2390":1.9766566753387451,"2391":-2.736781120300293,"2392":1.6036068201065063,"2393":-0.3737665116786957,"2394":-0.37383943796157837,"2395":2.7171220779418945,"2396":1.795782446861267,"2397":2.921645402908325,"2398":-2.468592882156372,"2399":-0.9100173115730286,"2400":-2.4491615295410156,"2401":5.895664691925049,"2402":-1.473035216331482,"2403":3.3354368209838867,"2404":-2.160499334335327,"2405":4.576381683349609,"2406":4.731290340423584,"2407":-1.0574854612350464,"2408":12.889169692993164,"2409":-5.990970134735107,"2410":-3.155315399169922,"2411":6.454318046569824,"2412":-5.386302947998047,"2413":2.064537763595581,"2414":8.996962547302246,"2415":4.474958419799805,"2416":-7.60341215133667,"2417":-2.565014362335205,"2418":-0.08616529405117035,"2419":7.777210235595703,"2420":3.9744207859039307,"2421":1.744053840637207,"2422":-0.671931803226471,"2423":10.359396934509277,"2424":0.9562211036682129,"2425":3.2069220542907715,"2426":0.841541588306427,"2427":-4.969182014465332,"2428":-3.757112503051758,"2429":-2.401196002960205,"2430":0.35577499866485596,"2431":8.76447868347168,"2432":8.294113159179688,"2433":-2.0968332290649414,"2434":1.3439934253692627,"2435":8.02064323425293,"2436":-7.68092679977417,"2437":-10.225874900817871,"2438":-7.226688385009766,"2439":-6.766851902008057,"2440":1.3792437314987183,"2441":9.207026481628418,"2442":-6.0413498878479,"2443":8.363195419311523,"2444":-3.686781644821167,"2445":1.607089638710022,"2446":-3.325186252593994,"2447":5.918796539306641,"2448":0.5182299613952637,"2449":-4.691944122314453,"2450":1.2011641263961792,"2451":1.608138084411621,"2452":-2.6127519607543945,"2453":5.925466537475586,"2454":0.47969725728034973,"2455":2.663627862930298,"2456":-3.075150489807129,"2457":-7.706451892852783,"2458":-4.168398380279541,"2459":3.367950201034546,"2460":3.882347345352173,"2461":2.4756789207458496,"2462":-1.1206183433532715,"2463":1.01509690284729,"2464":-3.6905665397644043,"2465":1.1563822031021118,"2466":11.501147270202637,"2467":-7.990911960601807,"2468":-2.913083553314209,"2469":-0.7018352746963501,"2470":2.49869441986084,"2471":-1.1591988801956177,"2472":2.3458592891693115,"2473":0.5631320476531982,"2474":1.6665607690811157,"2475":-1.0490200519561768,"2476":1.591960072517395,"2477":-0.4483022391796112,"2478":-2.730483055114746,"2479":-7.698977947235107,"2480":3.3399181365966797,"2481":1.6485965251922607,"2482":3.7544684410095215,"2483":7.76531457901001,"2484":6.737365245819092,"2485":2.1861467361450195,"2486":-6.759975433349609,"2487":-4.139267921447754,"2488":1.3595693111419678,"2489":1.7123069763183594,"2490":0.4508485198020935,"2491":-5.922235012054443,"2492":-0.18411752581596375,"2493":-6.63932991027832,"2494":-3.3392019271850586,"2495":6.615602016448975,"2496":1.4182462692260742,"2497":-0.5609016418457031,"2498":-2.482403516769409,"2499":3.957979440689087,"2500":1.470497965812683,"2501":6.600829124450684,"2502":-1.788282036781311,"2503":4.865118503570557,"2504":-0.29812750220298767,"2505":1.5197467803955078,"2506":2.7082903385162354,"2507":2.5457913875579834,"2508":-2.4696500301361084,"2509":2.033893585205078,"2510":-1.9318621158599854,"2511":4.185117244720459,"2512":-4.472315788269043,"2513":-5.8832244873046875,"2514":-7.165687561035156,"2515":6.412191390991211,"2516":3.2861225605010986,"2517":-1.7436299324035645,"2518":-2.671403169631958,"2519":1.9221110343933105,"2520":-3.025505304336548,"2521":-1.808382511138916,"2522":-4.795804977416992,"2523":-5.5936198234558105,"2524":-0.2919794023036957,"2525":-1.736251950263977,"2526":0.7299364805221558,"2527":1.465047836303711,"2528":-0.17761096358299255,"2529":2.3601338863372803,"2530":7.068110942840576,"2531":1.0942240953445435,"2532":-1.2001162767410278,"2533":-5.549866676330566,"2534":5.731207847595215,"2535":8.521800994873047,"2536":1.5625455379486084,"2537":8.886570930480957,"2538":-8.842352867126465,"2539":15.89382266998291,"2540":-0.23273809254169464,"2541":-0.4136287569999695,"2542":18.005277633666992,"2543":-5.678284168243408,"2544":-4.735304832458496,"2545":9.902573585510254,"2546":1.1914604902267456,"2547":30.63490867614746,"2548":19.846487045288086,"2549":-16.942584991455078,"2550":9.33216381072998,"2551":1.7476422786712646,"2552":-12.139152526855469,"2553":3.7755327224731445,"2554":-2.1130974292755127,"2555":-9.475322723388672,"2556":13.100090026855469,"2557":16.94223403930664,"2558":-3.6145262718200684,"2559":3.591069221496582,"2560":4.96484899520874,"2561":4.575259208679199,"2562":-8.007560729980469,"2563":-6.271395206451416,"2564":10.985809326171875,"2565":-5.910495281219482,"2566":3.1709280014038086,"2567":1.0009136199951172,"2568":-8.557583808898926,"2569":-8.135882377624512,"2570":13.220658302307129,"2571":3.194183826446533,"2572":7.909366607666016,"2573":-1.3890458345413208,"2574":-12.029792785644531,"2575":-11.779433250427246,"2576":-2.29022479057312,"2577":-2.594940423965454,"2578":-4.342217445373535,"2579":4.119241237640381,"2580":-14.421232223510742,"2581":-8.542810440063477,"2582":5.811211109161377,"2583":-4.405411720275879,"2584":-5.160712718963623,"2585":-7.292197227478027,"2586":11.89673137664795,"2587":-10.96873950958252,"2588":4.543941974639893,"2589":-1.681555151939392,"2590":-9.758712768554688,"2591":-0.47724810242652893,"2592":-3.183098793029785,"2593":5.400600910186768,"2594":4.863267421722412,"2595":-1.4217934608459473,"2596":-2.847907304763794,"2597":14.182097434997559,"2598":12.270730972290039,"2599":2.708207130432129,"2600":0.08085811138153076,"2601":-0.10224802792072296,"2602":0.06601264327764511,"2603":1.22803795337677,"2604":1.5367255210876465,"2605":1.4475172758102417,"2606":-5.953125476837158,"2607":2.351588726043701,"2608":0.19301344454288483,"2609":4.619561195373535,"2610":1.110643744468689,"2611":-2.5022623538970947,"2612":-3.044538736343384,"2613":-3.8405613899230957,"2614":0.8549822568893433,"2615":5.0042338371276855,"2616":1.3987443447113037,"2617":1.3374437093734741,"2618":-0.08366084843873978,"2619":-3.5741851329803467,"2620":3.9147446155548096,"2621":-0.42266565561294556,"2622":2.842923402786255,"2623":-1.0561820268630981,"2624":2.136415958404541,"2625":0.8340076208114624,"2626":5.421398162841797,"2627":-2.4812510013580322,"2628":1.120557427406311,"2629":-0.40747687220573425,"2630":2.867021083831787,"2631":-4.325058937072754,"2632":-0.8052861094474792,"2633":2.0142648220062256,"2634":-2.7692410945892334,"2635":-4.260634899139404,"2636":-2.9559664726257324,"2637":-2.4955689907073975,"2638":0.3955172598361969,"2639":-1.8824105262756348,"2640":-3.8408708572387695,"2641":-0.14516817033290863,"2642":1.2284390926361084,"2643":5.671401500701904,"2644":-0.4777594804763794,"2645":4.087386608123779,"2646":2.0958213806152344,"2647":3.2391276359558105,"2648":0.006784890778362751,"2649":0.8401196599006653,"2650":0.24402078986167908,"2651":4.38572883605957,"2652":2.1800270080566406,"2653":-2.363679885864258,"2654":-5.1677165031433105,"2655":-0.12492921203374863,"2656":-0.3370536267757416,"2657":5.33361291885376,"2658":5.645662784576416,"2659":-1.8807399272918701,"2660":-6.769454002380371,"2661":-1.3598650693893433,"2662":-0.9001928567886353,"2663":-0.21576738357543945,"2664":-2.5438930988311768,"2665":-4.665623188018799,"2666":9.26968002319336,"2667":-7.009668350219727,"2668":1.4040030241012573,"2669":-2.239777088165283,"2670":1.8396692276000977,"2671":-5.6170783042907715,"2672":6.1544036865234375,"2673":0.5181730389595032,"2674":4.574697017669678,"2675":-1.205779790878296,"2676":5.502730846405029,"2677":-0.4067157208919525,"2678":0.8028410077095032,"2679":-3.7671284675598145,"2680":0.5224372148513794,"2681":-2.827014207839966,"2682":-7.4192986488342285,"2683":-0.5345789790153503,"2684":-0.8714165687561035,"2685":4.629848003387451,"2686":-7.194558620452881,"2687":3.4253034591674805,"2688":2.719223976135254,"2689":5.38602352142334,"2690":-7.18626070022583,"2691":-12.123503684997559,"2692":6.910323619842529,"2693":6.637406826019287,"2694":-1.7933015823364258,"2695":-4.095156192779541,"2696":11.93027400970459,"2697":-9.696807861328125,"2698":-2.8238189220428467,"2699":4.5071258544921875,"2700":9.182918548583984,"2701":-3.2775774002075195,"2702":3.7947921752929688,"2703":3.3244524002075195,"2704":1.3827450275421143,"2705":1.1177836656570435,"2706":-4.800917625427246,"2707":-0.8927126526832581,"2708":0.3197599947452545,"2709":5.424177169799805,"2710":-1.5541824102401733,"2711":2.210405111312866,"2712":-4.071463584899902,"2713":1.397464632987976,"2714":-0.8822466135025024,"2715":-2.48551082611084,"2716":2.513319492340088,"2717":0.8846659064292908,"2718":-4.5258684158325195,"2719":-2.1515986919403076,"2720":3.1188266277313232,"2721":-2.3548712730407715,"2722":2.5044968128204346,"2723":-1.7671189308166504,"2724":1.1867631673812866,"2725":2.679825782775879,"2726":-1.3487218618392944,"2727":-4.474599361419678,"2728":0.927631676197052,"2729":0.8367368578910828,"2730":4.661059856414795,"2731":-2.7707407474517822,"2732":-0.7794187664985657,"2733":-4.949145317077637,"2734":-3.5138657093048096,"2735":-4.3480095863342285,"2736":-2.4055891036987305,"2737":-0.9055806994438171,"2738":-4.54626989364624,"2739":-5.517518520355225,"2740":-3.7542636394500732,"2741":1.8043091297149658,"2742":4.7655253410339355,"2743":2.497568368911743,"2744":4.308406352996826,"2745":-2.2065682411193848,"2746":3.1382901668548584,"2747":-11.553587913513184,"2748":6.624240398406982,"2749":3.792553663253784,"2750":0.794387698173523,"2751":5.17189884185791,"2752":0.2633521258831024,"2753":-0.5405586957931519,"2754":-6.594564437866211,"2755":6.775265693664551,"2756":-2.0861423015594482,"2757":6.617502212524414,"2758":-3.0113608837127686,"2759":-2.9595203399658203,"2760":-0.1599997580051422,"2761":0.10612166672945023,"2762":3.8482377529144287,"2763":0.23343196511268616,"2764":0.24077877402305603,"2765":0.9253363609313965,"2766":0.48078951239585876,"2767":-7.543686389923096,"2768":9.559246063232422,"2769":-4.891792297363281,"2770":6.111008167266846,"2771":1.1139105558395386,"2772":1.1927499771118164,"2773":-3.7706615924835205,"2774":3.6982381343841553,"2775":-8.351563453674316,"2776":0.9104169011116028,"2777":3.447005033493042,"2778":-2.046532392501831,"2779":1.6083072423934937,"2780":5.19235372543335,"2781":0.6740301251411438,"2782":-5.022817134857178,"2783":2.844863176345825,"2784":0.20029057562351227,"2785":-3.5253806114196777,"2786":-7.271060943603516,"2787":-1.7613592147827148,"2788":-5.54074239730835,"2789":-3.7881031036376953,"2790":1.4892351627349854,"2791":6.371446132659912,"2792":1.160667896270752,"2793":-3.87491774559021,"2794":2.919250249862671,"2795":5.825356483459473,"2796":4.51564359664917,"2797":-14.403148651123047,"2798":-22.22346305847168,"2799":8.824304580688477,"2800":7.84160852432251,"2801":-6.719001293182373,"2802":-7.215301513671875,"2803":-11.550846099853516,"2804":-16.737668991088867,"2805":-7.4787068367004395,"2806":10.989070892333984,"2807":4.004158020019531,"2808":-11.279168128967285,"2809":-4.736932277679443,"2810":-13.812174797058105,"2811":-4.550861358642578,"2812":10.154052734375,"2813":8.55793571472168,"2814":-8.483428001403809,"2815":-2.871776819229126,"2816":5.161348342895508,"2817":-2.0563180446624756,"2818":-6.00432825088501,"2819":-3.8822197914123535,"2820":2.9138100147247314,"2821":-1.6093199253082275,"2822":-4.806407451629639,"2823":13.06116771697998,"2824":-6.6476826667785645,"2825":0.2249881476163864,"2826":-4.082742691040039,"2827":5.896613121032715,"2828":6.84677267074585,"2829":-2.351459503173828,"2830":-13.605189323425293,"2831":-2.5385279655456543,"2832":-8.990882873535156,"2833":-1.7276942729949951,"2834":13.529513359069824,"2835":2.6524758338928223,"2836":-0.7569708824157715,"2837":10.044537544250488,"2838":0.3421829640865326,"2839":0.6286934614181519,"2840":-9.208291053771973,"2841":-0.8327314257621765,"2842":3.2233388423919678,"2843":-13.784575462341309,"2844":0.8293594121932983,"2845":-15.557111740112305,"2846":14.204465866088867,"2847":0.9115204811096191,"2848":12.78758716583252,"2849":-1.9411609172821045,"2850":0.9022761583328247,"2851":-5.071613788604736,"2852":-2.5476882457733154,"2853":-23.295724868774414,"2854":0.5365778207778931,"2855":-2.3315985202789307,"2856":-5.528073787689209,"2857":3.0051162242889404,"2858":-2.2504682540893555,"2859":8.803436279296875,"2860":11.221427917480469,"2861":-2.015953540802002,"2862":-1.469908356666565,"2863":2.288283586502075,"2864":-8.515473365783691,"2865":-0.3357842266559601,"2866":-0.7931914329528809,"2867":-10.163464546203613,"2868":5.973862648010254,"2869":-5.323744773864746,"2870":-8.950631141662598,"2871":-2.253289222717285,"2872":-4.570438861846924,"2873":-0.5184886455535889,"2874":-3.3277571201324463,"2875":-8.462178230285645,"2876":-6.2542548179626465,"2877":4.974703788757324,"2878":-7.307071685791016,"2879":-0.8951188921928406,"2880":2.725027322769165,"2881":3.8523905277252197,"2882":0.27930116653442383,"2883":-11.061266899108887,"2884":-0.29174402356147766,"2885":-1.1169297695159912,"2886":-9.78309154510498,"2887":6.372842788696289,"2888":4.43174934387207,"2889":-0.4120092988014221,"2890":6.190958023071289,"2891":0.46172982454299927,"2892":4.102524280548096,"2893":-6.901766300201416,"2894":-7.100238800048828,"2895":7.975383281707764,"2896":5.529082298278809,"2897":4.3369574546813965,"2898":6.742520332336426,"2899":1.2818435430526733,"2900":0.5032826662063599,"2901":2.0992166996002197,"2902":-2.9741053581237793,"2903":5.315574645996094,"2904":3.3711626529693604,"2905":1.7715855836868286,"2906":6.407333850860596,"2907":0.39055702090263367,"2908":-6.778476238250732,"2909":-1.583377480506897,"2910":-3.9042811393737793,"2911":-9.65041446685791,"2912":-5.443459510803223,"2913":9.890745162963867,"2914":-1.7846689224243164,"2915":6.686551094055176,"2916":0.8463883399963379,"2917":-3.6360857486724854,"2918":2.958465814590454,"2919":4.978508949279785,"2920":-0.8105303049087524,"2921":-7.540767192840576,"2922":9.533546447753906,"2923":4.747299671173096,"2924":-2.5136613845825195,"2925":2.5540378093719482,"2926":3.7490017414093018,"2927":-0.7701404690742493,"2928":1.5743542909622192,"2929":0.7026886343955994,"2930":-0.6147611737251282,"2931":0.5062028169631958,"2932":3.0028786659240723,"2933":-4.722672939300537,"2934":-2.4435606002807617,"2935":8.12426471710205,"2936":-6.838032245635986,"2937":-1.80962336063385,"2938":-1.431519865989685,"2939":0.1582484245300293,"2940":-0.9509246945381165,"2941":0.2993012070655823,"2942":-1.6842153072357178,"2943":1.7657986879348755,"2944":-4.122359752655029,"2945":-4.779558181762695,"2946":1.7756366729736328,"2947":-6.041376113891602,"2948":1.0821356773376465,"2949":3.9791207313537598,"2950":-0.4280533790588379,"2951":-0.22393189370632172,"2952":0.8826804757118225,"2953":-0.13014350831508636,"2954":-1.2960237264633179,"2955":5.967256546020508,"2956":1.6730188131332397,"2957":5.941476345062256,"2958":-1.831206202507019,"2959":1.4370416402816772,"2960":-1.5498732328414917,"2961":-5.350156307220459,"2962":0.5873533487319946,"2963":-9.0623779296875,"2964":-0.5437743663787842,"2965":-1.8393241167068481,"2966":4.344879150390625,"2967":-1.462588906288147,"2968":-2.3205621242523193,"2969":-1.1970363855361938,"2970":-4.722316265106201,"2971":0.6394311785697937,"2972":-1.8532456159591675,"2973":1.5672972202301025,"2974":-5.469154357910156,"2975":1.5140100717544556,"2976":2.6808013916015625,"2977":0.10366254299879074,"2978":-0.399160236120224,"2979":1.7545819282531738,"2980":-5.925662994384766,"2981":-5.7157673835754395,"2982":2.48240327835083,"2983":-1.5126363039016724,"2984":4.2405009269714355,"2985":4.6273884773254395,"2986":3.713273286819458,"2987":-1.329557180404663,"2988":-0.8520933985710144,"2989":7.132449150085449,"2990":-1.762557864189148,"2991":-0.19958345592021942,"2992":-0.815377414226532,"2993":1.6601672172546387,"2994":-4.168272972106934,"2995":-8.061962127685547,"2996":3.031496524810791,"2997":1.2584115266799927,"2998":4.341648578643799,"2999":6.7593560218811035,"3000":2.5274975299835205,"3001":0.3167988359928131,"3002":7.3472113609313965,"3003":-6.182406425476074,"3004":-0.9195071458816528,"3005":-1.535779595375061,"3006":2.290053606033325,"3007":-4.68245792388916,"3008":15.647867202758789,"3009":3.1002509593963623,"3010":-4.1728386878967285,"3011":-1.532119631767273,"3012":-2.4524521827697754,"3013":-1.7263157367706299,"3014":4.3169169425964355,"3015":1.7855123281478882,"3016":-2.4073903560638428,"3017":0.5472054481506348,"3018":-0.6967679262161255,"3019":-9.23172664642334,"3020":9.97403621673584,"3021":1.765145182609558,"3022":1.089748501777649,"3023":4.211390495300293,"3024":-0.6419517993927002,"3025":-5.858491897583008,"3026":-0.6684742569923401,"3027":-3.82784104347229,"3028":-7.35980224609375,"3029":0.14984126389026642,"3030":-2.1040971279144287,"3031":1.8334295749664307,"3032":13.35068130493164,"3033":-4.212238311767578,"3034":2.4570467472076416,"3035":-7.464471817016602,"3036":0.0650780200958252,"3037":-4.333337783813477,"3038":-3.2382140159606934,"3039":-10.59898567199707,"3040":0.64743572473526,"3041":5.767130374908447,"3042":-1.9545233249664307,"3043":-0.06274659186601639,"3044":5.940029144287109,"3045":0.4728914201259613,"3046":5.098622798919678,"3047":-5.0343499183654785,"3048":-3.842771291732788,"3049":1.847877025604248,"3050":8.441763877868652,"3051":6.5385541915893555,"3052":2.6725988388061523,"3053":6.225630760192871,"3054":7.894477367401123,"3055":1.7947584390640259,"3056":0.5269153118133545,"3057":0.3206067681312561,"3058":0.6435031294822693,"3059":0.9932360053062439,"3060":3.8207895755767822,"3061":-4.971805572509766,"3062":-4.628502368927002,"3063":-1.7789790630340576,"3064":-7.853052139282227,"3065":3.5759010314941406,"3066":1.0605827569961548,"3067":-0.31631016731262207,"3068":-3.05175518989563,"3069":0.20165026187896729,"3070":1.7709734439849854,"3071":-0.5082402229309082,"3072":-0.10335677862167358,"3073":-1.7473533153533936,"3074":-5.245294094085693,"3075":-0.3853793144226074,"3076":-1.7393500804901123,"3077":1.7416229248046875,"3078":2.966804027557373,"3079":-3.254962205886841,"3080":3.4741556644439697,"3081":2.7943809032440186,"3082":-6.7112579345703125,"3083":-4.173343658447266,"3084":4.327624797821045,"3085":-1.8484880924224854,"3086":2.5538558959960938,"3087":2.7422842979431152,"3088":-0.3251870274543762,"3089":1.756047010421753,"3090":-3.723022222518921,"3091":7.072420120239258,"3092":3.244436740875244,"3093":2.204585552215576,"3094":2.2347869873046875,"3095":-2.8997066020965576,"3096":-8.338735580444336,"3097":-1.6769614219665527,"3098":4.279876232147217,"3099":-5.578823566436768,"3100":1.7831331491470337,"3101":-3.3408987522125244,"3102":1.0236778259277344,"3103":-0.7892137169837952,"3104":0.9277791380882263,"3105":1.2811260223388672,"3106":-0.23338332772254944,"3107":-4.146905422210693,"3108":-1.0941966772079468,"3109":2.091702938079834,"3110":9.622200965881348,"3111":0.47307518124580383,"3112":5.097976207733154,"3113":-3.818912982940674,"3114":2.0103955268859863,"3115":-4.858423709869385,"3116":0.29687342047691345,"3117":-2.6760151386260986,"3118":-0.16929991543293,"3119":0.42600497603416443,"3120":-2.0440733432769775,"3121":5.027225971221924,"3122":0.09058615565299988,"3123":5.620452880859375,"3124":8.359185218811035,"3125":-1.304707407951355,"3126":-0.9187506437301636,"3127":6.741710186004639,"3128":2.248581647872925,"3129":-1.8508142232894897,"3130":-1.7994951009750366,"3131":1.1371421813964844,"3132":3.796550989151001,"3133":-4.644578456878662,"3134":-3.492021083831787,"3135":1.2807929515838623,"3136":-0.6931357383728027,"3137":0.2675115168094635,"3138":5.42251443862915,"3139":0.6045340299606323,"3140":-2.1493606567382812,"3141":2.655925989151001,"3142":2.722236394882202,"3143":-1.5198485851287842,"3144":-0.3852713704109192,"3145":-7.759500503540039,"3146":-1.9572436809539795,"3147":-2.2681164741516113,"3148":3.8988685607910156,"3149":4.54498291015625,"3150":-3.19631290435791,"3151":-0.127492755651474,"3152":2.962521553039551,"3153":10.964802742004395,"3154":-0.1836477518081665,"3155":3.4281346797943115,"3156":3.447460412979126,"3157":-3.459169626235962,"3158":2.697282314300537,"3159":-2.0057621002197266,"3160":-3.188495635986328,"3161":-0.6284072995185852,"3162":4.4067206382751465,"3163":-1.9386749267578125,"3164":-3.542752504348755,"3165":-0.9945971965789795,"3166":0.7683228254318237,"3167":2.8844635486602783,"3168":-2.226088047027588,"3169":1.6436206102371216,"3170":1.0526989698410034,"3171":-4.655629634857178,"3172":0.24838851392269135,"3173":1.4176658391952515,"3174":0.3413991332054138,"3175":-0.17705826461315155,"3176":2.9457366466522217,"3177":5.0781450271606445,"3178":2.1150810718536377,"3179":1.211029052734375,"3180":-2.708345651626587,"3181":-2.635370969772339,"3182":0.6622703075408936,"3183":-3.904766082763672,"3184":-8.576330184936523,"3185":10.590681076049805,"3186":-14.555636405944824,"3187":-8.176834106445312,"3188":-4.45217752456665,"3189":-11.48568058013916,"3190":-24.817169189453125,"3191":-10.443883895874023,"3192":2.4206764698028564,"3193":-5.124900817871094,"3194":4.947722911834717,"3195":-18.566802978515625,"3196":-15.38746166229248,"3197":5.941992282867432,"3198":-1.5121636390686035,"3199":-5.079659461975098,"3200":10.386847496032715,"3201":-11.600748062133789,"3202":4.9819865226745605,"3203":-1.775023102760315,"3204":-1.5417394638061523,"3205":2.658151626586914,"3206":16.98973846435547,"3207":-4.2638044357299805,"3208":-11.088775634765625,"3209":-5.6212382316589355,"3210":-7.575534820556641,"3211":-5.924563407897949,"3212":11.714560508728027,"3213":-7.086582660675049,"3214":-15.11081600189209,"3215":-8.997160911560059,"3216":2.063055992126465,"3217":19.426149368286133,"3218":6.401158809661865,"3219":-3.0527453422546387,"3220":10.419425964355469,"3221":-8.253140449523926,"3222":1.7342809438705444,"3223":-8.043737411499023,"3224":-6.313584327697754,"3225":-4.883256912231445,"3226":15.310181617736816,"3227":-2.174445390701294,"3228":12.3679780960083,"3229":-3.305901288986206,"3230":4.535816192626953,"3231":-15.279123306274414,"3232":11.659804344177246,"3233":-9.487263679504395,"3234":6.354646682739258,"3235":-6.180240631103516,"3236":-5.890722751617432,"3237":11.925949096679688,"3238":14.704164505004883,"3239":-1.5503238439559937,"3240":5.117020130157471,"3241":-10.540063858032227,"3242":3.0577635765075684,"3243":2.934084892272949,"3244":8.93759822845459,"3245":-5.318376064300537,"3246":-8.141697883605957,"3247":3.664071798324585,"3248":6.322260856628418,"3249":-0.11579551547765732,"3250":-2.388474702835083,"3251":-6.530501842498779,"3252":2.280095100402832,"3253":5.92099666595459,"3254":2.5756046772003174,"3255":-0.7405444383621216,"3256":-2.1759626865386963,"3257":-5.771165370941162,"3258":4.415076732635498,"3259":-2.109415054321289,"3260":-0.877242922782898,"3261":-3.573115348815918,"3262":-2.859480381011963,"3263":7.394076824188232,"3264":1.3917642831802368,"3265":1.1262601613998413,"3266":-2.487436532974243,"3267":-3.811553478240967,"3268":2.3638267517089844,"3269":-0.5805556178092957,"3270":-1.1716808080673218,"3271":1.2758957147598267,"3272":-0.7867446541786194,"3273":1.6121975183486938,"3274":-5.128539562225342,"3275":7.266779899597168,"3276":1.9066423177719116,"3277":1.5269919633865356,"3278":-0.7471498847007751,"3279":-0.3579929769039154,"3280":1.213273286819458,"3281":2.9900190830230713,"3282":-0.38869303464889526,"3283":3.148693084716797,"3284":2.580413341522217,"3285":-2.1339032649993896,"3286":2.281919240951538,"3287":-2.080760955810547,"3288":4.374603748321533,"3289":0.24038006365299225,"3290":-0.032796237617731094,"3291":1.8302621841430664,"3292":2.3583686351776123,"3293":-0.592483639717102,"3294":0.6229389905929565,"3295":0.43518343567848206,"3296":1.2633384466171265,"3297":0.0001732117380015552,"3298":-3.0936338901519775,"3299":-3.2225747108459473,"3300":-4.199403762817383,"3301":-2.683213949203491,"3302":-2.193934202194214,"3303":-1.3263484239578247,"3304":6.321108818054199,"3305":1.1467490196228027,"3306":3.9841148853302,"3307":-2.8974363803863525,"3308":1.9556306600570679,"3309":0.04170358180999756,"3310":-1.514186978340149,"3311":2.908140182495117,"3312":-0.057721950113773346,"3313":-1.772254228591919,"3314":-1.1835688352584839,"3315":4.560612678527832,"3316":2.1850264072418213,"3317":-0.9834174513816833,"3318":0.7535479664802551,"3319":0.3416178226470947,"3320":1.1023145914077759,"3321":7.270049571990967,"3322":-1.6237667798995972,"3323":2.1073122024536133,"3324":-0.1290951818227768,"3325":5.279722690582275,"3326":0.1111818328499794,"3327":-5.332864284515381,"3328":1.5530421733856201,"3329":-2.0343387126922607,"3330":8.617475509643555,"3331":1.1845121383666992,"3332":0.5503232479095459,"3333":-1.8979852199554443,"3334":0.08336066454648972,"3335":2.897134304046631,"3336":-1.568527102470398,"3337":4.6216511726379395,"3338":-0.43208047747612,"3339":-8.104838371276855,"3340":0.3930675685405731,"3341":-0.866576075553894,"3342":-5.724226951599121,"3343":-4.810683250427246,"3344":4.28737735748291,"3345":-3.906247854232788,"3346":-0.9342612624168396,"3347":-5.680092811584473,"3348":-3.4320766925811768,"3349":5.0077691078186035,"3350":3.9976232051849365,"3351":-1.6897956132888794,"3352":3.1053149700164795,"3353":-5.5763397216796875,"3354":5.270249366760254,"3355":-5.112693786621094,"3356":3.5422332286834717,"3357":-2.114198923110962,"3358":-1.1787760257720947,"3359":-2.3399314880371094,"3360":-0.41342636942863464,"3361":-0.2443489283323288,"3362":-5.1236443519592285,"3363":1.4140229225158691,"3364":-0.37060052156448364,"3365":2.677478551864624,"3366":2.5760700702667236,"3367":-3.26126766204834,"3368":-3.150573492050171,"3369":2.9908268451690674,"3370":2.9931962490081787,"3371":-1.162219762802124,"3372":-4.341280937194824,"3373":2.802180767059326,"3374":-1.4891928434371948,"3375":-6.833552360534668,"3376":-1.0998811721801758,"3377":3.8607699871063232,"3378":2.3258299827575684,"3379":-0.5284414887428284,"3380":7.431266784667969,"3381":-0.6563997864723206,"3382":-10.496929168701172,"3383":-1.6975058317184448,"3384":15.209169387817383,"3385":8.211132049560547,"3386":3.008362054824829,"3387":-1.7130287885665894,"3388":-0.2554473280906677,"3389":-5.346675872802734,"3390":3.165785551071167,"3391":-4.232884407043457,"3392":-2.0517940521240234,"3393":-12.225379943847656,"3394":9.849738121032715,"3395":2.6513636112213135,"3396":3.089249610900879,"3397":5.0013885498046875,"3398":-3.534705877304077,"3399":-0.6439478993415833,"3400":-0.17271222174167633,"3401":2.3176419734954834,"3402":-3.9503285884857178,"3403":-5.668727397918701,"3404":-1.7314118146896362,"3405":-7.276050567626953,"3406":-2.2674710750579834,"3407":-5.529712677001953,"3408":3.694304943084717,"3409":4.279463768005371,"3410":5.957548141479492,"3411":-6.472766399383545,"3412":-3.0440919399261475,"3413":3.564074993133545,"3414":1.8468329906463623,"3415":-1.3427796363830566,"3416":0.7660199403762817,"3417":-5.394283771514893,"3418":6.816764831542969,"3419":-0.8462311029434204,"3420":-1.5914793014526367,"3421":-7.150174140930176,"3422":6.593006610870361,"3423":2.6089987754821777,"3424":-10.44304084777832,"3425":6.154105186462402,"3426":1.1363835334777832,"3427":5.415865898132324,"3428":-0.9389153122901917,"3429":-3.4530913829803467,"3430":4.703438758850098,"3431":-3.7451624870300293,"3432":-4.0066328048706055,"3433":-6.596188068389893,"3434":2.945819854736328,"3435":-0.21110688149929047,"3436":-3.30849289894104,"3437":4.3991522789001465,"3438":7.001876354217529,"3439":2.9214465618133545,"3440":-11.651337623596191,"3441":-11.153396606445312,"3442":-1.2086313962936401,"3443":4.304657936096191,"3444":-3.882664680480957,"3445":1.2911415100097656,"3446":10.168572425842285,"3447":-4.613774299621582,"3448":-4.169400691986084,"3449":0.14823906123638153,"3450":5.69191312789917,"3451":1.98814058303833,"3452":3.0217976570129395,"3453":1.6991521120071411,"3454":-5.057398796081543,"3455":-1.332577109336853,"3456":10.836243629455566,"3457":5.106090545654297,"3458":-7.094226360321045,"3459":2.670637845993042,"3460":3.9616587162017822,"3461":8.370559692382812,"3462":18.1440486907959,"3463":0.7203391790390015,"3464":-1.4621961116790771,"3465":-1.7643489837646484,"3466":2.171970844268799,"3467":10.2927885055542,"3468":-16.361440658569336,"3469":-1.312180757522583,"3470":-2.2080066204071045,"3471":4.090545177459717,"3472":3.210322141647339,"3473":-8.807896614074707,"3474":-6.921171188354492,"3475":-3.2394509315490723,"3476":-0.08426269143819809,"3477":-0.1904052346944809,"3478":-0.757053554058075,"3479":-5.405657768249512,"3480":-12.838377952575684,"3481":3.2707526683807373,"3482":9.38860034942627,"3483":1.9572193622589111,"3484":6.265390872955322,"3485":-3.408507823944092,"3486":-2.260033369064331,"3487":-1.2421319484710693,"3488":-1.9987934827804565,"3489":2.245002269744873,"3490":2.6099798679351807,"3491":-20.539804458618164,"3492":-3.7014832496643066,"3493":6.253844261169434,"3494":-1.8630647659301758,"3495":3.138777017593384,"3496":-2.4581751823425293,"3497":1.9751604795455933,"3498":0.28263577818870544,"3499":-5.50069522857666,"3500":-2.385847568511963,"3501":10.525045394897461,"3502":-1.3006864786148071,"3503":-5.402194023132324,"3504":-0.3477112650871277,"3505":-3.5707242488861084,"3506":-11.158358573913574,"3507":7.345768928527832,"3508":-3.593179941177368,"3509":-0.6192888617515564,"3510":-3.975409507751465,"3511":0.7412251830101013,"3512":3.0497004985809326,"3513":3.012812376022339,"3514":-5.31419038772583,"3515":-0.015124436467885971,"3516":-2.30065655708313,"3517":3.9409823417663574,"3518":7.935908794403076,"3519":6.058398723602295,"3520":2.421509265899658,"3521":-7.189218997955322,"3522":2.9820079803466797,"3523":-0.49239853024482727,"3524":1.9563835859298706,"3525":10.590935707092285,"3526":3.0766563415527344,"3527":-4.9390153884887695,"3528":-4.535548686981201,"3529":6.366924285888672,"3530":-5.26191520690918,"3531":-0.2561429738998413,"3532":2.523155927658081,"3533":-7.392726421356201,"3534":3.596449375152588,"3535":-2.016068696975708,"3536":11.726936340332031,"3537":14.581104278564453,"3538":1.8736722469329834,"3539":1.675897240638733,"3540":8.483531951904297,"3541":-7.273567199707031,"3542":-3.6735904216766357,"3543":-7.344119071960449,"3544":-5.173248291015625,"3545":0.5732371211051941,"3546":-0.5285624265670776,"3547":-3.338085174560547,"3548":5.273301601409912,"3549":-3.4752864837646484,"3550":-2.0523016452789307,"3551":1.7897933721542358,"3552":-1.2154229879379272,"3553":4.212640762329102,"3554":-7.598304271697998,"3555":5.464045524597168,"3556":-1.6420397758483887,"3557":0.5711267590522766,"3558":4.9449944496154785,"3559":-8.686366081237793,"3560":-9.846874237060547,"3561":0.9524238109588623,"3562":-4.988467216491699,"3563":-9.55929946899414,"3564":-5.624162197113037,"3565":1.0860644578933716,"3566":4.3873372077941895,"3567":4.459986686706543,"3568":3.3360633850097656,"3569":-4.819002151489258,"3570":-0.03251964598894119,"3571":3.5314464569091797,"3572":5.561479568481445,"3573":-7.4101057052612305,"3574":-1.9272228479385376,"3575":1.1566921472549438,"3576":1.0634294748306274,"3577":-4.986400604248047,"3578":-5.375104904174805,"3579":-0.4157915711402893,"3580":0.992266833782196,"3581":2.7781388759613037,"3582":-5.370298385620117,"3583":-0.8506216406822205,"3584":-0.7042719125747681,"3585":0.8793103694915771,"3586":-1.827538251876831,"3587":-1.791053056716919,"3588":-0.9866539239883423,"3589":3.9700329303741455,"3590":-2.0196690559387207,"3591":-2.6189699172973633,"3592":-0.33089739084243774,"3593":-1.8977782726287842,"3594":-2.958033561706543,"3595":-2.3675835132598877,"3596":0.4357355833053589,"3597":0.333626389503479,"3598":-1.317349910736084,"3599":-0.07143164426088333,"3600":1.6274027824401855,"3601":0.5137504935264587,"3602":-6.164331912994385,"3603":-5.031188011169434,"3604":-3.1134896278381348,"3605":-1.2860676050186157,"3606":0.6867803335189819,"3607":-5.486417293548584,"3608":-6.481243133544922,"3609":3.419773817062378,"3610":-1.9849843978881836,"3611":-3.4488754272460938,"3612":-3.060436248779297,"3613":-4.31351375579834,"3614":-3.6932990550994873,