{"type":"LSTM","options":{"inputSize":65,"inputRange":65,"hiddenSizes":[20,20],"outputSize":65,"learningRate":0.01,"decayRate":0.999,"smoothEps":1e-8,"regc":0.000001,"clipval":5,"json":null,"dataFormatter":{"indexTable":{"0":37,"1":53,"2":36,"8":58," ":0,"w":1,"h":2,"a":3,"t":4,"b":5,"o":6,"u":7,"C":8,"n":9,"s":10,"m":11,"e":12,"r":13,"i":14,"l":15,"g":16,"?":17,"I":18,"c":19,":":20,"'":21,"B":22,"y":23,"&":24,";":25,"f":26,"d":27,"k":28,"-":29,"p":30,".":31,"v":32,"U":33,"S":34,",":35,"!":38,"A":39,"M":40,"E":41,"J":42,"x":43,"T":44,"H":45,"Y":46,")":47,"K":48,"P":49,"R":50,"O":51,"L":52,"G":54,"q":55,"j":56,"z":57,"_":59,"N":60,"W":61,"stop-input":62,"start-output":63,"unrecognized":64},"characterTable":{"0":" ","1":"w","2":"h","3":"a","4":"t","5":"b","6":"o","7":"u","8":"C","9":"n","10":"s","11":"m","12":"e","13":"r","14":"i","15":"l","16":"g","17":"?","18":"I","19":"c","20":":","21":"'","22":"B","23":"y","24":"&","25":";","26":"f","27":"d","28":"k","29":"-","30":"p","31":".","32":"v","33":"U","34":"S","35":",","36":"2","37":"0","38":"!","39":"A","40":"M","41":"E","42":"J","43":"x","44":"T","45":"H","46":"Y","47":")","48":"K","49":"P","50":"R","51":"O","52":"L","53":"1","54":"G","55":"q","56":"j","57":"z","58":"8","59":"_","60":"N","61":"W","62":"stop-input","63":"start-output","64":"unrecognized"},"values":[" what about Consumerism as the new religion? I can see it now: 'Buying is the new tithe' ","&gt; not sure why I care if a story about some idiotic Italian magistrates It's strange that this kind of head-in-the-sand dismissal of the international picture has become associated with the right. It seems to really weaken their hand. I have read that there is a belief in the US gov decision making process along the lines that because the US is so powerful, they now create history and don't really have to worry about international concerns and historical precedents.","...from 2002!","An article on Micro Economics by Joel Spolsky","Can someone explain to me why this is important? That is, other than to impresss someone with how much you can drink, which means you are childish or have serious self image problems. ","Hard to believe, I know, but the linked article actually explains that! You should give it a read.","I agree with you. BUT things which don't feel like revelations can also be extremely important. After all, you can't be a great hacker if you keep wasting your time on errands :-) Keep writing, Paul.","I don't think work has to be bone-crushingly insightful to be valuable. It helps to have it written out so you can keep reading what you already know.","I've been doing this sort of filtering with PROCMAIL for over 10 years now. I guess the cool thing is that gmail allows you to create sorting rules based on this criteria, that is impossible with other 'free' email providors.","It wasn't posted here because we are all familiar with Paul Graham's site and have probably found it ourselves already. Always ready to answer a rhetorical question, at your service.","So now with reddit we even have a place to start a discussion with the author :)","Some people have been able to comment for longer than others ;-)","There is an interesting phenomenon occurring at reddit whereby the majority left-leaning denizens of the sight are slowly alienating the minority right-leaning ones like myself. The only question I have is why do I care? I'm not sure why I care if a story about some idiotic Italian magistrates gets voted up to the top of the 'hot' list, but I do. I'm starting to feel like I don't fit in here. Maybe you should change the name to 'blueit'.","Yepp, plus the idea ain't new at all. I know many people who have been using this approach for some 8 years now. Also, you don't need Gmail to sort your emails by address. Every decent email client on the planet will do that just as good. Lastly, this approach is only useful if you are actually fully determined to sueing those companies' arses. Otherwise, it's a complete waste of time. Bottom line: this article is rather useless.","actually, as a lifelong atheist, i think it might be a good idea to have an official state church in the USA. a single officially recognized, state funded, church denomination that was considered the 'default religion' for anybody who didn't choose to opt out of it and pick another - would have to cater to everyone, could not afford to discriminate or act too fundamentalist crazy. it would have to be a church for the whole people, and therefore couldn't make enemies of anybody, really. and because it'd be the largest religion by far, it -- with its necessary tolerance -- would become the standard for other denominations to be judged by. an association with the state would tame religion, i think. or, since this _is_ the USA we're talking about, maybe it would destroy the state. politics here have a way of being bass-ackwards a lot of the time.","entirely fair, if the site is solely intended to be a feed of the web. I thought, though, that reddit is also about rating well-known bits of the web, eg. Norvig's programming-in-10-years essay, and all of the other stuff of graham's, etc..","reddit is 'what's new online' not 'rate the web' So i for my part will demote anything old like this article.","you know, I like Paul Grahams stuff. I'm not one of these people who dislike him because he's successful or because he's popular. Interestingly he wrote an essay on Being Popular, but it was talking about quite the opposite. Now he's popular, does that cause problems? Anyway, I've decided to register with Reddit and post something, but only because I'm avoiding doing this particular piece of work ;) As I've said, I like Pauls work, BUT I just get the feeling that its waning - his earlier stuff was was a real 'wow' factor for me as it was exactly what I'd been thinking and mirrored what we were doing. What I read now is 'ok' but I don't send it to all my friends and print it to make my wife read it. Am I the only one who feels like this?"],"characters":[" ","w","h","a","t","b","o","u","C","n","s","m","e","r","i","l","g","?","I","c",":","'","B","y","&",";","f","d","k","-","p",".","v","U","S",",","2","0","!","A","M","E","J","x","T","H","Y",")","K","P","R","O","L","1","G","q","j","z","8","_","N","W","stop-input","start-output","unrecognized"]}},"input":{"rows":66,"columns":65,"weights":{"0":1.3843674659729004,"1":0.05249219015240669,"2":-1.4921451807022095,"3":-2.193467617034912,"4":-0.1450398564338684,"5":-0.7846295833587646,"6":2.0622856616973877,"7":-2.5951638221740723,"8":-0.9960208535194397,"9":-3.9860727787017822,"10":1.1619216203689575,"11":-0.5543334484100342,"12":-2.510530710220337,"13":2.519751787185669,"14":-1.2296268939971924,"15":2.5562005043029785,"16":0.20359545946121216,"17":-0.12296796590089798,"18":-2.0193092823028564,"19":3.199861526489258,"20":1.143973708152771,"21":0.3580118417739868,"22":-2.3837413787841797,"23":-1.2072728872299194,"24":0.25867751240730286,"25":-1.8045282363891602,"26":1.8447535037994385,"27":-1.0179901123046875,"28":1.3554037809371948,"29":4.907382488250732,"30":3.2923336029052734,"31":-0.23949559032917023,"32":0.5719441771507263,"33":1.068851113319397,"34":-2.694958209991455,"35":1.8363943099975586,"36":1.3409624099731445,"37":1.2154829502105713,"38":-0.1362980306148529,"39":-4.766554355621338,"40":1.2722455263137817,"41":-1.893451452255249,"42":-2.6873116493225098,"43":-0.6935284733772278,"44":-2.199634313583374,"45":-0.7415840029716492,"46":-0.0035246293991804123,"47":0.1614571362733841,"48":-0.25830352306365967,"49":-0.9135860800743103,"50":-1.344942331314087,"51":1.5234527587890625,"52":-0.6600310802459717,"53":-1.951639175415039,"54":1.0837877988815308,"55":0.7190455198287964,"56":-1.522808313369751,"57":4.183805465698242,"58":-1.2615348100662231,"59":1.4569064378738403,"60":-0.4469846487045288,"61":-1.6823785305023193,"62":0.35579630732536316,"63":-1.07695734500885,"64":-1.582121729850769,"65":0.02228529006242752,"66":-2.007897138595581,"67":-0.21395166218280792,"68":-1.9619700908660889,"69":0.13816596567630768,"70":2.3771462440490723,"71":0.7629887461662292,"72":3.130286931991577,"73":4.726850986480713,"74":-0.7384281754493713,"75":-1.2965483665466309,"76":0.9391724467277527,"77":-2.249070167541504,"78":-1.130877137184143,"79":-0.17348971962928772,"80":-1.6420446634292603,"81":0.3272324204444885,"82":-2.667998790740967,"83":-2.8288724422454834,"84":1.0306227207183838,"85":1.0587007999420166,"86":-2.2058656215667725,"87":-8.093031883239746,"88":0.27152493596076965,"89":-1.072678565979004,"90":-1.372115135192871,"91":-0.7282729148864746,"92":-0.49340566992759705,"93":6.005631923675537,"94":-1.8349392414093018,"95":1.2852624654769897,"96":0.4379511773586273,"97":3.0985591411590576,"98":6.213338851928711,"99":-0.9532874822616577,"100":0.9299043416976929,"101":1.1213502883911133,"102":1.804972529411316,"103":-0.3442606031894684,"104":1.1767957210540771,"105":0.31432589888572693,"106":-0.34090009331703186,"107":-0.48914411664009094,"108":0.06088956072926521,"109":-0.03804309293627739,"110":1.1503735780715942,"111":-1.0399214029312134,"112":2.6478312015533447,"113":-0.7878134250640869,"114":-1.2875665426254272,"115":2.8810765743255615,"116":-1.7671750783920288,"117":-2.3989198207855225,"118":-2.031195878982544,"119":1.906583547592163,"120":0.9207797646522522,"121":-0.8710448145866394,"122":0.39313822984695435,"123":1.6572933197021484,"124":1.417132019996643,"125":3.114973306655884,"126":1.4675956964492798,"127":-1.802221417427063,"128":-0.7224279642105103,"129":5.111930847167969,"130":-0.5415878295898438,"131":-1.603891134262085,"132":3.0290892124176025,"133":2.5326178073883057,"134":-3.619408369064331,"135":2.8975167274475098,"136":-1.071427583694458,"137":-0.39899057149887085,"138":3.9266703128814697,"139":-1.5400103330612183,"140":1.6055580377578735,"141":4.058492183685303,"142":2.304853677749634,"143":4.815077781677246,"144":0.5191659927368164,"145":-0.6218605041503906,"146":-5.032968044281006,"147":-2.4791934490203857,"148":-5.343626022338867,"149":-0.65830397605896,"150":2.7970492839813232,"151":-3.00943922996521,"152":4.519396781921387,"153":0.8213694095611572,"154":3.53716778755188,"155":-0.9586648941040039,"156":-3.437140703201294,"157":-6.948540687561035,"158":-0.8594374060630798,"159":-1.3572437763214111,"160":-1.2730497121810913,"161":4.127160549163818,"162":-4.07792329788208,"163":0.6752662658691406,"164":1.106548547744751,"165":0.8831718564033508,"166":1.8065434694290161,"167":3.1714155673980713,"168":0.2805182635784149,"169":-5.015157699584961,"170":3.58378005027771,"171":0.19151034951210022,"172":-1.860919713973999,"173":1.8502533435821533,"174":-1.7152786254882812,"175":1.1624393463134766,"176":-0.07498784363269806,"177":2.375321626663208,"178":-2.7853400707244873,"179":-2.1061344146728516,"180":1.6803574562072754,"181":1.9119502305984497,"182":-2.9474871158599854,"183":1.602530598640442,"184":-1.3021879196166992,"185":-0.6494846940040588,"186":-1.518691897392273,"187":-0.7221803069114685,"188":1.1468219757080078,"189":-1.1790629625320435,"190":-0.37604936957359314,"191":0.2743515074253082,"192":-1.3754383325576782,"193":1.2012096643447876,"194":1.5194109678268433,"195":-1.6109520196914673,"196":1.1958892345428467,"197":-1.7169897556304932,"198":-1.2105504274368286,"199":0.24795036017894745,"200":-0.8962510824203491,"201":4.210216999053955,"202":1.7838214635849,"203":2.3346917629241943,"204":0.8809264302253723,"205":-0.15220889449119568,"206":0.30629435181617737,"207":2.125330686569214,"208":0.6157611608505249,"209":0.16432414948940277,"210":-2.4211010932922363,"211":-0.618507981300354,"212":-2.607241630554199,"213":-1.8192929029464722,"214":0.1852131485939026,"215":-0.2816668152809143,"216":0.9434759616851807,"217":7.052685260772705,"218":0.07520033419132233,"219":0.4714052081108093,"220":3.6712756156921387,"221":3.0386152267456055,"222":0.08425002545118332,"223":1.8801616430282593,"224":-0.5389733910560608,"225":0.8307289481163025,"226":2.1495144367218018,"227":-0.7552422881126404,"228":-1.9777920246124268,"229":-1.9745891094207764,"230":-0.40696948766708374,"231":-7.521810054779053,"232":3.0927934646606445,"233":-5.232747554779053,"234":1.9324965476989746,"235":-1.6309548616409302,"236":0.8490187525749207,"237":-1.2877116203308105,"238":-0.9522761702537537,"239":2.602185010910034,"240":-0.42703527212142944,"241":0.4574795961380005,"242":1.2147330045700073,"243":1.0780830383300781,"244":-0.4577139616012573,"245":1.2206820249557495,"246":-4.260465145111084,"247":0.7376501560211182,"248":-1.065687894821167,"249":-0.5126688480377197,"250":2.4236059188842773,"251":0.8154132962226868,"252":-0.8902348279953003,"253":-0.4350164532661438,"254":-3.9469034671783447,"255":3.9325191974639893,"256":6.828242301940918,"257":-1.1020355224609375,"258":-0.837434709072113,"259":6.202727317810059,"260":1.704858660697937,"261":0.7222647070884705,"262":-2.408400774002075,"263":1.2911494970321655,"264":-0.6709253787994385,"265":0.130210742354393,"266":0.8246726393699646,"267":0.7239160537719727,"268":2.2600011825561523,"269":-2.166595458984375,"270":1.6641353368759155,"271":-0.716651439666748,"272":1.9048640727996826,"273":0.2695799469947815,"274":1.8076568841934204,"275":1.7631316184997559,"276":-0.11910351365804672,"277":0.7849808931350708,"278":-0.9666649103164673,"279":0.9744478464126587,"280":-0.2149929404258728,"281":-1.698556661605835,"282":0.13869574666023254,"283":1.0175108909606934,"284":1.1288186311721802,"285":1.2909202575683594,"286":2.5629031658172607,"287":2.4567530155181885,"288":-2.2657687664031982,"289":-0.5855814218521118,"290":0.4219534397125244,"291":0.7182270884513855,"292":-0.6452370285987854,"293":-1.2446922063827515,"294":0.5066466331481934,"295":0.24923546612262726,"296":-0.8482341170310974,"297":-1.1170425415039062,"298":7.242143630981445,"299":-0.09838113188743591,"300":-2.5258307456970215,"301":0.5484569072723389,"302":0.22706113755702972,"303":1.0724538564682007,"304":1.2267712354660034,"305":-1.8471312522888184,"306":0.9715657830238342,"307":5.424936771392822,"308":-8.334830284118652,"309":-5.765229225158691,"310":-1.5068845748901367,"311":3.1406826972961426,"312":-0.5449221134185791,"313":1.2489869594573975,"314":-0.506378710269928,"315":1.5185844898223877,"316":-0.8191184997558594,"317":-2.9359192848205566,"318":-0.9381716847419739,"319":0.0818214863538742,"320":-0.8233022689819336,"321":0.7453761100769043,"322":2.2346251010894775,"323":-1.2815262079238892,"324":0.49613285064697266,"325":0.22564099729061127,"326":1.2126621007919312,"327":-0.04609512537717819,"328":-0.5803090333938599,"329":-1.3800604343414307,"330":3.042724132537842,"331":5.463622093200684,"332":1.2785210609436035,"333":-1.6819100379943848,"334":-1.0705289840698242,"335":0.09266646206378937,"336":-1.2821650505065918,"337":4.267643928527832,"338":2.7755191326141357,"339":-1.902984857559204,"340":1.908100962638855,"341":-0.3900504410266876,"342":-3.3452773094177246,"343":-1.2427839040756226,"344":2.97294545173645,"345":-0.6934726238250732,"346":-2.122431516647339,"347":-4.389626502990723,"348":-0.212787926197052,"349":0.8702870011329651,"350":-1.4838429689407349,"351":-2.830214500427246,"352":-1.0720258951187134,"353":1.4464393854141235,"354":0.33899053931236267,"355":-2.0993497371673584,"356":-0.5682649612426758,"357":0.6263378858566284,"358":1.3195828199386597,"359":-0.6463178396224976,"360":1.8442771434783936,"361":1.8274129629135132,"362":1.343082070350647,"363":3.6160411834716797,"364":-0.5764657855033875,"365":0.4862239956855774,"366":-1.402980923652649,"367":-2.6267380714416504,"368":-0.3266248404979706,"369":-3.1502468585968018,"370":0.23885570466518402,"371":2.156956911087036,"372":1.8847275972366333,"373":0.43577349185943604,"374":-0.3336227834224701,"375":-0.8308101296424866,"376":2.3410398960113525,"377":-0.5110530853271484,"378":0.13185955584049225,"379":-0.04339492693543434,"380":-1.0327659845352173,"381":-0.9073759913444519,"382":-4.930062770843506,"383":2.0126254558563232,"384":-0.12314178049564362,"385":0.7547921538352966,"386":-5.8985161781311035,"387":0.04160969704389572,"388":0.3689526319503784,"389":-6.312134265899658,"390":0.3514738380908966,"391":0.03388239070773125,"392":-1.2359822988510132,"393":4.634608745574951,"394":0.09816930443048477,"395":1.8838263750076294,"396":1.8923325538635254,"397":1.9272552728652954,"398":10.69333267211914,"399":3.8482892513275146,"400":-0.8249797821044922,"401":-1.0356720685958862,"402":-3.228573799133301,"403":2.1214277744293213,"404":4.048569679260254,"405":0.8936266303062439,"406":-6.922818183898926,"407":-0.03843788802623749,"408":-0.9865207076072693,"409":-4.018603324890137,"410":-0.05420086160302162,"411":-2.2865962982177734,"412":1.2836183309555054,"413":-1.5164082050323486,"414":-1.2666147947311401,"415":-0.7236400246620178,"416":-0.011276783421635628,"417":-2.293459892272949,"418":-5.264100551605225,"419":-4.796414375305176,"420":-2.97865891456604,"421":-1.944682002067566,"422":-1.6148797273635864,"423":-0.7835984826087952,"424":1.8774967193603516,"425":-2.031907558441162,"426":3.697568655014038,"427":-3.7734873294830322,"428":0.31266820430755615,"429":-0.4074992835521698,"430":1.590221881866455,"431":1.0035865306854248,"432":-0.7560622692108154,"433":0.8015127182006836,"434":0.07087470591068268,"435":0.9353070259094238,"436":-1.4540965557098389,"437":-1.94650137424469,"438":-3.4807193279266357,"439":0.7560998797416687,"440":-1.143048644065857,"441":2.9631407260894775,"442":-0.956070601940155,"443":0.9848881959915161,"444":0.27758219838142395,"445":-0.6470688581466675,"446":-0.22467364370822906,"447":-2.0739495754241943,"448":1.278968334197998,"449":-0.026136489585042,"450":-3.0783867835998535,"451":3.027080774307251,"452":-1.4833136796951294,"453":0.354513019323349,"454":1.8537671566009521,"455":-0.691479504108429,"456":1.1644445657730103,"457":-0.7227344512939453,"458":-1.2201935052871704,"459":0.4697951078414917,"460":-1.9177377223968506,"461":2.821732759475708,"462":1.2856264114379883,"463":0.34563812613487244,"464":-1.4866857528686523,"465":-0.16454817354679108,"466":-1.6469638347625732,"467":2.546764850616455,"468":-0.03309669718146324,"469":2.9549331665039062,"470":-1.6097906827926636,"471":0.9697498083114624,"472":-1.7793084383010864,"473":-8.138728141784668,"474":-0.34666937589645386,"475":0.3006329834461212,"476":-0.8687911033630371,"477":-1.4506174325942993,"478":-2.7196221351623535,"479":-0.13162900507450104,"480":0.15566298365592957,"481":-4.052822113037109,"482":1.9322415590286255,"483":0.9790024757385254,"484":-0.38476473093032837,"485":-1.568297028541565,"486":1.1698002815246582,"487":1.9484758377075195,"488":-1.5686061382293701,"489":-2.765084743499756,"490":-1.6946938037872314,"491":-0.5430669188499451,"492":0.9261156320571899,"493":-1.402935266494751,"494":-0.4791632890701294,"495":-0.051165174692869186,"496":1.397950291633606,"497":2.0053184032440186,"498":0.442996621131897,"499":0.18250460922718048,"500":1.2357816696166992,"501":0.7757388353347778,"502":-1.7031649351119995,"503":-0.8794951438903809,"504":-4.005421161651611,"505":-0.19356678426265717,"506":0.5867668986320496,"507":0.8013291358947754,"508":-0.5701193809509277,"509":0.47741565108299255,"510":0.7185215353965759,"511":-1.888715386390686,"512":-2.0533835887908936,"513":-0.5686954855918884,"514":0.9970412850379944,"515":0.7485136985778809,"516":3.931516408920288,"517":0.8896619081497192,"518":-0.3953733742237091,"519":0.5074982047080994,"520":0.5855062007904053,"521":0.8362467885017395,"522":0.5606948137283325,"523":-4.6983184814453125,"524":-0.8766303062438965,"525":1.5950392484664917,"526":3.075009822845459,"527":0.47815531492233276,"528":0.9532545804977417,"529":0.5482061505317688,"530":-0.18827544152736664,"531":-1.15215003490448,"532":9.491497039794922,"533":-0.951499879360199,"534":1.4335521459579468,"535":1.9804987907409668,"536":0.0671674981713295,"537":0.4572245478630066,"538":5.923170566558838,"539":-5.298110008239746,"540":3.8333775997161865,"541":-2.7854082584381104,"542":1.3215928077697754,"543":2.1726739406585693,"544":2.40258526802063,"545":-0.5906122922897339,"546":-0.42218273878097534,"547":-0.27862948179244995,"548":-4.8977813720703125,"549":0.5136091709136963,"550":0.6269270181655884,"551":0.028437215834856033,"552":-0.008264624513685703,"553":2.0638184547424316,"554":1.6212408542633057,"555":-1.126320719718933,"556":2.388340473175049,"557":4.127033710479736,"558":-0.06604506075382233,"559":-0.9445527791976929,"560":-0.19278214871883392,"561":-0.43739867210388184,"562":0.9813176393508911,"563":-0.7815483808517456,"564":-5.443971633911133,"565":-0.7429286241531372,"566":0.5559532642364502,"567":-0.9399318099021912,"568":0.506675124168396,"569":1.5082871913909912,"570":-2.264322519302368,"571":1.5950226783752441,"572":1.639435052871704,"573":-0.5176608562469482,"574":-4.070317268371582,"575":1.489298939704895,"576":2.790243148803711,"577":-3.9138007164001465,"578":-0.024685552343726158,"579":-1.5523262023925781,"580":1.1595866680145264,"581":-1.1896792650222778,"582":0.2291989028453827,"583":0.17477793991565704,"584":-0.0075719780288636684,"585":9.233732223510742,"586":4.950735092163086,"587":-3.431783676147461,"588":7.836095809936523,"589":-4.847750186920166,"590":-3.0461559295654297,"591":-9.411947250366211,"592":-4.054239749908447,"593":-3.7954025268554688,"594":-8.572014808654785,"595":-1.9438005685806274,"596":-5.112830638885498,"597":3.3404970169067383,"598":10.186257362365723,"599":2.7672512531280518,"600":-2.654722213745117,"601":2.3764219284057617,"602":8.180219650268555,"603":-3.433241605758667,"604":2.348923921585083,"605":-1.326146125793457,"606":2.852036237716675,"607":3.0472264289855957,"608":-11.570050239562988,"609":1.7465070486068726,"610":0.5413154363632202,"611":-12.789582252502441,"612":5.303152561187744,"613":1.5389630794525146,"614":4.615979194641113,"615":-0.24694578349590302,"616":4.5555243492126465,"617":2.504446029663086,"618":-4.223728656768799,"619":-5.16916036605835,"620":2.2519173622131348,"621":-0.9515699744224548,"622":6.560064792633057,"623":-3.0202300548553467,"624":-0.37830856442451477,"625":3.242422342300415,"626":0.7451817989349365,"627":-1.6213459968566895,"628":-5.801551818847656,"629":-4.001719951629639,"630":7.175378799438477,"631":4.744534492492676,"632":3.25376558303833,"633":0.7908453345298767,"634":-7.716440200805664,"635":12.942330360412598,"636":3.905496835708618,"637":-0.16804645955562592,"638":3.3443446159362793,"639":13.956720352172852,"640":0.9174535274505615,"641":3.4260027408599854,"642":-2.347736358642578,"643":3.687915086746216,"644":2.261385440826416,"645":-7.661722660064697,"646":3.5622787475585938,"647":9.786298751831055,"648":-13.138696670532227,"649":-6.155703544616699,"650":-6.326322078704834,"651":0.23718489706516266,"652":-1.5655004978179932,"653":2.2677574157714844,"654":3.0524845123291016,"655":1.1217682361602783,"656":-1.3228050470352173,"657":3.7285988330841064,"658":2.538839340209961,"659":-3.7706525325775146,"660":-3.6435651779174805,"661":-2.4200425148010254,"662":0.42893555760383606,"663":2.5372235774993896,"664":-4.310367584228516,"665":-0.7078003883361816,"666":0.06722933799028397,"667":-5.7121992111206055,"668":-0.10371894389390945,"669":-4.364965915679932,"670":2.3860466480255127,"671":0.5348104238510132,"672":0.7485787868499756,"673":4.707484245300293,"674":-0.8138286471366882,"675":1.2085707187652588,"676":1.3503867387771606,"677":-1.9226702451705933,"678":-0.6028413772583008,"679":-1.586011290550232,"680":-4.66983699798584,"681":3.546281099319458,"682":-0.36222589015960693,"683":-2.948786973953247,"684":0.2581838071346283,"685":-0.12938012182712555,"686":1.1146708726882935,"687":-1.2223087549209595,"688":4.056542873382568,"689":-1.1813838481903076,"690":1.7382900714874268,"691":2.0405900478363037,"692":-1.8514858484268188,"693":-1.2332301139831543,"694":5.283594608306885,"695":-0.8980262875556946,"696":-1.9852482080459595,"697":1.4686223268508911,"698":-7.025923252105713,"699":0.12074245512485504,"700":-1.1276614665985107,"701":0.8795705437660217,"702":-1.8648054599761963,"703":-0.4853951334953308,"704":2.1530466079711914,"705":4.417011260986328,"706":1.410596251487732,"707":-3.457202672958374,"708":0.9776557087898254,"709":2.8557021617889404,"710":4.3478684425354,"711":1.2607977390289307,"712":3.0398988723754883,"713":1.5906434059143066,"714":-2.8953535556793213,"715":-0.8995450139045715,"716":-2.879709243774414,"717":-1.1181693077087402,"718":1.4051790237426758,"719":-0.37179046869277954,"720":2.5053653717041016,"721":-1.5737392902374268,"722":-2.1982998847961426,"723":-2.062509775161743,"724":-0.10327514261007309,"725":0.6901504397392273,"726":0.014037773944437504,"727":0.10913927853107452,"728":1.266147494316101,"729":3.867949962615967,"730":0.8629920482635498,"731":-0.1965687870979309,"732":0.47270509600639343,"733":-2.4226458072662354,"734":-4.04755973815918,"735":-3.0950405597686768,"736":-1.66624915599823,"737":2.4871132373809814,"738":1.6546485424041748,"739":3.1818132400512695,"740":-4.769951820373535,"741":5.070038318634033,"742":-0.23892031610012054,"743":-1.9045052528381348,"744":0.23312807083129883,"745":0.6344646215438843,"746":0.7266392707824707,"747":1.273905634880066,"748":-0.5875517725944519,"749":-2.4456541538238525,"750":0.6414245963096619,"751":-0.4615238606929779,"752":-1.2812106609344482,"753":0.002148654079064727,"754":1.1642957925796509,"755":1.054984211921692,"756":-2.6654345989227295,"757":-4.115715503692627,"758":2.8257274627685547,"759":-0.18542513251304626,"760":0.6692372560501099,"761":1.6508679389953613,"762":-2.9759368896484375,"763":-3.08823561668396,"764":-2.337294816970825,"765":-5.335340976715088,"766":-1.0821481943130493,"767":3.7859766483306885,"768":2.2934319972991943,"769":-0.5375529527664185,"770":3.8601560592651367,"771":1.9846044778823853,"772":0.4349978268146515,"773":-0.6633748412132263,"774":-0.28407469391822815,"775":-2.188112258911133,"776":-1.2215818166732788,"777":2.763042688369751,"778":-1.627442479133606,"779":-5.4672980308532715,"780":0.21942797303199768,"781":2.5743675231933594,"782":1.1463302373886108,"783":-0.24663712084293365,"784":-2.695502758026123,"785":1.8992100954055786,"786":2.6073317527770996,"787":0.48898088932037354,"788":-4.021544456481934,"789":-1.0158555507659912,"790":0.6085042357444763,"791":-2.119598388671875,"792":0.08018189668655396,"793":2.1841018199920654,"794":-1.344397783279419,"795":1.7233716249465942,"796":-2.3792381286621094,"797":-2.8163418769836426,"798":-0.9054727554321289,"799":4.947296142578125,"800":0.8526045083999634,"801":1.1544482707977295,"802":1.744687795639038,"803":-1.6257327795028687,"804":-1.1422765254974365,"805":-7.6065754890441895,"806":-2.2262232303619385,"807":-0.10524886101484299,"808":4.398211479187012,"809":0.008880766108632088,"810":0.20074743032455444,"811":0.029666196554899216,"812":-0.40988174080848694,"813":2.121494770050049,"814":-0.6638229489326477,"815":0.16827748715877533,"816":-5.362722396850586,"817":3.6435983180999756,"818":2.6872293949127197,"819":-0.33530956506729126,"820":1.651766061782837,"821":0.17929649353027344,"822":-4.6671037673950195,"823":2.4162888526916504,"824":-1.5203481912612915,"825":-0.44157084822654724,"826":-0.46228137612342834,"827":1.3108550310134888,"828":-5.032171249389648,"829":-0.5736565589904785,"830":-1.554722547531128,"831":-2.0455641746520996,"832":-3.7797439098358154,"833":-1.4850918054580688,"834":-0.1336124837398529,"835":1.3459889888763428,"836":0.7274827361106873,"837":0.7531710267066956,"838":4.445128917694092,"839":0.9714003801345825,"840":0.18341201543807983,"841":-0.14683562517166138,"842":-5.667511463165283,"843":-0.7459437251091003,"844":0.6805285215377808,"845":-1.1066826581954956,"846":-2.2500481605529785,"847":1.8017082214355469,"848":-1.15679132938385,"849":-0.11090617626905441,"850":5.546435832977295,"851":1.7025058269500732,"852":-0.6807081699371338,"853":-4.617794036865234,"854":-1.4403340816497803,"855":-2.3886146545410156,"856":1.899725317955017,"857":1.6645417213439941,"858":0.15679717063903809,"859":1.1274199485778809,"860":0.5786759853363037,"861":0.922211766242981,"862":-1.9196572303771973,"863":-1.8771281242370605,"864":-4.276772499084473,"865":-0.36165761947631836,"866":0.6374701261520386,"867":2.4220306873321533,"868":0.7513953447341919,"869":-2.6526505947113037,"870":-2.595477342605591,"871":0.02727540396153927,"872":2.6746084690093994,"873":6.177969455718994,"874":-1.2750554084777832,"875":4.212550640106201,"876":-4.6436920166015625,"877":-1.9492676258087158,"878":1.5766569375991821,"879":2.326629638671875,"880":-1.1940982341766357,"881":-4.656002998352051,"882":-0.9733225107192993,"883":2.0329926013946533,"884":2.2457103729248047,"885":2.7663192749023438,"886":1.0180890560150146,"887":2.5950334072113037,"888":1.4209086894989014,"889":-0.5046995282173157,"890":-2.7781033515930176,"891":2.609787940979004,"892":-1.0289785861968994,"893":2.4749538898468018,"894":0.3331063389778137,"895":1.4817619323730469,"896":2.8084146976470947,"897":-0.32362300157546997,"898":-4.218510150909424,"899":1.4522606134414673,"900":-0.37923648953437805,"901":7.553135871887207,"902":1.0655500888824463,"903":2.5468294620513916,"904":-0.16031986474990845,"905":-1.1614257097244263,"906":2.2636735439300537,"907":-1.0422662496566772,"908":0.4338643252849579,"909":-1.7258076667785645,"910":-0.8688138127326965,"911":1.6931936740875244,"912":-1.679280161857605,"913":-7.881922245025635,"914":1.8363491296768188,"915":0.4247466027736664,"916":4.597116947174072,"917":0.898272693157196,"918":1.6609187126159668,"919":-1.5785285234451294,"920":0.6216359734535217,"921":0.6570464372634888,"922":1.4122908115386963,"923":-0.5810409784317017,"924":1.3310526609420776,"925":-1.5361734628677368,"926":1.3220186233520508,"927":-0.5035516023635864,"928":0.8061882257461548,"929":-4.167672157287598,"930":-0.16224892437458038,"931":-1.2330564260482788,"932":1.7409290075302124,"933":0.10953202843666077,"934":0.6313385367393494,"935":-1.3035914897918701,"936":0.47978833317756653,"937":0.7402218580245972,"938":1.5731114149093628,"939":6.257031440734863,"940":1.031491994857788,"941":-1.9154387712478638,"942":-0.1901923269033432,"943":0.4001368284225464,"944":0.23809398710727692,"945":0.19603246450424194,"946":0.5665870904922485,"947":-1.207554817199707,"948":-2.087726354598999,"949":-1.0981849431991577,"950":-0.6018306612968445,"951":-0.5775434970855713,"952":3.995358943939209,"953":-1.9305143356323242,"954":3.9295411109924316,"955":-0.7722433805465698,"956":-2.1809232234954834,"957":0.41144421696662903,"958":0.4695887565612793,"959":-0.9806828498840332,"960":-1.3607388734817505,"961":2.2089905738830566,"962":0.9185929298400879,"963":0.5443502068519592,"964":0.21048356592655182,"965":0.7112308144569397,"966":1.2713309526443481,"967":-2.9289066791534424,"968":0.01100853644311428,"969":0.1915905475616455,"970":-1.1386334896087646,"971":-2.883005142211914,"972":1.911230206489563,"973":-0.4858502447605133,"974":0.8806284070014954,"975":-2.1321022510528564,"976":0.8490570783615112,"977":0.34450796246528625,"978":-4.784884452819824,"979":-0.5861729979515076,"980":-0.5458487272262573,"981":0.5345964431762695,"982":-1.2083888053894043,"983":-4.199967861175537,"984":1.255363941192627,"985":0.6519565582275391,"986":-0.5555197596549988,"987":0.21408385038375854,"988":0.3799525797367096,"989":-2.093203067779541,"990":-4.650412559509277,"991":0.4905964434146881,"992":0.7532169818878174,"993":-0.003184298751875758,"994":-2.211024761199951,"995":2.005450963973999,"996":1.4939796924591064,"997":1.1175835132598877,"998":-2.297145128250122,"999":0.04842616617679596,"1000":-1.294863224029541,"1001":5.235694408416748,"1002":0.40850889682769775,"1003":5.683152675628662,"1004":-0.5153192281723022,"1005":-0.6295039653778076,"1006":1.190323829650879,"1007":0.7808690071105957,"1008":-0.7120350003242493,"1009":-0.12910009920597076,"1010":0.5080819129943848,"1011":0.20623895525932312,"1012":-0.8954180479049683,"1013":0.28147926926612854,"1014":-0.7514088749885559,"1015":0.5755695700645447,"1016":-0.2696375846862793,"1017":-1.607611060142517,"1018":-4.058116436004639,"1019":1.3905702829360962,"1020":-0.7003881931304932,"1021":-0.6086806058883667,"1022":-2.4902446269989014,"1023":-4.34188985824585,"1024":0.07242460548877716,"1025":2.5555853843688965,"1026":-0.10988011956214905,"1027":1.385146975517273,"1028":0.20260798931121826,"1029":0.03676823899149895,"1030":1.8488260507583618,"1031":-6.106959819793701,"1032":0.37811222672462463,"1033":-1.234681248664856,"1034":-1.929228663444519,"1035":0.7808399200439453,"1036":-0.24048280715942383,"1037":-0.3187718689441681,"1038":-1.1011959314346313,"1039":-0.17835627496242523,"1040":-0.697757363319397,"1041":-0.8884615898132324,"1042":-0.5927601456642151,"1043":-0.5711089372634888,"1044":-0.583719789981842,"1045":2.76308536529541,"1046":1.8495970964431763,"1047":-0.8353877663612366,"1048":0.31443068385124207,"1049":-0.17957232892513275,"1050":1.4682129621505737,"1051":0.4058939218521118,"1052":1.8797945976257324,"1053":0.09228052943944931,"1054":0.8196787238121033,"1055":0.8515258431434631,"1056":0.009914491325616837,"1057":0.36377519369125366,"1058":-4.574814319610596,"1059":-3.192460775375366,"1060":-0.40343427658081055,"1061":0.5116307735443115,"1062":-2.3400516510009766,"1063":1.2212435007095337,"1064":1.2321701049804688,"1065":0.5457623600959778,"1066":-3.567438840866089,"1067":-4.255636215209961,"1068":-3.6642420291900635,"1069":0.2609611749649048,"1070":-6.321084022521973,"1071":2.067934274673462,"1072":-0.6197892427444458,"1073":1.3706531524658203,"1074":0.8774380683898926,"1075":1.9526258707046509,"1076":-2.4741032123565674,"1077":-2.1718130111694336,"1078":0.8510063290596008,"1079":-0.8886640667915344,"1080":0.6076585650444031,"1081":0.004190301522612572,"1082":5.146365165710449,"1083":0.21263858675956726,"1084":1.4503096342086792,"1085":1.4758307933807373,"1086":0.7667364478111267,"1087":3.4816296100616455,"1088":-0.3216988146305084,"1089":-2.047974109649658,"1090":1.9625667333602905,"1091":2.2177679538726807,"1092":0.9284053444862366,"1093":-0.003816302865743637,"1094":1.1001901626586914,"1095":0.140793114900589,"1096":-0.9077594876289368,"1097":-0.18274527788162231,"1098":-0.8355745077133179,"1099":1.3137364387512207,"1100":-2.4525701999664307,"1101":-6.62021541595459,"1102":-0.11886689811944962,"1103":1.0735480785369873,"1104":0.7131449580192566,"1105":4.048973083496094,"1106":-0.8192819356918335,"1107":-0.9062800407409668,"1108":-1.486601710319519,"1109":-1.1378045082092285,"1110":-0.08871765434741974,"1111":-1.820918083190918,"1112":0.2547256052494049,"1113":-0.8270183205604553,"1114":-0.5912486910820007,"1115":1.209700584411621,"1116":-1.7785171270370483,"1117":2.3992581367492676,"1118":0.7031813859939575,"1119":0.5981934070587158,"1120":-0.04183201864361763,"1121":-2.0681357383728027,"1122":0.4819357991218567,"1123":-0.8087987899780273,"1124":0.3027280569076538,"1125":3.1207878589630127,"1126":-0.9181717038154602,"1127":2.1370325088500977,"1128":-0.1804829239845276,"1129":-2.17217755317688,"1130":-0.48274853825569153,"1131":2.6773910522460938,"1132":0.9779303073883057,"1133":3.638914108276367,"1134":-4.0484700202941895,"1135":-0.6015468239784241,"1136":-3.0496156215667725,"1137":-0.33879464864730835,"1138":0.2063463032245636,"1139":-1.2644422054290771,"1140":0.6909388899803162,"1141":-1.1910539865493774,"1142":0.9019247889518738,"1143":4.589621067047119,"1144":0.5716568827629089,"1145":0.0022553675808012486,"1146":1.6791976690292358,"1147":-1.2631160020828247,"1148":0.8951308131217957,"1149":1.7383908033370972,"1150":-2.7600860595703125,"1151":1.7444775104522705,"1152":-0.3836582899093628,"1153":-3.7196338176727295,"1154":-1.1992994546890259,"1155":-3.637991428375244,"1156":-1.242603063583374,"1157":0.24288994073867798,"1158":-2.2639994621276855,"1159":-1.2112696170806885,"1160":-1.0434238910675049,"1161":1.290513038635254,"1162":-2.3591763973236084,"1163":0.7620020508766174,"1164":-3.3132076263427734,"1165":-1.280089259147644,"1166":4.268154144287109,"1167":-0.730558454990387,"1168":-0.9281363487243652,"1169":0.8441277146339417,"1170":1.9397838115692139,"1171":-3.0545365810394287,"1172":-7.705169677734375,"1173":2.1820120811462402,"1174":-3.203148603439331,"1175":-0.6710718274116516,"1176":-0.13040097057819366,"1177":-0.27860361337661743,"1178":-4.3530402183532715,"1179":4.6537065505981445,"1180":4.399518013000488,"1181":0.8280242085456848,"1182":-2.5543630123138428,"1183":0.9929401278495789,"1184":1.1948422193527222,"1185":-0.6242457628250122,"1186":0.7130335569381714,"1187":-2.0496790409088135,"1188":-3.395484447479248,"1189":2.3010075092315674,"1190":1.136186957359314,"1191":1.8692541122436523,"1192":1.8867874145507812,"1193":3.1022984981536865,"1194":6.67802619934082,"1195":3.76322865486145,"1196":5.652056694030762,"1197":4.186959266662598,"1198":3.0180623531341553,"1199":-4.670506477355957,"1200":-3.516904830932617,"1201":0.9194422364234924,"1202":2.5993261337280273,"1203":-6.530002117156982,"1204":3.089395046234131,"1205":0.13549423217773438,"1206":-1.9909569025039673,"1207":1.2241078615188599,"1208":2.1688907146453857,"1209":1.0602902173995972,"1210":-8.4916410446167,"1211":3.3635926246643066,"1212":-3.012471914291382,"1213":3.3009862899780273,"1214":2.122191905975342,"1215":-2.9639244079589844,"1216":4.411909580230713,"1217":5.053253173828125,"1218":-0.3484943211078644,"1219":0.2769363522529602,"1220":1.8425594568252563,"1221":-4.191053867340088,"1222":-1.7218960523605347,"1223":0.0015969079686328769,"1224":-1.1639724969863892,"1225":0.9602813720703125,"1226":-2.1492249965667725,"1227":-4.002336025238037,"1228":0.18082769215106964,"1229":4.28599739074707,"1230":0.3445702791213989,"1231":-7.361983776092529,"1232":1.7812553644180298,"1233":-0.07229477912187576,"1234":-2.6511471271514893,"1235":5.523685932159424,"1236":1.169980525970459,"1237":0.8896192908287048,"1238":0.8068969249725342,"1239":0.7839966416358948,"1240":-3.635359287261963,"1241":-5.0114312171936035,"1242":3.472827434539795,"1243":-0.7627405524253845,"1244":0.1496151089668274,"1245":-0.40914735198020935,"1246":1.1009200811386108,"1247":2.644695281982422,"1248":-3.0495994091033936,"1249":0.7048451900482178,"1250":3.5698490142822266,"1251":0.25906476378440857,"1252":-2.161118984222412,"1253":2.9080042839050293,"1254":-0.00905738677829504,"1255":4.0686750411987305,"1256":-2.0766642093658447,"1257":-2.0293803215026855,"1258":-0.22191299498081207,"1259":0.9092345237731934,"1260":-2.6989567279815674,"1261":2.767270088195801,"1262":-1.3459386825561523,"1263":1.6967768669128418,"1264":0.9774128198623657,"1265":1.2706245183944702,"1266":-1.7137337923049927,"1267":-1.9935040473937988,"1268":0.9747219681739807,"1269":0.19442225992679596,"1270":-0.4369449019432068,"1271":-0.7113633155822754,"1272":-1.3201428651809692,"1273":-1.3987311124801636,"1274":0.9689289927482605,"1275":4.445873260498047,"1276":0.10890409350395203,"1277":2.0339767932891846,"1278":-1.7488703727722168,"1279":-2.3603549003601074,"1280":-1.8938344717025757,"1281":-5.797247886657715,"1282":-0.04406195878982544,"1283":-4.751696586608887,"1284":-1.7289682626724243,"1285":-1.039796233177185,"1286":2.0988903045654297,"1287":5.151656150817871,"1288":-3.3799028396606445,"1289":-2.7439846992492676,"1290":-0.13052158057689667,"1291":3.524115562438965,"1292":-3.5196609497070312,"1293":0.36347252130508423,"1294":-0.05747166648507118,"1295":1.4011794328689575,"1296":-0.6317429542541504,"1297":-0.7835687398910522,"1298":1.5814844369888306,"1299":-1.883361577987671,"1300":0.5044686198234558,"1301":3.6056337356567383,"1302":-1.7345038652420044,"1303":3.8982160091400146,"1304":-0.7342696189880371,"1305":1.2748386859893799,"1306":-0.762329638004303,"1307":-3.1599626541137695,"1308":-0.782785952091217,"1309":0.13469262421131134,"1310":2.228330612182617,"1311":-0.5158029198646545,"1312":-1.7924965620040894,"1313":-0.8406223058700562,"1314":-3.4897079467773438,"1315":2.545754909515381,"1316":-1.084571123123169,"1317":2.2098090648651123,"1318":-0.9490768909454346,"1319":-0.5546044111251831,"1320":-0.8431439995765686,"1321":0.783089280128479,"1322":6.1778340339660645,"1323":0.49414515495300293,"1324":0.3886580765247345,"1325":-2.7516732215881348,"1326":-0.446167916059494,"1327":4.98819637298584,"1328":-2.3289575576782227,"1329":0.6986103653907776,"1330":-0.14614486694335938,"1331":1.1400903463363647,"1332":-0.2800750732421875,"1333":-1.251649260520935,"1334":-0.03503435105085373,"1335":1.1233004331588745,"1336":-0.10359986871480942,"1337":-2.18162202835083,"1338":1.1368935108184814,"1339":-1.4860320091247559,"1340":-0.807321310043335,"1341":2.1165547370910645,"1342":-3.479119300842285,"1343":1.020745873451233,"1344":0.1963106244802475,"1345":-3.250361919403076,"1346":0.5524720549583435,"1347":1.006579041481018,"1348":-2.4823973178863525,"1349":-1.6230913400650024,"1350":1.233298659324646,"1351":-0.26030710339546204,"1352":-2.305091381072998,"1353":-2.555163621902466,"1354":0.6165016293525696,"1355":0.839654266834259,"1356":1.9663503170013428,"1357":-2.797598123550415,"1358":-1.9216275215148926,"1359":-0.16958826780319214,"1360":-0.4856948256492615,"1361":0.04225495085120201,"1362":3.394618511199951,"1363":-0.4384639263153076,"1364":-1.8185477256774902,"1365":-0.5357721447944641,"1366":-7.3984527587890625,"1367":3.435406446456909,"1368":-1.6370817422866821,"1369":0.1816963255405426,"1370":2.003124952316284,"1371":-1.8063726425170898,"1372":1.7984766960144043,"1373":-3.376701593399048,"1374":4.70590877532959,"1375":2.913620948791504,"1376":13.153109550476074,"1377":2.9557158946990967,"1378":-2.392186164855957,"1379":3.8496787548065186,"1380":0.46544933319091797,"1381":4.928250789642334,"1382":-13.031975746154785,"1383":-3.9789249897003174,"1384":-1.8993936777114868,"1385":-1.6617306470870972,"1386":-7.522841930389404,"1387":0.19604162871837616,"1388":-4.490009784698486,"1389":-0.42030608654022217,"1390":-0.9747071862220764,"1391":-2.1501386165618896,"1392":0.7448232769966125,"1393":1.900425910949707,"1394":-2.5976650714874268,"1395":-0.4958608150482178,"1396":1.3977569341659546,"1397":2.5838675498962402,"1398":0.7706552743911743,"1399":3.3556761741638184,"1400":-1.5330617427825928,"1401":-7.54468297958374,"1402":8.145623207092285,"1403":-0.6885649561882019,"1404":-1.2974482774734497,"1405":-0.04035376384854317,"1406":-0.09690409898757935,"1407":6.976789474487305,"1408":-2.6356327533721924,"1409":-2.714547872543335,"1410":2.804060220718384,"1411":-1.7566101551055908,"1412":2.529205799102783,"1413":-2.2061164379119873,"1414":-1.2066240310668945,"1415":1.3395898342132568,"1416":-0.9293717741966248,"1417":-4.317323684692383,"1418":-2.5693843364715576,"1419":-2.0246529579162598,"1420":6.489920139312744,"1421":1.0302234888076782,"1422":-2.736826181411743,"1423":1.8046766519546509,"1424":-4.58512544631958,"1425":-2.4637889862060547,"1426":0.9317407608032227,"1427":6.248147964477539,"1428":4.328060150146484,"1429":-5.1934027671813965,"1430":-0.7629562616348267,"1431":-2.3112576007843018,"1432":-2.8754990100860596,"1433":-1.7516518831253052,"1434":1.8265869617462158,"1435":2.186014413833618,"1436":1.4263375997543335,"1437":0.6453168988227844,"1438":-1.1730784177780151,"1439":-0.5089238882064819,"1440":1.3895937204360962,"1441":0.966478168964386,"1442":-2.236246347427368,"1443":1.2339494228363037,"1444":1.7942547798156738,"1445":-0.2181825488805771,"1446":-4.420040607452393,"1447":4.654848575592041,"1448":2.818005084991455,"1449":-0.6936933994293213,"1450":-0.6092760562896729,"1451":3.880786180496216,"1452":3.635167121887207,"1453":-1.2615572214126587,"1454":-3.586568832397461,"1455":1.1896051168441772,"1456":-0.941271960735321,"1457":-0.986323893070221,"1458":1.3567352294921875,"1459":-3.705354690551758,"1460":-0.442503422498703,"1461":1.6924763917922974,"1462":2.504168748855591,"1463":1.6703896522521973,"1464":-2.58478045463562,"1465":0.8511934876441956,"1466":-2.5875494480133057,"1467":0.8322831392288208,"1468":7.514420032501221,"1469":-0.7246525287628174,"1470":1.480407476425171,"1471":-1.3006620407104492,"1472":-2.371467113494873,"1473":2.16607928276062,"1474":3.1534411907196045,"1475":-1.913175106048584,"1476":-2.720797538757324,"1477":4.602208614349365,"1478":-0.42903366684913635,"1479":1.2932623624801636,"1480":-2.983989715576172,"1481":1.474441409111023,"1482":-1.2621389627456665,"1483":-1.8060078620910645,"1484":-2.2451467514038086,"1485":1.2088103294372559,"1486":1.2272809743881226,"1487":-0.1331200748682022,"1488":-0.9911953806877136,"1489":-3.2339234352111816,"1490":-3.183199167251587,"1491":-2.005059003829956,"1492":2.323408603668213,"1493":-2.648831605911255,"1494":0.11568120867013931,"1495":-0.9489962458610535,"1496":-1.9746739864349365,"1497":-5.577775478363037,"1498":-2.851245880126953,"1499":-1.0230519771575928,"1500":-6.03575325012207,"1501":0.7062511444091797,"1502":-3.631295919418335,"1503":2.186464548110962,"1504":-0.8947321176528931,"1505":-3.0529754161834717,"1506":-3.198255777359009,"1507":-1.7437632083892822,"1508":0.417041540145874,"1509":10.441550254821777,"1510":12.40436840057373,"1511":-0.07957395166158676,"1512":8.15194320678711,"1513":4.634524822235107,"1514":-5.243767738342285,"1515":0.25352025032043457,"1516":5.515242099761963,"1517":4.215010166168213,"1518":-2.4876558780670166,"1519":-4.696481704711914,"1520":-0.6145817041397095,"1521":-5.491405487060547,"1522":-5.072055339813232,"1523":-0.4008437693119049,"1524":4.282179832458496,"1525":3.901437520980835,"1526":1.1070489883422852,"1527":1.0256093740463257,"1528":-0.6907235980033875,"1529":-3.414874315261841,"1530":-1.3172390460968018,"1531":0.4199131429195404,"1532":-0.3773577809333801,"1533":5.007812023162842,"1534":-1.1622183322906494,"1535":-5.270964622497559,"1536":-1.2481356859207153,"1537":4.968081474304199,"1538":0.5887943506240845,"1539":2.627476215362549,"1540":9.689605712890625,"1541":-2.6273069381713867,"1542":0.6492723822593689,"1543":2.151660919189453,"1544":0.28000763058662415,"1545":1.2934389114379883,"1546":5.137827396392822,"1547":4.336380958557129,"1548":-4.840668201446533,"1549":3.4812662601470947,"1550":0.9477933049201965,"1551":1.327631950378418,"1552":7.539059162139893,"1553":1.8533215522766113,"1554":4.047914981842041,"1555":3.434494972229004,"1556":0.5643026232719421,"1557":0.9902855753898621,"1558":1.4095287322998047,"1559":2.5126943588256836,"1560":-1.453665018081665,"1561":-1.3854360580444336,"1562":1.2360131740570068,"1563":-0.48934122920036316,"1564":0.2326768934726715,"1565":7.2291460037231445,"1566":2.928401231765747,"1567":1.3886545896530151,"1568":1.142526388168335,"1569":-1.6282070875167847,"1570":0.30211934447288513,"1571":-0.8967840671539307,"1572":-2.4336931705474854,"1573":1.6126046180725098,"1574":3.330040216445923,"1575":-3.998483180999756,"1576":-0.4572064280509949,"1577":-2.9354519844055176,"1578":-4.968488693237305,"1579":-5.248040199279785,"1580":-0.7139021158218384,"1581":3.2020254135131836,"1582":1.5125432014465332,"1583":-2.3888959884643555,"1584":1.2120747566223145,"1585":1.3593815565109253,"1586":-1.1457576751708984,"1587":-0.8346870541572571,"1588":-0.5733763575553894,"1589":-0.36499732732772827,"1590":-2.0754847526550293,"1591":0.48044830560684204,"1592":-0.2621292471885681,"1593":-3.2783632278442383,"1594":1.5193921327590942,"1595":1.9931923151016235,"1596":3.0423946380615234,"1597":1.257748007774353,"1598":-1.2534500360488892,"1599":-0.43317869305610657,"1600":4.094244480133057,"1601":0.2593294382095337,"1602":-2.1557424068450928,"1603":-0.8237022161483765,"1604":-0.9285374879837036,"1605":-2.3065907955169678,"1606":-0.552813708782196,"1607":-3.4929802417755127,"1608":-2.4574451446533203,"1609":-2.491081476211548,"1610":2.48689603805542,"1611":-0.7253907918930054,"1612":-5.00955867767334,"1613":0.2805020213127136,"1614":0.24111951887607574,"1615":2.2160253524780273,"1616":-1.0886448621749878,"1617":0.6952511668205261,"1618":-0.7714369893074036,"1619":-1.3702609539031982,"1620":-0.33012571930885315,"1621":-2.896024227142334,"1622":-0.6972148418426514,"1623":-2.7327020168304443,"1624":-0.647369921207428,"1625":-2.4370620250701904,"1626":6.326768398284912,"1627":-5.169974327087402,"1628":-1.620182991027832,"1629":15.379416465759277,"1630":4.614603519439697,"1631":1.3359438180923462,"1632":1.6178637742996216,"1633":2.786651372909546,"1634":-7.060359477996826,"1635":6.824767112731934,"1636":-6.925078392028809,"1637":0.5150874257087708,"1638":2.4276297092437744,"1639":-1.652397632598877,"1640":24.090505599975586,"1641":-6.838564395904541,"1642":-1.7260545492172241,"1643":2.5848774909973145,"1644":-1.7669496536254883,"1645":-3.282658100128174,"1646":-4.7920050621032715,"1647":4.899559497833252,"1648":0.19249622523784637,"1649":0.7835611701011658,"1650":2.0179708003997803,"1651":-9.643695831298828,"1652":-4.141157150268555,"1653":8.826027870178223,"1654":-8.90613079071045,"1655":-5.251680374145508,"1656":3.8259549140930176,"1657":-0.267452210187912,"1658":1.1809755563735962,"1659":-0.5424184799194336,"1660":-7.204202651977539,"1661":3.850391149520874,"1662":4.20659065246582,"1663":0.24126741290092468,"1664":-0.10367574542760849,"1665":5.022920608520508,"1666":2.3061230182647705,"1667":-13.346142768859863,"1668":-3.024268388748169,"1669":9.151739120483398,"1670":-4.830716609954834,"1671":8.293248176574707,"1672":-8.267486572265625,"1673":3.1876487731933594,"1674":5.912674427032471,"1675":0.7824888229370117,"1676":6.898098468780518,"1677":-8.599862098693848,"1678":-0.1112944483757019,"1679":-11.00390338897705,"1680":-3.003082275390625,"1681":3.3591415882110596,"1682":-7.990602016448975,"1683":2.5277528762817383,"1684":2.5139658451080322,"1685":-13.403275489807129,"1686":-10.395926475524902,"1687":-5.26482629776001,"1688":2.7724592685699463,"1689":2.505629777908325,"1690":-1.9388772249221802,"1691":1.2457795143127441,"1692":-2.5741302967071533,"1693":3.671773910522461,"1694":2.2253925800323486,"1695":1.5201555490493774,"1696":5.030172348022461,"1697":-0.48900163173675537,"1698":-0.4114415645599365,"1699":-10.319299697875977,"1700":6.4739670753479,"1701":-0.35296621918678284,"1702":4.999584197998047,"1703":0.4950770139694214,"1704":-0.6556728482246399,"1705":-5.83969259262085,"1706":4.637856960296631,"1707":-8.935770988464355,"1708":-1.2257070541381836,"1709":3.252830982208252,"1710":-4.51677131652832,"1711":2.3163139820098877,"1712":-0.17586398124694824,"1713":-4.952033996582031,"1714":0.005372409243136644,"1715":2.0257949829101562,"1716":-8.168744087219238,"1717":3.7259583473205566,"1718":-2.214402914047241,"1719":-0.6774836778640747,"1720":-2.3373496532440186,"1721":6.0315704345703125,"1722":1.5213969945907593,"1723":0.6297889947891235,"1724":6.082050800323486,"1725":5.462892532348633,"1726":-3.2256765365600586,"1727":8.105511665344238,"1728":7.970309734344482,"1729":-2.7505385875701904,"1730":-4.418976783752441,"1731":-3.2173399925231934,"1732":4.992753028869629,"1733":2.4213168621063232,"1734":8.15906810760498,"1735":0.21793566644191742,"1736":4.185573101043701,"1737":-2.546750545501709,"1738":-9.216437339782715,"1739":1.5374280214309692,"1740":-1.7807742357254028,"1741":1.940274953842163,"1742":-1.1491711139678955,"1743":0.27018991112709045,"1744":-0.7591196298599243,"1745":-1.051034688949585,"1746":-0.6144935488700867,"1747":4.08176326751709,"1748":-5.979346752166748,"1749":-2.2118659019470215,"1750":0.772274911403656,"1751":0.9619203805923462,"1752":0.020001495257019997,"1753":3.493694305419922,"1754":4.2037434577941895,"1755":-1.5554678440093994,"1756":2.381354331970215,"1757":5.564527988433838,"1758":-0.9654750227928162,"1759":1.6344711780548096,"1760":-1.3465559482574463,"1761":-0.5297747850418091,"1762":-0.1311219483613968,"1763":0.5086469054222107,"1764":1.2670114040374756,"1765":2.5449366569519043,"1766":-2.7391133308410645,"1767":-0.84288489818573,"1768":-2.3952958583831787,"1769":0.9480068683624268,"1770":-2.981600522994995,"1771":-1.8122233152389526,"1772":-3.1519010066986084,"1773":-1.1794036626815796,"1774":0.6673594117164612,"1775":1.6153205633163452,"1776":1.5465948581695557,"1777":-0.3555949628353119,"1778":-2.025827407836914,"1779":-3.926731586456299,"1780":-2.55613112449646,"1781":-1.8237870931625366,"1782":-0.2679348886013031,"1783":-3.709399938583374,"1784":-1.7195873260498047,"1785":-0.30282115936279297,"1786":-0.7953242659568787,"1787":-1.0851949453353882,"1788":1.1973178386688232,"1789":0.5339071154594421,"1790":0.2928851544857025,"1791":-0.16535070538520813,"1792":-0.26268965005874634,"1793":-1.5930376052856445,"1794":0.15607710182666779,"1795":0.9293217658996582,"1796":-1.140601634979248,"1797":-0.6956304311752319,"1798":0.9722741842269897,"1799":0.4427463412284851,"1800":2.341923952102661,"1801":0.9933832287788391,"1802":2.5109524726867676,"1803":-1.4816986322402954,"1804":1.2175008058547974,"1805":1.9399116039276123,"1806":-2.959289789199829,"1807":-0.8607266545295715,"1808":0.08859768509864807,"1809":-1.508237600326538,"1810":0.599531352519989,"1811":-1.7747530937194824,"1812":-0.7697813510894775,"1813":-1.783388614654541,"1814":-1.262616515159607,"1815":0.31489354372024536,"1816":1.0791044235229492,"1817":-0.7349071502685547,"1818":-1.2401976585388184,"1819":-1.5611963272094727,"1820":-1.0093940496444702,"1821":-3.339486598968506,"1822":-1.239617943763733,"1823":-3.2355260848999023,"1824":-1.4780033826828003,"1825":0.9209277629852295,"1826":-0.41672125458717346,"1827":1.781519889831543,"1828":5.72118616104126,"1829":2.4002444744110107,"1830":-4.461061954498291,"1831":0.679199755191803,"1832":4.912674427032471,"1833":1.2457683086395264,"1834":1.882577657699585,"1835":-1.1585601568222046,"1836":0.06463763117790222,"1837":2.8059468269348145,"1838":5.946494102478027,"1839":-1.60434091091156,"1840":-0.6208043694496155,"1841":-3.8477437496185303,"1842":3.6693477630615234,"1843":-0.5593611001968384,"1844":-0.854881227016449,"1845":-1.0792030096054077,"1846":7.617406845092773,"1847":-3.0678489208221436,"1848":2.6441545486450195,"1849":-1.6327570676803589,"1850":2.7752649784088135,"1851":-0.10907532274723053,"1852":1.6929407119750977,"1853":-1.5882847309112549,"1854":-1.81496000289917,"1855":0.8257349729537964,"1856":-1.1691728830337524,"1857":1.3075019121170044,"1858":-0.5063560605049133,"1859":4.173411846160889,"1860":2.6040334701538086,"1861":-0.5687717199325562,"1862":1.5393577814102173,"1863":1.9780948162078857,"1864":-1.7411690950393677,"1865":2.4317357540130615,"1866":1.2196942567825317,"1867":-5.018165111541748,"1868":-1.3415987491607666,"1869":1.1013020277023315,"1870":-2.029409408569336,"1871":-0.803754448890686,"1872":0.8237087726593018,"1873":-2.0292532444000244,"1874":-3.765068292617798,"1875":-4.432801723480225,"1876":-0.7883179187774658,"1877":-3.4439806938171387,"1878":-0.37491703033447266,"1879":-1.0474927425384521,"1880":-4.120773792266846,"1881":0.7206822037696838,"1882":0.517096221446991,"1883":-0.6949658393859863,"1884":3.2755637168884277,"1885":-2.3732619285583496,"1886":4.7336225509643555,"1887":-4.303641319274902,"1888":4.18851900100708,"1889":-0.27193841338157654,"1890":-7.526203155517578,"1891":-4.197059631347656,"1892":-2.2722434997558594,"1893":2.487405776977539,"1894":3.883539915084839,"1895":4.667919158935547,"1896":-1.17998206615448,"1897":-2.41176700592041,"1898":0.5100796818733215,"1899":0.9221171736717224,"1900":-1.810042142868042,"1901":-1.227571964263916,"1902":3.843351125717163,"1903":-3.2468202114105225,"1904":1.6901121139526367,"1905":0.795739471912384,"1906":5.352781772613525,"1907":0.4525964856147766,"1908":0.6109482049942017,"1909":2.2230570316314697,"1910":2.3208444118499756,"1911":7.978992938995361,"1912":-0.8000528812408447,"1913":9.161211013793945,"1914":0.1219053789973259,"1915":-5.748383045196533,"1916":-0.10111826658248901,"1917":-0.5596671104431152,"1918":-1.5693374872207642,"1919":-1.5170142650604248,"1920":0.864179790019989,"1921":1.2477154731750488,"1922":-1.627044677734375,"1923":-1.1481293439865112,"1924":1.553995966911316,"1925":1.2829433679580688,"1926":1.1367857456207275,"1927":3.4167277812957764,"1928":-0.7454012632369995,"1929":9.457218170166016,"1930":-2.438387393951416,"1931":1.2438578605651855,"1932":3.807050943374634,"1933":-4.996100425720215,"1934":-1.8616955280303955,"1935":0.0004495444009080529,"1936":0.5128639936447144,"1937":-1.1613221168518066,"1938":-2.0561764240264893,"1939":0.8214194178581238,"1940":0.46240490674972534,"1941":2.570735216140747,"1942":1.8891574144363403,"1943":-0.30275434255599976,"1944":-5.277540683746338,"1945":1.3428142070770264,"1946":7.956943511962891,"1947":-3.260416269302368,"1948":0.3932676315307617,"1949":-2.501298189163208,"1950":-10.314619064331055,"1951":2.017188787460327,"1952":-2.256371259689331,"1953":6.252546310424805,"1954":0.5649121403694153,"1955":-5.596005916595459,"1956":-3.2783093452453613,"1957":-0.8861600160598755,"1958":2.5583159923553467,"1959":3.9680566787719727,"1960":2.6200242042541504,"1961":0.22891493141651154,"1962":-0.11642305552959442,"1963":0.837134063243866,"1964":-1.3434957265853882,"1965":4.7890706062316895,"1966":1.1472355127334595,"1967":-1.5946316719055176,"1968":-3.1121320724487305,"1969":3.65147066116333,"1970":-2.0042364597320557,"1971":-0.0009692287421785295,"1972":4.243740081787109,"1973":-6.704005718231201,"1974":-6.366872310638428,"1975":4.039858341217041,"1976":2.311605215072632,"1977":2.3071494102478027,"1978":-3.346982955932617,"1979":-3.62514328956604,"1980":-3.615373373031616,"1981":0.8658807873725891,"1982":-1.757961630821228,"1983":-5.4010796546936035,"1984":-0.78440260887146,"1985":-4.780918598175049,"1986":2.6364593505859375,"1987":3.9984381198883057,"1988":2.0146658420562744,"1989":2.562173366546631,"1990":-0.2785073220729828,"1991":-3.612117052078247,"1992":-0.7208220362663269,"1993":-2.8308796882629395,"1994":7.078158855438232,"1995":-0.43562278151512146,"1996":1.6680107116699219,"1997":-2.293731451034546,"1998":2.7517199516296387,"1999":-5.359663963317871,"2000":-0.30654218792915344,"2001":0.026332175359129906,"2002":-1.2273807525634766,"2003":-4.35637092590332,"2004":0.5576720833778381,"2005":1.535758137702942,"2006":-3.3240344524383545,"2007":1.7708768844604492,"2008":-7.252254486083984,"2009":1.1034314632415771,"2010":1.1623165607452393,"2011":-1.36995267868042,"2012":4.0302910804748535,"2013":-1.8496520519256592,"2014":-0.5338321328163147,"2015":-1.5020627975463867,"2016":-1.4918409585952759,"2017":-0.9496433734893799,"2018":1.8158782720565796,"2019":0.12430989742279053,"2020":1.2542067766189575,"2021":-0.3531436026096344,"2022":0.23700746893882751,"2023":1.297226071357727,"2024":0.7220454216003418,"2025":0.5918042063713074,"2026":-0.03522782400250435,"2027":-0.3549570143222809,"2028":1.488743543624878,"2029":-0.4781120717525482,"2030":-1.6920641660690308,"2031":-1.372135877609253,"2032":3.0716938972473145,"2033":-1.1183596849441528,"2034":-3.04817271232605,"2035":2.0987746715545654,"2036":-2.094666004180908,"2037":1.4392504692077637,"2038":1.8529813289642334,"2039":-0.1181652843952179,"2040":2.6187808513641357,"2041":-0.17290951311588287,"2042":1.5127485990524292,"2043":-0.9053325653076172,"2044":-0.701548159122467,"2045":-3.3594565391540527,"2046":-4.98430061340332,"2047":-0.8966672420501709,"2048":-1.617078423500061,"2049":-3.128660202026367,"2050":-0.8273196816444397,"2051":1.8912570476531982,"2052":-2.9080588817596436,"2053":0.06785929948091507,"2054":-0.24571263790130615,"2055":-0.7144011855125427,"2056":1.0741132497787476,"2057":-2.0736136436462402,"2058":0.9848882555961609,"2059":1.6241164207458496,"2060":-1.8038256168365479,"2061":0.3389315903186798,"2062":-1.7797491550445557,"2063":-4.784722328186035,"2064":0.4158298671245575,"2065":-1.9472147226333618,"2066":-2.8767240047454834,"2067":-2.9894614219665527,"2068":1.0950349569320679,"2069":-0.9708072543144226,"2070":1.0891703367233276,"2071":0.9826779365539551,"2072":-0.6560369729995728,"2073":0.06508482247591019,"2074":1.8000448942184448,"2075":-4.877168655395508,"2076":-4.57861852645874,"2077":-1.1702607870101929,"2078":-0.4829278886318207,"2079":-1.045246958732605,"2080":-1.471908450126648,"2081":0.5231863856315613,"2082":-3.364917039871216,"2083":-0.75774085521698,"2084":0.22769726812839508,"2085":1.1165930032730103,"2086":-0.1841486245393753,"2087":-3.2735867500305176,"2088":-1.671188473701477,"2089":2.385965347290039,"2090":-1.8793967962265015,"2091":0.08886848390102386,"2092":2.240851402282715,"2093":-3.3630294799804688,"2094":-0.7708645462989807,"2095":-0.12024892866611481,"2096":-1.937400460243225,"2097":-2.450875997543335,"2098":5.050475120544434,"2099":-0.7078997492790222,"2100":2.0080652236938477,"2101":-1.8534715175628662,"2102":-3.877659559249878,"2103":-2.001462936401367,"2104":0.8702101111412048,"2105":-0.6202688813209534,"2106":2.2848806381225586,"2107":0.40247097611427307,"2108":-0.25433507561683655,"2109":-3.1825549602508545,"2110":1.112705111503601,"2111":-0.16312849521636963,"2112":0.2178420126438141,"2113":-0.8384754657745361,"2114":2.312389850616455,"2115":2.7227389812469482,"2116":-1.3143590688705444,"2117":4.31436824798584,"2118":1.653100848197937,"2119":-1.1630505323410034,"2120":0.24564222991466522,"2121":-0.5058166980743408,"2122":2.9361324310302734,"2123":0.5958278179168701,"2124":1.373565673828125,"2125":-0.1661091148853302,"2126":-0.7451227307319641,"2127":-0.4294587969779968,"2128":2.8488752841949463,"2129":2.676602602005005,"2130":0.8806111216545105,"2131":2.1571812629699707,"2132":-0.05973988398909569,"2133":2.4173741340637207,"2134":-2.4438183307647705,"2135":-1.5000494718551636,"2136":5.262097358703613,"2137":-1.4075514078140259,"2138":-2.1396262645721436,"2139":-0.9668699502944946,"2140":2.7674520015716553,"2141":-0.9821577072143555,"2142":-3.230087995529175,"2143":-0.2769363820552826,"2144":2.4198672771453857,"2145":0.6795165538787842,"2146":-3.6771912574768066,"2147":1.2443870306015015,"2148":-0.15242311358451843,"2149":-2.243542194366455,"2150":0.9906823635101318,"2151":-2.1927692890167236,"2152":-1.3899255990982056,"2153":2.384044885635376,"2154":0.8346313238143921,"2155":1.973207950592041,"2156":-0.012916338630020618,"2157":0.1230582520365715,"2158":-1.756584882736206,"2159":-1.8662853240966797,"2160":-5.355687141418457,"2161":-5.130843162536621,"2162":-3.3337562084198,"2163":-4.351795673370361,"2164":0.12807202339172363,"2165":2.9692232608795166,"2166":0.0016888005193322897,"2167":0.9756212830543518,"2168":-0.4854879677295685,"2169":-0.17671334743499756,"2170":0.8736369609832764,"2171":2.7202155590057373,"2172":0.6190786361694336,"2173":-0.6107879281044006,"2174":-1.9410408735275269,"2175":-2.840409278869629,"2176":-0.10660262405872345,"2177":-1.0079740285873413,"2178":0.34765514731407166,"2179":-0.030655568465590477,"2180":-0.8164183497428894,"2181":-0.09070656448602676,"2182":-1.0565881729125977,"2183":-0.7730420231819153,"2184":2.9610209465026855,"2185":-1.1251260042190552,"2186":0.2730521261692047,"2187":0.12171781808137894,"2188":0.9399291276931763,"2189":1.5141630172729492,"2190":1.7722771167755127,"2191":0.7899636626243591,"2192":-1.711809515953064,"2193":-1.9248676300048828,"2194":0.7271236777305603,"2195":3.8063340187072754,"2196":-1.3340098857879639,"2197":0.9916958808898926,"2198":-1.4626455307006836,"2199":-2.1447043418884277,"2200":-0.26779237389564514,"2201":2.3650269508361816,"2202":-0.5707383751869202,"2203":-0.9405333399772644,"2204":-1.8421863317489624,"2205":1.5445691347122192,"2206":5.0894927978515625,"2207":-0.22632449865341187,"2208":1.3961457014083862,"2209":6.3277435302734375,"2210":-12.594977378845215,"2211":3.4866604804992676,"2212":1.4141719341278076,"2213":-3.315056800842285,"2214":4.157302379608154,"2215":-8.086530685424805,"2216":-3.9221842288970947,"2217":-2.043478012084961,"2218":2.7281579971313477,"2219":2.3995542526245117,"2220":1.1528946161270142,"2221":2.048628330230713,"2222":-2.48024582862854,"2223":-5.1264495849609375,"2224":-1.0542874336242676,"2225":0.029797282069921494,"2226":3.9759793281555176,"2227":-15.251178741455078,"2228":11.549859046936035,"2229":-4.551375865936279,"2230":3.420053720474243,"2231":-0.4794473648071289,"2232":1.6445361375808716,"2233":0.3240232467651367,"2234":5.096637725830078,"2235":4.508591175079346,"2236":0.7587291598320007,"2237":6.054452419281006,"2238":2.4272544384002686,"2239":-7.771401405334473,"2240":9.837847709655762,"2241":4.284846782684326,"2242":-2.490370750427246,"2243":-0.6626429557800293,"2244":3.281590223312378,"2245":4.961130142211914,"2246":-0.7735032439231873,"2247":2.5309360027313232,"2248":7.3698601722717285,"2249":-3.8697640895843506,"2250":2.9443209171295166,"2251":6.367735862731934,"2252":-3.418968439102173,"2253":3.6802821159362793,"2254":-0.8504518866539001,"2255":-1.1834132671356201,"2256":-6.002737045288086,"2257":6.277370452880859,"2258":2.9075748920440674,"2259":7.270664691925049,"2260":-4.618059158325195,"2261":-2.0488786697387695,"2262":-1.4899739027023315,"2263":3.10587477684021,"2264":-5.853475093841553,"2265":2.439570903778076,"2266":5.906632900238037,"2267":-9.225593566894531,"2268":-1.617297649383545,"2269":-2.955801010131836,"2270":4.482279300689697,"2271":0.3850361406803131,"2272":-5.413154125213623,"2273":0.5235766768455505,"2274":6.721059322357178,"2275":-0.09544496983289719,"2276":-2.896441698074341,"2277":-4.542910575866699,"2278":2.270024299621582,"2279":-7.547679424285889,"2280":-3.389065742492676,"2281":-6.004980087280273,"2282":1.0289969444274902,"2283":-15.170890808105469,"2284":0.6113855242729187,"2285":-1.5630868673324585,"2286":-3.6886212825775146,"2287":-7.243514060974121,"2288":-1.8266921043395996,"2289":0.11979388445615768,"2290":-1.9678374528884888,"2291":-8.027400970458984,"2292":-8.981331825256348,"2293":11.210222244262695,"2294":-0.29212650656700134,"2295":1.598341464996338,"2296":5.442421913146973,"2297":0.4467306435108185,"2298":-4.005326271057129,"2299":-6.933535575866699,"2300":9.425524711608887,"2301":0.9763856530189514,"2302":-0.4435158371925354,"2303":-10.324332237243652,"2304":-8.29431438446045,"2305":1.1362282037734985,"2306":-0.01612221822142601,"2307":-3.5477728843688965,"2308":1.6765223741531372,"2309":2.2650959491729736,"2310":-3.651831865310669,"2311":-10.420613288879395,"2312":1.941220760345459,"2313":1.1068625450134277,"2314":-3.069838047027588,"2315":1.4466742277145386,"2316":2.482750654220581,"2317":-0.7534832954406738,"2318":-1.1074107885360718,"2319":1.6246099472045898,"2320":-0.38729164004325867,"2321":6.5532546043396,"2322":-7.9054951667785645,"2323":0.7359082698822021,"2324":-8.8392972946167,"2325":8.900786399841309,"2326":3.935185670852661,"2327":2.059058427810669,"2328":-6.873502731323242,"2329":-6.515460014343262,"2330":1.0918806791305542,"2331":9.40757942199707,"2332":3.478512763977051,"2333":-2.02683687210083,"2334":-2.7105438709259033,"2335":-3.3716773986816406,"2336":3.2324063777923584,"2337":-5.625367164611816,"2338":-1.6865719556808472,"2339":-0.24182429909706116,"2340":0.8488667607307434,"2341":-1.0438109636306763,"2342":-2.314974069595337,"2343":-1.7761679887771606,"2344":2.444988489151001,"2345":0.17767944931983948,"2346":-1.5040919780731201,"2347":-3.9739723205566406,"2348":0.2496410459280014,"2349":2.6875452995300293,"2350":-0.47385773062705994,"2351":0.6497299075126648,"2352":4.528358459472656,"2353":0.559913694858551,"2354":-3.5084781646728516,"2355":6.310853958129883,"2356":1.6656895875930786,"2357":0.8047905564308167,"2358":3.1822023391723633,"2359":-1.7016699314117432,"2360":1.6913721561431885,"2361":-2.440251588821411,"2362":0.6720048189163208,"2363":-0.9697409272193909,"2364":-3.5920026302337646,"2365":-3.0510571002960205,"2366":-1.757624626159668,"2367":-1.8184237480163574,"2368":3.1453707218170166,"2369":-1.2149168252944946,"2370":-0.17931431531906128,"2371":-0.5834825038909912,"2372":-0.4722886085510254,"2373":1.1852203607559204,"2374":-2.4965667724609375,"2375":0.501824140548706,"2376":1.2419822216033936,"2377":0.23196813464164734,"2378":4.6868672370910645,"2379":0.8940813541412354,"2380":-0.05825484171509743,"2381":-1.7139207124710083,"2382":-0.7323637008666992,"2383":2.056725263595581,"2384":0.32867521047592163,"2385":0.9114213585853577,"2386":-1.642317533493042,"2387":1.0977903604507446,"2388":-0.6450825333595276,"2389":-1.4062018394470215,"2390":-2.1173529624938965,"2391":-1.0397645235061646,"2392":1.7108685970306396,"2393":-0.9945000410079956,"2394":-0.7613525390625,"2395":1.985548734664917,"2396":1.4456380605697632,"2397":-2.279437303543091,"2398":-0.7197474241256714,"2399":0.39235720038414,"2400":1.4769712686538696,"2401":2.84334397315979,"2402":-0.7873363494873047,"2403":0.49351179599761963,"2404":1.405173420906067,"2405":-0.03589935228228569,"2406":0.026647135615348816,"2407":0.0008597959531471133,"2408":0.028632644563913345,"2409":0.015893232077360153,"2410":0.042280372232198715,"2411":0.056567009538412094,"2412":-0.049091096967458725,"2413":0.01719248667359352,"2414":0.05685808137059212,"2415":-0.013029762543737888,"2416":0.023064689710736275,"2417":0.017579149454832077,"2418":0.05126583203673363,"2419":0.002288762480020523,"2420":-0.07397894561290741,"2421":-0.00425318256020546,"2422":0.05836149677634239,"2423":0.005534769967198372,"2424":-0.011129656806588173,"2425":0.06006718426942825,"2426":-0.06648626923561096,"2427":-0.047564923763275146,"2428":-0.0515969842672348,"2429":0.04619769752025604,"2430":-0.008152740076184273,"2431":-0.016342585906386375,"2432":-0.03867396339774132,"2433":-0.06918591260910034,"2434":0.03943751007318497,"2435":-0.02334432676434517,"2436":-0.04987715557217598,"2437":-0.03465520218014717,"2438":-0.031846873462200165,"2439":-0.05560680478811264,"2440":-0.0018071334343403578,"2441":0.007361358031630516,"2442":-0.05886228382587433,"2443":-0.02360682561993599,"2444":-0.06351998448371887,"2445":0.03692731261253357,"2446":0.04499543085694313,"2447":-0.06577500700950623,"2448":0.0686354786157608,"2449":-0.011225826106965542,"2450":-0.013251753523945808,"2451":0.005465725902467966,"2452":0.012494808062911034,"2453":-0.06389216333627701,"2454":0.045698098838329315,"2455":-0.03395920619368553,"2456":0.054703909903764725,"2457":-0.035239193588495255,"2458":0.01862368732690811,"2459":0.025106528773903847,"2460":-0.07400435954332352,"2461":-0.0650792196393013,"2462":-0.025805411860346794,"2463":-0.05639433488249779,"2464":-0.06363020837306976,"2465":0.004247921984642744,"2466":-0.005231428891420364,"2467":0.0016322842566296458,"2468":-0.054205261170864105,"2469":0.049239251762628555,"2470":-6.2686638832092285,"2471":-0.7887910604476929,"2472":-3.077662229537964,"2473":-2.9866652488708496,"2474":0.5052082538604736,"2475":10.657126426696777,"2476":5.797214031219482,"2477":-4.585561275482178,"2478":3.269784927368164,"2479":6.194488525390625,"2480":7.149347305297852,"2481":-6.317986965179443,"2482":4.07069206237793,"2483":-0.6813533902168274,"2484":2.5868396759033203,"2485":2.65173602104187,"2486":1.2690671682357788,"2487":-3.5289971828460693,"2488":0.47169268131256104,"2489":1.9754128456115723,"2490":5.662220001220703,"2491":-9.543684005737305,"2492":-2.6357617378234863,"2493":0.32113367319107056,"2494":2.480036973953247,"2495":-2.7431788444519043,"2496":4.434077739715576,"2497":-1.578857660293579,"2498":-3.2776708602905273,"2499":-4.249966144561768,"2500":3.517289638519287,"2501":-1.3460822105407715,"2502":0.5198974013328552,"2503":-1.410192847251892,"2504":3.2673521041870117,"2505":-1.397817611694336,"2506":5.818398952484131,"2507":3.1807398796081543,"2508":2.1518826484680176,"2509":0.5781680345535278,"2510":1.988760232925415,"2511":-1.8573360443115234,"2512":-5.458886623382568,"2513":-2.2615129947662354,"2514":7.070559501647949,"2515":-3.315342664718628,"2516":5.356346607208252,"2517":5.7844977378845215,"2518":-2.886077642440796,"2519":-1.1113569736480713,"2520":-4.212708473205566,"2521":-1.67643404006958,"2522":-6.509667873382568,"2523":0.28589093685150146,"2524":1.5507436990737915,"2525":-4.62109375,"2526":2.201982259750366,"2527":5.67742395401001,"2528":-4.018971920013428,"2529":3.4596598148345947,"2530":-1.9310612678527832,"2531":-9.728597640991211,"2532":2.5983622074127197,"2533":0.5077773332595825,"2534":-5.340947151184082,"2535":0.057293061167001724,"2536":-0.050887759774923325,"2537":-0.01076706126332283,"2538":-0.0072795129381120205,"2539":-0.00876681786030531,"2540":0.006880079861730337,"2541":-0.06505953520536423,"2542":0.05007195100188255,"2543":0.04568173736333847,"2544":-0.0715232864022255,"2545":0.06640265136957169,"2546":0.001644747331738472,"2547":-0.008368740789592266,"2548":0.028629964217543602,"2549":0.021837063133716583,"2550":0.05062789469957352,"2551":-0.04574788361787796,"2552":0.0721089094877243,"2553":0.06272317469120026,"2554":0.052761420607566833,"2555":-0.026135947555303574,"2556":-0.04916771128773689,"2557":0.03322327136993408,"2558":0.036025870591402054,"2559":0.039687518030405045,"2560":-0.0056923856027424335,"2561":-0.012672423385083675,"2562":-0.026225311681628227,"2563":-0.0029308018274605274,"2564":-0.03882883861660957,"2565":0.02588140219449997,"2566":0.007488591596484184,"2567":-0.06373117119073868,"2568":-0.0310286246240139,"2569":-0.009771054610610008,"2570":0.05224507674574852,"2571":0.016117485240101814,"2572":-0.05352737009525299,"2573":0.0035571937914937735,"2574":0.05900271236896515,"2575":0.009837253019213676,"2576":0.0500381663441658,"2577":0.04061022028326988,"2578":0.017020534723997116,"2579":0.008706388995051384,"2580":0.04899488016963005,"2581":-0.04041127860546112,"2582":0.03753194585442543,"2583":-0.015475853346288204,"2584":0.030663851648569107,"2585":-0.006891028024256229,"2586":-0.0679052397608757,"2587":-0.011978676542639732,"2588":-0.05694348365068436,"2589":0.0686502605676651,"2590":0.06396365165710449,"2591":-0.01004021055996418,"2592":0.050417520105838776,"2593":0.04276858642697334,"2594":-0.06697555631399155,"2595":0.03745860978960991,"2596":0.05959409102797508,"2597":0.022566772997379303,"2598":-0.0034667723812162876,"2599":0.027573350816965103,"2600":-1.7919491529464722,"2601":-7.5437726974487305,"2602":1.2444638013839722,"2603":-1.039021611213684,"2604":-0.5851401090621948,"2605":-5.536260604858398,"2606":-7.637599468231201,"2607":-1.4507899284362793,"2608":5.828288555145264,"2609":6.37803840637207,"2610":1.3575291633605957,"2611":3.477417469024658,"2612":1.234399676322937,"2613":1.997275471687317,"2614":0.10853556543588638,"2615":3.6833159923553467,"2616":1.3973313570022583,"2617":0.8901693224906921,"2618":2.422123670578003,"2619":-9.345575332641602,"2620":2.183288812637329,"2621":-2.10451340675354,"2622":1.1674048900604248,"2623":2.9310123920440674,"2624":4.9065141677856445,"2625":5.101004600524902,"2626":3.180668830871582,"2627":6.619471549987793,"2628":6.847506999969482,"2629":-7.4723310470581055,"2630":-2.8955800533294678,"2631":2.0038304328918457,"2632":1.8088470697402954,"2633":-6.426279544830322,"2634":1.3461344242095947,"2635":1.3870359659194946,"2636":3.7139573097229004,"2637":4.936226844787598,"2638":5.594996452331543,"2639":8.006499290466309,"2640":3.759992837905884,"2641":-0.1592193990945816,"2642":-5.346445560455322,"2643":-0.27133962512016296,"2644":2.5159807205200195,"2645":1.0900050401687622,"2646":-2.681576728820801,"2647":5.8788743019104,"2648":-0.031020041555166245,"2649":4.476846218109131,"2650":-1.9582743644714355,"2651":-1.4747802019119263,"2652":-1.2576411962509155,"2653":-2.9739885330200195,"2654":-1.8463428020477295,"2655":2.4762167930603027,"2656":-0.10387493669986725,"2657":-4.869452476501465,"2658":-0.299147367477417,"2659":-1.1454696655273438,"2660":-6.223847389221191,"2661":1.5307658910751343,"2662":7.815173149108887,"2663":-0.12928998470306396,"2664":5.883228778839111,"2665":-2.875092029571533,"2666":16.577024459838867,"2667":5.496105194091797,"2668":6.239101886749268,"2669":0.2694644033908844,"2670":1.826058030128479,"2671":-6.6847310066223145,"2672":5.1338300704956055,"2673":-0.208039328455925,"2674":8.51172161102295,"2675":-5.040129661560059,"2676":-3.1716957092285156,"2677":-1.0555530786514282,"2678":-0.6612110733985901,"2679":4.857670783996582,"2680":3.772540807723999,"2681":-0.08144506812095642,"2682":6.664605140686035,"2683":1.6348198652267456,"2684":-3.957446575164795,"2685":-0.7903649806976318,"2686":-0.5734809637069702,"2687":0.7424911260604858,"2688":6.997156143188477,"2689":-1.8770787715911865,"2690":-10.271492958068848,"2691":9.98331069946289,"2692":-1.6015262603759766,"2693":-15.576043128967285,"2694":3.9106407165527344,"2695":8.29091739654541,"2696":-0.18447959423065186,"2697":-5.507112503051758,"2698":7.691991806030273,"2699":4.703924179077148,"2700":-8.726201057434082,"2701":0.2950933873653412,"2702":-2.539010763168335,"2703":-0.5611713528633118,"2704":-11.338228225708008,"2705":-0.6298683881759644,"2706":0.28274017572402954,"2707":3.0299081802368164,"2708":-9.847400665283203,"2709":-2.7136282920837402,"2710":0.2650514841079712,"2711":-3.4364089965820312,"2712":-7.143658638000488,"2713":-10.20862865447998,"2714":12.390741348266602,"2715":-8.58847713470459,"2716":-0.39590540528297424,"2717":0.7545651793479919,"2718":-2.1946237087249756,"2719":-7.183363437652588,"2720":-3.101698160171509,"2721":-3.019327163696289,"2722":6.584226608276367,"2723":10.433021545410156,"2724":3.7195799350738525,"2725":-0.0077187782153487206,"2726":0.400607705116272,"2727":1.744921326637268,"2728":1.2886608839035034,"2729":-1.8033366203308105,"2730":2.881394386291504,"2731":5.265255451202393,"2732":1.6105194091796875,"2733":3.1658976078033447,"2734":2.1390743255615234,"2735":-6.5694122314453125,"2736":2.2187578678131104,"2737":-5.672804355621338,"2738":2.4014570713043213,"2739":-2.4581618309020996,"2740":2.955451011657715,"2741":-5.88019323348999,"2742":13.089322090148926,"2743":-1.3803579807281494,"2744":8.216962814331055,"2745":-3.503696918487549,"2746":7.7438063621521,"2747":-8.633879661560059,"2748":3.363004446029663,"2749":-13.941948890686035,"2750":-1.5686043500900269,"2751":4.5636467933654785,"2752":7.746939182281494,"2753":10.97303581237793,"2754":-0.15459904074668884,"2755":7.262124538421631,"2756":-13.977482795715332,"2757":7.0497941970825195,"2758":10.44296646118164,"2759":2.588918685913086,"2760":1.9412920475006104,"2761":0.5427165031433105,"2762":-7.466487407684326,"2763":9.066546440124512,"2764":-1.4824563264846802,"2765":-3.397158145904541,"2766":6.535508632659912,"2767":-2.415350914001465,"2768":6.353237152099609,"2769":-1.8681800365447998,"2770":7.339510440826416,"2771":-3.590245485305786,"2772":2.165135622024536,"2773":2.5094034671783447,"2774":-13.15710735321045,"2775":-6.070040225982666,"2776":-6.1617326736450195,"2777":-7.523101329803467,"2778":-0.275684654712677,"2779":9.173163414001465,"2780":1.2269283533096313,"2781":2.6649627685546875,"2782":3.5884017944335938,"2783":0.9946435689926147,"2784":10.972185134887695,"2785":-4.655472278594971,"2786":2.5991370677948,"2787":-1.756438970565796,"2788":-1.109755516052246,"2789":0.7614703178405762,"2790":-4.192368030548096,"2791":4.591235637664795,"2792":4.6932597160339355,"2793":10.436161041259766,"2794":-3.841684103012085,"2795":0.04815671965479851,"2796":0.04136895760893822,"2797":0.004851807374507189,"2798":0.06437849998474121,"2799":-0.011565424501895905,"2800":-0.039876919239759445,"2801":-0.06553175300359726,"2802":-0.07259184122085571,"2803":0.03427167236804962,"2804":0.023617256432771683,"2805":-0.059691235423088074,"2806":0.003138607135042548,"2807":0.04668081924319267,"2808":-0.013090613298118114,"2809":-0.06231742724776268,"2810":0.025243453681468964,"2811":0.04382230341434479,"2812":-0.0315595418214798,"2813":0.07008697837591171,"2814":0.020667970180511475,"2815":-0.06327304244041443,"2816":-0.0533294603228569,"2817":0.021765314042568207,"2818":-0.034131500869989395,"2819":-0.02686040662229061,"2820":-0.03408702835440636,"2821":-0.015160772949457169,"2822":0.02385057508945465,"2823":0.05220113322138786,"2824":-0.012798256240785122,"2825":0.059616222977638245,"2826":-0.07326945662498474,"2827":-0.020656974986195564,"2828":-0.05327703431248665,"2829":-0.06446082890033722,"2830":0.049267690628767014,"2831":-0.034844204783439636,"2832":-0.023469043895602226,"2833":0.03475819155573845,"2834":-0.052663445472717285,"2835":0.05017578601837158,"2836":0.06012184917926788,"2837":0.036098912358284,"2838":-0.03824325650930405,"2839":-0.010021178983151913,"2840":-0.022090943530201912,"2841":0.013616086915135384,"2842":0.06872516125440598,"2843":0.04342200234532356,"2844":-0.04233411327004433,"2845":0.05967796593904495,"2846":0.009762086905539036,"2847":-0.04473252221941948,"2848":0.06881799548864365,"2849":-0.005903349258005619,"2850":-0.012865825556218624,"2851":-0.008205064572393894,"2852":0.006159871816635132,"2853":-0.005682514049112797,"2854":-0.027236612513661385,"2855":-0.018369529396295547,"2856":0.04222753271460533,"2857":0.038270242512226105,"2858":0.02216372825205326,"2859":-0.05049559846520424,"2860":-7.5747785568237305,"2861":5.853891372680664,"2862":3.956282615661621,"2863":3.991406202316284,"2864":-3.6109859943389893,"2865":19.96937370300293,"2866":5.470523834228516,"2867":4.810748100280762,"2868":3.899470567703247,"2869":-1.3430639505386353,"2870":8.214944839477539,"2871":2.1272246837615967,"2872":-5.21431303024292,"2873":-4.039033889770508,"2874":-4.441826820373535,"2875":0.49533015489578247,"2876":8.796135902404785,"2877":-1.4884729385375977,"2878":-4.51123571395874,"2879":3.9267520904541016,"2880":9.88989543914795,"2881":-7.210196018218994,"2882":0.05706983059644699,"2883":6.337823867797852,"2884":0.6052454113960266,"2885":-4.303959846496582,"2886":4.70507287979126,"2887":0.000778226472903043,"2888":6.733871936798096,"2889":3.0614383220672607,"2890":2.505396604537964,"2891":-6.266289234161377,"2892":-5.074910640716553,"2893":-4.589286804199219,"2894":-3.2815232276916504,"2895":4.662545680999756,"2896":7.179811000823975,"2897":7.384235382080078,"2898":0.6007109880447388,"2899":-10.328107833862305,"2900":-7.724334716796875,"2901":5.9912214279174805,"2902":-4.58125114440918,"2903":-15.21764087677002,"2904":5.493528366088867,"2905":11.541184425354004,"2906":-2.5252153873443604,"2907":10.411737442016602,"2908":-12.161526679992676,"2909":-1.0679683685302734,"2910":-9.933082580566406,"2911":0.8076714277267456,"2912":5.427023410797119,"2913":2.3572161197662354,"2914":-9.711304664611816,"2915":-3.12479829788208,"2916":-7.969521999359131,"2917":-1.865617275238037,"2918":9.770723342895508,"2919":2.590160846710205,"2920":8.782292366027832,"2921":2.2672221660614014,"2922":3.159203052520752,"2923":7.0040812492370605,"2924":1.1679928302764893,"2925":5.522726535797119,"2926":-1.6484664678573608,"2927":-1.2208118438720703,"2928":-1.4555386304855347,"2929":-6.749019622802734,"2930":7.064701080322266,"2931":9.86483097076416,"2932":-3.8538429737091064,"2933":-2.1292686462402344,"2934":-2.3535056114196777,"2935":0.6724327206611633,"2936":-5.1236162185668945,"2937":-2.4604718685150146,"2938":-1.4965378046035767,"2939":-3.6091389656066895,"2940":-1.6979033946990967,"2941":3.1959972381591797,"2942":6.214127540588379,"2943":0.2871551811695099,"2944":5.24655294418335,"2945":-6.252106189727783,"2946":0.9646560549736023,"2947":-2.501143455505371,"2948":-2.669553518295288,"2949":3.1150741577148438,"2950":-0.39442476630210876,"2951":3.642526626586914,"2952":-2.909313917160034,"2953":3.2813632488250732,"2954":6.366063594818115,"2955":3.507416248321533,"2956":1.2681005001068115,"2957":-4.150116920471191,"2958":1.5833239555358887,"2959":-3.3663947582244873,"2960":-1.3968710899353027,"2961":2.19027042388916,"2962":-3.1316356658935547,"2963":-3.2282559871673584,"2964":5.063032150268555,"2965":2.4350223541259766,"2966":1.0974807739257812,"2967":2.1852824687957764,"2968":-2.686742067337036,"2969":-4.168407917022705,"2970":7.079365253448486,"2971":-2.6857643127441406,"2972":-1.573969841003418,"2973":0.8005212545394897,"2974":-0.9071432948112488,"2975":6.444859504699707,"2976":-2.4889397621154785,"2977":5.378335952758789,"2978":2.5269792079925537,"2979":-2.5635135173797607,"2980":-2.4248554706573486,"2981":-2.4379496574401855,"2982":4.451282978057861,"2983":-0.733468234539032,"2984":3.7626726627349854,"2985":1.6246366500854492,"2986":0.26188793778419495,"2987":3.822438955307007,"2988":0.015521010383963585,"2989":3.0465891361236572,"2990":0.00698536541312933,"2991":0.033332597464323044,"2992":-0.05870001018047333,"2993":-0.014912012964487076,"2994":-0.04711340740323067,"2995":0.008373339660465717,"2996":-0.0062042283825576305,"2997":0.032147422432899475,"2998":0.024542635306715965,"2999":-0.0077918292954564095,"3000":0.03368191421031952,"3001":-0.0030974962282925844,"3002":0.013289745897054672,"3003":0.04099256545305252,"3004":0.060642316937446594,"3005":0.0036388945300132036,"3006":-0.06905212253332138,"3007":-0.043647535145282745,"3008":-0.03432692587375641,"3009":0.06961649656295776,"3010":-0.05595846846699715,"3011":0.05524161830544472,"3012":-0.019873322919011116,"3013":0.029891639947891235,"3014":0.015464214608073235,"3015":0.06946580111980438,"3016":0.03884722664952278,"3017":-0.04128649830818176,"3018":0.06857273727655411,"3019":-0.0219220332801342,"3020":0.01884913071990013,"3021":0.002287600887939334,"3022":-0.06890816241502762,"3023":-0.022019432857632637,"3024":-0.018511222675442696,"3025":0.05253981798887253,"3026":-0.047877807170152664,"3027":0.02782091312110424,"3028":-0.049932945519685745,"3029":0.013288108631968498,"3030":0.054732222110033035,"3031":0.05999179184436798,"3032":0.061664216220378876,"3033":-0.013041791506111622,"3034":0.04453454911708832,"3035":0.02500876970589161,"3036":0.05859263986349106,"3037":0.0020346275996416807,"3038":-0.06951241195201874,"3039":0.05692850053310394,"3040":0.04507164657115936,"3041":0.04841136187314987,"3042":0.02528354525566101,"3043":0.05698683485388756,"3044":-0.012052495963871479,"3045":-0.01418553851544857,"3046":0.022897493094205856,"3047":-0.0005322079523466527,"3048":-0.042670901864767075,"3049":0.06558847427368164,"3050":-0.03571859002113342,"3051":-0.07292555272579193,"3052":0.046316079795360565,"3053":0.06707798689603806,"3054":0.017263073474168777,"3055":-4.288398265838623,"3056":6.290323734283447,"3057":-4.0451436042785645,"3058":-2.624136447906494,"3059":2.103020668029785,"3060":-4.2545061111450195,"3061":7.5051469802856445,"3062":-2.649951219558716,"3063":-1.8766449689865112,"3064":2.9055511951446533,"3065":-6.349329471588135,"3066":2.518146514892578,"3067":8.28217887878418,"3068":2.794877529144287,"3069":0.4260288178920746,"3070":4.078348159790039,"3071":-4.202197551727295,"3072":-0.9339537024497986,"3073":7.285451412200928,"3074":0.3226604461669922,"3075":-5.908753871917725,"3076":10.239997863769531,"3077":0.06615205854177475,"3078":4.610164642333984,"3079":-7.20815372467041,"3080":-0.8782093524932861,"3081":-2.4001541137695312,"3082":4.798172473907471,"3083":5.279526233673096,"3084":1.1869559288024902,"3085":5.300079345703125,"3086":-6.012762069702148,"3087":4.272744178771973,"3088":4.017930507659912,"3089":-4.326671600341797,"3090":-1.0067942142486572,"3091":7.921322822570801,"3092":2.3813564777374268,"3093":1.5795681476593018,"3094":-11.048831939697266,"3095":4.1935834884643555,"3096":-1.2274494171142578,"3097":3.002967119216919,"3098":0.1504245549440384,"3099":-1.9571349620819092,"3100":1.5828263759613037,"3101":1.6001440286636353,"3102":4.846062660217285,"3103":3.2907979488372803,"3104":1.3480373620986938,"3105":1.8256914615631104,"3106":-0.47327709197998047,"3107":-1.760339617729187,"3108":1.6710392236709595,"3109":11.339481353759766,"3110":3.873640775680542,"3111":-0.31593218445777893,"3112":1.1833993196487427,"3113":-0.5723133683204651,"3114":-7.701779842376709,"3115":-6.797671794891357,"3116":-0.947652280330658,"3117":-1.6702544689178467,"3118":0.5081220865249634,"3119":-2.3838441371917725,"3120":-0.7924810647964478,"3121":-0.5677984952926636,"3122":6.60865592956543,"3123":3.145242214202881,"3124":1.503544569015503,"3125":2.887097120285034,"3126":4.2457709312438965,"3127":9.35889720916748,"3128":1.8570111989974976,"3129":3.43587589263916,"3130":0.4770675301551819,"3131":-1.190497875213623,"3132":-0.45777374505996704,"3133":3.796405553817749,"3134":-0.9372467994689941,"3135":6.544702529907227,"3136":-5.45936918258667,"3137":7.141074180603027,"3138":-9.56704330444336,"3139":2.0938920974731445,"3140":3.592259407043457,"3141":-8.582010269165039,"3142":-4.524139881134033,"3143":-3.863955020904541,"3144":0.5830543637275696,"3145":0.8010727167129517,"3146":1.5316871404647827,"3147":0.5921664834022522,"3148":4.913736343383789,"3149":1.4861897230148315,"3150":-1.8022880554199219,"3151":0.3588792681694031,"3152":-3.779841661453247,"3153":-5.004680156707764,"3154":-7.498352527618408,"3155":1.8895896673202515,"3156":0.6555519104003906,"3157":0.07221627235412598,"3158":4.497109413146973,"3159":1.3533505201339722,"3160":1.2965774536132812,"3161":4.547252655029297,"3162":-5.502139568328857,"3163":1.3483879566192627,"3164":-4.863090991973877,"3165":-0.40122729539871216,"3166":-1.1443376541137695,"3167":0.7504435777664185,"3168":-5.325241565704346,"3169":-0.1197812631726265,"3170":5.296876907348633,"3171":-0.49597206711769104,"3172":-3.8753697872161865,"3173":-0.8571422100067139,"3174":1.9931986331939697,"3175":-0.5905255675315857,"3176":-2.484281063079834,"3177":-4.710186004638672,"3178":6.8366618156433105,"3179":-3.8015432357788086,"3180":-1.6156610250473022,"3181":0.8807411193847656,"3182":0.0047439387999475,"3183":1.451114535331726,"3184":2.484720468521118,"3185":-1.1022727489471436,"3186":-0.23540011048316956,"3187":3.1955273151397705,"3188":-2.7442433834075928,"3189":2.6464757919311523,"3190":5.088325500488281,"3191":6.162482738494873,"3192":1.4149340391159058,"3193":0.03149035573005676,"3194":11.025774955749512,"3195":-2.97587513923645,"3196":3.4436593055725098,"3197":-14.389686584472656,"3198":0.6444683074951172,"3199":7.341893672943115,"3200":1.9758358001708984,"3201":12.379059791564941,"3202":10.540853500366211,"3203":7.106682777404785,"3204":-15.830958366394043,"3205":7.58126163482666,"3206":11.871377944946289,"3207":-10.734686851501465,"3208":-1.5206438302993774,"3209":5.930865287780762,"3210":4.588301181793213,"3211":1.7608064413070679,"3212":7.5343194007873535,"3213":5.731581211090088,"3214":10.710578918457031,"3215":-3.610342264175415,"3216":10.116923332214355,"3217":-4.189091682434082,"3218":-11.638191223144531,"3219":6.331288814544678,"3220":10.604607582092285,"3221":-1.5445709228515625,"3222":5.397972583770752,"3223":1.4063502550125122,"3224":-14.978434562683105,"3225":0.3211050033569336,"3226":2.7887113094329834,"3227":11.365047454833984,"3228":-16.350427627563477,"3229":0.9682864546775818,"3230":-5.2233476638793945,"3231":-0.8012505769729614,"3232":-0.053935158997774124,"3233":-6.417922496795654,"3234":0.9409340620040894,"3235":-18.009023666381836,"3236":0.3369832932949066,"3237":16.762874603271484,"3238":-1.5207964181900024,"3239":1.1579188108444214,"3240":14.900126457214355,"3241":-5.075472831726074,"3242":-4.224364280700684,"3243":-5.053436279296875,"3244":13.178189277648926,"3245":8.982015609741211,"3246":-17.09113883972168,"3247":-6.6989006996154785,"3248":10.983394622802734,"3249":-0.0272591020911932,"3250":-3.121615171432495,"3251":-2.1226284503936768,"3252":-5.325783729553223,"3253":0.6948360800743103,"3254":4.9842071533203125,"3255":-0.6839831471443176,"3256":-12.967463493347168,"3257":-2.5160205364227295,"3258":-1.7047487497329712,"3259":-3.3092024326324463,"3260":1.9141228199005127,"3261":-3.305253744125366,"3262":-6.429574012756348,"3263":-5.838204383850098,"3264":-0.3004956841468811,"3265":0.9320115447044373,"3266":-4.022459506988525,"3267":0.3775838017463684,"3268":1.8151204586029053,"3269":4.112397193908691,"3270":4.7802581787109375,"3271":0.41336438059806824,"3272":9.564339637756348,"3273":-1.962198257446289,"3274":-2.492748498916626,"3275":7.891099452972412,"3276":-4.050899028778076,"3277":1.0157805681228638,"3278":11.896600723266602,"3279":-7.140575885772705,"3280":-5.036151885986328,"3281":7.564342021942139,"3282":-2.349400281906128,"3283":0.15142497420310974,"3284":3.274010181427002,"3285":-1.2377735376358032,"3286":4.864878177642822,"3287":6.363685607910156,"3288":1.4088072776794434,"3289":-13.00584888458252,"3290":5.5223517417907715,"3291":0.6788018345832825,"3292":0.1401069313287735,"3293":-1.2504286766052246,"3294":2.849797487258911,"3295":-1.592933177947998,"3296":5.672918319702148,"3297":4.068470478057861,"3298":8.542163848876953,"3299":-0.8075647354125977,"3300":0.5228332281112671,"3301":0.006913228426128626,"3302":-5.506282329559326,"3303":2.6109132766723633,"3304":0.23734280467033386,"3305":-5.003391742706299,"3306":-1.090956687927246,"3307":2.4798429012298584,"3308":-3.6862404346466064,"3309":-10.074004173278809,"3310":-3.9192373752593994,"3311":-2.6765992641448975,"3312":-1.7444506883621216,"3313":-2.3437423706054688,"3314":-3.932013750076294,"3315":-8.103647232055664,"3316":-3.9059059619903564,"3317":-7.446478843688965,"3318":0.5510002970695496,"3319":2.270132064819336,"3320":1.4942604303359985,"3321":3.8643605709075928,"3322":7.933020114898682,"3323":-3.3556323051452637,"3324":7.4401469230651855,"3325":-3.6191585063934326,"3326":-6.0870866775512695,"3327":-1.1214324235916138,"3328":-4.009566783905029,"3329":-2.71449875831604,"3330":0.48345381021499634,"3331":-2.643026828765869,"3332":-6.382687568664551,"3333":-8.539032936096191,"3334":7.7039794921875,"3335":0.24315302073955536,"3336":2.4248218536376953,"3337":5.220306396484375,"3338":-7.582289695739746,"3339":-6.418304920196533,"3340":-2.875253438949585,"3341":5.17756462097168,"3342":3.3563284873962402,"3343":2.065753221511841,"3344":-5.959964275360107,"3345":-4.841948986053467,"3346":6.206066131591797,"3347":9.889669418334961,"3348":-2.3956072330474854,"3349":9.551310539245605,"3350":-0.14875604212284088,"3351":-3.141047716140747,"3352":9.606871604919434,"3353":7.415737628936768,"3354":1.089078426361084,"3355":0.8351432681083679,"3356":1.925597071647644,"3357":1.9189873933792114,"3358":1.9475468397140503,"3359":10.883779525756836,"3360":3.8192098140716553,"3361":0.6386178731918335,"3362":0.5550529956817627,"3363":-0.16178646683692932,"3364":1.7508821487426758,"3365":-2.302860736846924,"3366":4.707818508148193,"3367":-4.048981666564941,"3368":-11.732458114624023,"3369":-8.687372207641602,"3370":-3.9112558364868164,"3371":-7.239928722381592,"3372":7.122071266174316,"3373":-2.1084885597229004,"3374":3.522897720336914,"3375":4.543951511383057,"3376":3.797863483428955,"3377":-3.2076327800750732,"3378":-1.3796162605285645,"3379":-0.5855535268783569,"3380":-0.4029850363731384,"3381":10.740179061889648,"3382":2.8868584632873535,"3383":-1.9922235012054443,"3384":7.778383731842041,"3385":7.1877546310424805,"3386":9.189598083496094,"3387":0.2616131901741028,"3388":-0.38288381695747375,"3389":-4.833316802978516,"3390":-2.368332624435425,"3391":-0.29192712903022766,"3392":0.8135272860527039,"3393":0.0770350843667984,"3394":-4.519750595092773,"3395":2.579684257507324,"3396":0.4512172043323517,"3397":-6.890643119812012,"3398":-0.45267605781555176,"3399":-1.5786086320877075,"3400":-4.015920162200928,"3401":-6.138796329498291,"3402":1.2758984565734863,"3403":-5.0039143562316895,"3404":-3.661803722381592,"3405":2.121396541595459,"3406":-3.292330741882324,"3407":-0.6040875911712646,"3408":-1.4135388135910034,"3409":6.7857184410095215,"3410":3.685635566711426,"3411":6.827805519104004,"3412":4.494045257568359,"3413":6.425463676452637,"3414":1.196359634399414,"3415":0.09082759916782379,"3416":0.9302319884300232,"3417":-2.854630708694458,"3418":-2.1449453830718994,"3419":-3.225792407989502,"3420":-0.29445698857307434,"3421":2.2216930389404297,"3422":-2.956970453262329,"3423":-3.3286187648773193,"3424":0.4372979402542114,"3425":1.894227147102356,"3426":2.1832525730133057,"3427":-6.885557651519775,"3428":-0.966678261756897,"3429":-5.933470726013184,"3430":-4.7189621925354,"3431":-3.808288335800171,"3432":5.913980960845947,"3433":-2.0942163467407227,"3434":-0.639230489730835,"3435":1.812093734741211,"3436":-1.2889081239700317,"3437":6.304414749145508,"3438":-6.007488250732422,"3439":0.25442570447921753,"3440":-8.169927597045898,"3441":5.631708145141602,"3442":-7.100170135498047,"3443":0.7206058502197266,"3444":1.9547815322875977,"3445":9.100519180297852,"3446":3.2006781101226807,"3447":4.569364070892334,"3448":-0.645481526851654,"3449":6.0603108406066895,"3450":10.034491539001465,"3451":-1.4531084299087524,"3452":-3.1648600101470947,"3453":-5.836222171783447,"3454":-8.182844161987305,"3455":-0.24597328901290894,"3456":6.924858570098877,"3457":-7.859710216522217,"3458":-5.046710014343262,"3459":5.507099151611328,"3460":-1.8938666582107544,"3461":3.475785732269287,"3462":-5.970825672149658,"3463":-3.8929734230041504,"3464":5.267799377441406,"3465":0.5198274254798889,"3466":0.33084845542907715,"3467":-1.301146149635315,"3468":6.679152965545654,"3469":4.763881683349609,"3470":-4.7712860107421875,"3471":0.9376356601715088,"3472":-1.0657094717025757,"3473":7.9655585289001465,"3474":-2.268167495727539,"3475":0.6535519957542419,"3476":-2.5584278106689453,"3477":-2.1826133728027344,"3478":1.0057646036148071,"3479":-7.167843818664551,"3480":-5.509359359741211,"3481":-5.478565692901611,"3482":-2.1010427474975586,"3483":-2.406015634536743,"3484":15.037086486816406,"3485":4.34060001373291,"3486":5.339413642883301,"3487":1.4585418701171875,"3488":2.779481887817383,"3489":2.8718066215515137,"3490":7.677452564239502,"3491":-10.848627090454102,"3492":-2.9142327308654785,"3493":0.7363290190696716,"3494":-0.11607921868562698,"3495":10.758030891418457,"3496":0.5427934527397156,"3497":4.774923801422119,"3498":1.8840409517288208,"3499":1.959295392036438,"3500":2.094261884689331,"3501":2.119367837905884,"3502":-0.43797367811203003,"3503":6.830366611480713,"3504":0.5356582999229431,"3505":3.8011739253997803,"3506":-7.467798233032227,"3507":9.14877986907959,"3508":3.6696908473968506,"3509":1.0667940378189087,"3510":8.650209426879883,"3511":0.2785283029079437,"3512":0.45037540793418884,"3513":4.5855021476745605,"3514":0.17070597410202026,"3515":-11.418310165405273,"3516":5.135221004486084,"3517":-3.3922626972198486,"3518":9.388374328613281,"3519":1.108505129814148,"3520":3.981372356414795,"3521":1.3777161836624146,"3522":-0.3771677017211914,"3523":-6.342333793640137,"3524":-7.726231575012207,"3525":3.861452341079712,"3526":1.9260809421539307,"3527":-8.756665229797363,"3528":4.389146327972412,"3529":-3.6761786937713623,"3530":5.722814083099365,"3531":0.7961389422416687,"3532":-7.1583638191223145,"3533":-1.6656010150909424,"3534":-0.5281109809875488,"3535":5.630743980407715,"3536":3.0371205806732178,"3537":-0.08424978703260422,"3538":-6.504495143890381,"3539":-0.7278933525085449,"3540":-8.739655494689941,"3541":-3.45290470123291,"3542":-4.493528842926025,"3543":-11.764883995056152,"3544":4.0212626457214355,"3545":-10.419665336608887,"3546":5.005904197692871,"3547":8.509644508361816,"3548":-2.8170363903045654,"3549":1.1957656145095825,"3550":2.648860454559326,"3551":-8.591927528381348,"3552":1.2822264432907104,"3553":2.162111520767212,"3554":2.8011419773101807,"3555":0.9789288640022278,"3556":-0.9055030941963196,"3557":0.08607305586338043,"3558":5.020328044891357,"3559":-4.843306064605713,"3560":-3.7954587936401367,"3561":5.974388122558594,"3562":3.0727899074554443,"3563":0.49456924200057983,"3564":-12.05445671081543,"3565":0.5343510508537292,"3566":-1.5379823446273804,"3567":-1.566069483757019,"3568":0.5638660192489624,"3569":4.151714324951172,"3570":-3.9961636066436768,"3571":12.61515998840332,"3572":4.139494895935059,"3573":2.754544496536255,"3574":3.018784761428833,"3575":-5.91953182220459,"3576":-1.7572921514511108,"3577":6.285046577453613,"3578":0.7612943649291992,"3579":3.459716320037842,"3580":0.5549717545509338,"3581":-5.281676769256592,"3582":6.708024978637695,"3583":-4.723175048828125,"3584":0.7858284711837769,"3585":5.191747665405273,"3586":0.9167249202728271,"3587":-1.9152660369873047,"3588":4.447138786315918,"3589":-4.0932841300964355,"3590":6.261903285980225,"3591":-1.1428735256195068,"3592":4.61063289642334,"3593":-1.0304012298583984,"3594":-0.593997061252594,"3595":-2.3591551780700684,"3596":-0.9448745250701904,